net
{
	node_size = (130.0 55.0);
}

node node0
{
	states = ("state0" "state1" );
}
node hidden0to1
{
	states = ("state0" "state1" );
}
node hidden0to2
{
	states = ("state0" "state1" );
}
node hidden0to3
{
	states = ("state0" "state1" );
}
node hidden0to4
{
	states = ("state0" "state1" );
}
node hidden0to5
{
	states = ("state0" "state1" );
}
node hidden0to6
{
	states = ("state0" "state1" );
}
node hidden0to7
{
	states = ("state0" "state1" );
}
node hidden0to8
{
	states = ("state0" "state1" );
}
node hidden0to9
{
	states = ("state0" "state1" );
}
node node1
{
	states = ("state0" "state1" );
}
node hidden1to2
{
	states = ("state0" "state1" );
}
node hidden1to3
{
	states = ("state0" "state1" );
}
node hidden1to4
{
	states = ("state0" "state1" );
}
node hidden1to5
{
	states = ("state0" "state1" );
}
node hidden1to6
{
	states = ("state0" "state1" );
}
node hidden1to7
{
	states = ("state0" "state1" );
}
node hidden1to8
{
	states = ("state0" "state1" );
}
node hidden1to9
{
	states = ("state0" "state1" );
}
node node2
{
	states = ("state0" "state1" );
}
node hidden2to3
{
	states = ("state0" "state1" );
}
node hidden2to4
{
	states = ("state0" "state1" );
}
node hidden2to5
{
	states = ("state0" "state1" );
}
node hidden2to6
{
	states = ("state0" "state1" );
}
node hidden2to7
{
	states = ("state0" "state1" );
}
node hidden2to8
{
	states = ("state0" "state1" );
}
node hidden2to9
{
	states = ("state0" "state1" );
}
node node3
{
	states = ("state0" "state1" );
}
node hidden3to4
{
	states = ("state0" "state1" );
}
node hidden3to5
{
	states = ("state0" "state1" );
}
node hidden3to6
{
	states = ("state0" "state1" );
}
node hidden3to7
{
	states = ("state0" "state1" );
}
node hidden3to8
{
	states = ("state0" "state1" );
}
node hidden3to9
{
	states = ("state0" "state1" );
}
node node4
{
	states = ("state0" "state1" );
}
node hidden4to5
{
	states = ("state0" "state1" );
}
node hidden4to6
{
	states = ("state0" "state1" );
}
node hidden4to7
{
	states = ("state0" "state1" );
}
node hidden4to8
{
	states = ("state0" "state1" );
}
node hidden4to9
{
	states = ("state0" "state1" );
}
node node5
{
	states = ("state0" "state1" );
}
node hidden5to6
{
	states = ("state0" "state1" );
}
node hidden5to7
{
	states = ("state0" "state1" );
}
node hidden5to8
{
	states = ("state0" "state1" );
}
node hidden5to9
{
	states = ("state0" "state1" );
}
node node6
{
	states = ("state0" "state1" );
}
node hidden6to7
{
	states = ("state0" "state1" );
}
node hidden6to8
{
	states = ("state0" "state1" );
}
node hidden6to9
{
	states = ("state0" "state1" );
}
node node7
{
	states = ("state0" "state1" );
}
node hidden7to8
{
	states = ("state0" "state1" );
}
node hidden7to9
{
	states = ("state0" "state1" );
}
node node8
{
	states = ("state0" "state1" );
}
node hidden8to9
{
	states = ("state0" "state1" );
}
node node9
{
	states = ("state0" "state1" );
}
potential ( node0 | )
{
	data = (	0.5	0.5	);
}
potential ( hidden0to1 | node0 )
{
	data = ((	0.19485113056976067	0.8051488694302393	)
		(	0.19485113056976067	0.8051488694302393	));
}
potential ( hidden0to2 | node0 )
{
	data = ((	0.1854286496073274	0.8145713503926726	)
		(	0.1854286496073274	0.8145713503926726	));
}
potential ( hidden0to3 | node0 )
{
	data = ((	0.19505533595936586	0.8049446640406341	)
		(	0.19505533595936586	0.8049446640406341	));
}
potential ( hidden0to4 | node0 )
{
	data = ((	0.3083479161272027	0.6916520838727973	)
		(	0.3083479161272027	0.6916520838727973	));
}
potential ( hidden0to5 | node0 )
{
	data = ((	0.7137930593554414	0.28620694064455865	)
		(	0.7137930593554414	0.28620694064455865	));
}
potential ( hidden0to6 | node0 )
{
	data = ((	0.3053827626097132	0.6946172373902868	)
		(	0.3053827626097132	0.6946172373902868	));
}
potential ( hidden0to7 | node0 )
{
	data = ((	0.04361104492720369	0.9563889550727963	)
		(	0.04361104492720369	0.9563889550727963	));
}
potential ( hidden0to8 | node0 )
{
	data = ((	0.42038387386419984	0.5796161261358002	)
		(	0.42038387386419984	0.5796161261358002	));
}
potential ( hidden0to9 | node0 )
{
	data = ((	0.7344607212099373	0.26553927879006267	)
		(	0.7344607212099373	0.26553927879006267	));
}
potential ( node1 | node0 hidden0to1 )
{
	data = (((	0.5	0.5	)
		(	0.5	0.5	))
		((	0.5	0.5	)
		(	0.5	0.5	)));
}
potential ( hidden1to2 | node1 hidden0to2 )
{
	data = (((	0.9830820809044789	0.016917919095521095	)
		(	0.9830820809044789	0.016917919095521095	))
		((	0.9830820809044789	0.016917919095521095	)
		(	0.9830820809044789	0.016917919095521095	)));
}
potential ( hidden1to3 | node1 hidden0to3 )
{
	data = (((	0.9857066234914782	0.014293376508521805	)
		(	0.9857066234914782	0.014293376508521805	))
		((	0.9857066234914782	0.014293376508521805	)
		(	0.9857066234914782	0.014293376508521805	)));
}
potential ( hidden1to4 | node1 hidden0to4 )
{
	data = (((	0.36941793332690276	0.6305820666730972	)
		(	0.36941793332690276	0.6305820666730972	))
		((	0.36941793332690276	0.6305820666730972	)
		(	0.36941793332690276	0.6305820666730972	)));
}
potential ( hidden1to5 | node1 hidden0to5 )
{
	data = (((	0.8372566518580118	0.1627433481419882	)
		(	0.8372566518580118	0.1627433481419882	))
		((	0.8372566518580118	0.1627433481419882	)
		(	0.8372566518580118	0.1627433481419882	)));
}
potential ( hidden1to6 | node1 hidden0to6 )
{
	data = (((	0.30177098425609783	0.6982290157439022	)
		(	0.30177098425609783	0.6982290157439022	))
		((	0.30177098425609783	0.6982290157439022	)
		(	0.30177098425609783	0.6982290157439022	)));
}
potential ( hidden1to7 | node1 hidden0to7 )
{
	data = (((	0.9185149699073685	0.08148503009263153	)
		(	0.9185149699073685	0.08148503009263153	))
		((	0.9185149699073685	0.08148503009263153	)
		(	0.9185149699073685	0.08148503009263153	)));
}
potential ( hidden1to8 | node1 hidden0to8 )
{
	data = (((	0.177955584900651	0.822044415099349	)
		(	0.177955584900651	0.822044415099349	))
		((	0.177955584900651	0.822044415099349	)
		(	0.177955584900651	0.822044415099349	)));
}
potential ( hidden1to9 | node1 hidden0to9 )
{
	data = (((	0.8999893909830301	0.1000106090169699	)
		(	0.8999893909830301	0.1000106090169699	))
		((	0.8999893909830301	0.1000106090169699	)
		(	0.8999893909830301	0.1000106090169699	)));
}
potential ( node2 | node1 hidden1to2 )
{
	data = (((	0.5	0.5	)
		(	0.5	0.5	))
		((	0.5	0.5	)
		(	0.5	0.5	)));
}
potential ( hidden2to3 | node2 hidden1to3 )
{
	data = (((	0.072503696386508	0.927496303613492	)
		(	0.072503696386508	0.927496303613492	))
		((	0.072503696386508	0.927496303613492	)
		(	0.072503696386508	0.927496303613492	)));
}
potential ( hidden2to4 | node2 hidden1to4 )
{
	data = (((	0.7875748282215459	0.2124251717784541	)
		(	0.7875748282215459	0.2124251717784541	))
		((	0.7875748282215459	0.2124251717784541	)
		(	0.7875748282215459	0.2124251717784541	)));
}
potential ( hidden2to5 | node2 hidden1to5 )
{
	data = (((	0.4354124802863174	0.5645875197136826	)
		(	0.4354124802863174	0.5645875197136826	))
		((	0.4354124802863174	0.5645875197136826	)
		(	0.4354124802863174	0.5645875197136826	)));
}
potential ( hidden2to6 | node2 hidden1to6 )
{
	data = (((	0.2050005245005948	0.7949994754994052	)
		(	0.2050005245005948	0.7949994754994052	))
		((	0.2050005245005948	0.7949994754994052	)
		(	0.2050005245005948	0.7949994754994052	)));
}
potential ( hidden2to7 | node2 hidden1to7 )
{
	data = (((	0.47236415359324335	0.5276358464067566	)
		(	0.47236415359324335	0.5276358464067566	))
		((	0.47236415359324335	0.5276358464067566	)
		(	0.47236415359324335	0.5276358464067566	)));
}
potential ( hidden2to8 | node2 hidden1to8 )
{
	data = (((	0.06978669299656348	0.9302133070034365	)
		(	0.06978669299656348	0.9302133070034365	))
		((	0.06978669299656348	0.9302133070034365	)
		(	0.06978669299656348	0.9302133070034365	)));
}
potential ( hidden2to9 | node2 hidden1to9 )
{
	data = (((	0.861250823882188	0.138749176117812	)
		(	0.861250823882188	0.138749176117812	))
		((	0.861250823882188	0.138749176117812	)
		(	0.861250823882188	0.138749176117812	)));
}
potential ( node3 | node2 hidden2to3 )
{
	data = (((	0.5	0.5	)
		(	0.5	0.5	))
		((	0.5	0.5	)
		(	0.5	0.5	)));
}
potential ( hidden3to4 | node3 hidden2to4 )
{
	data = (((	0.25095434750811274	0.7490456524918873	)
		(	0.25095434750811274	0.7490456524918873	))
		((	0.25095434750811274	0.7490456524918873	)
		(	0.25095434750811274	0.7490456524918873	)));
}
potential ( hidden3to5 | node3 hidden2to5 )
{
	data = (((	0.40935875865340776	0.5906412413465922	)
		(	0.40935875865340776	0.5906412413465922	))
		((	0.40935875865340776	0.5906412413465922	)
		(	0.40935875865340776	0.5906412413465922	)));
}
potential ( hidden3to6 | node3 hidden2to6 )
{
	data = (((	0.06305242732842309	0.9369475726715769	)
		(	0.06305242732842309	0.9369475726715769	))
		((	0.06305242732842309	0.9369475726715769	)
		(	0.06305242732842309	0.9369475726715769	)));
}
potential ( hidden3to7 | node3 hidden2to7 )
{
	data = (((	0.32646021091572863	0.6735397890842714	)
		(	0.32646021091572863	0.6735397890842714	))
		((	0.32646021091572863	0.6735397890842714	)
		(	0.32646021091572863	0.6735397890842714	)));
}
potential ( hidden3to8 | node3 hidden2to8 )
{
	data = (((	0.6408159999559434	0.3591840000440566	)
		(	0.6408159999559434	0.3591840000440566	))
		((	0.6408159999559434	0.3591840000440566	)
		(	0.6408159999559434	0.3591840000440566	)));
}
potential ( hidden3to9 | node3 hidden2to9 )
{
	data = (((	0.7815326197102085	0.2184673802897915	)
		(	0.7815326197102085	0.2184673802897915	))
		((	0.7815326197102085	0.2184673802897915	)
		(	0.7815326197102085	0.2184673802897915	)));
}
potential ( node4 | node3 hidden3to4 )
{
	data = (((	0.5	0.5	)
		(	0.5	0.5	))
		((	0.5	0.5	)
		(	0.5	0.5	)));
}
potential ( hidden4to5 | node4 hidden3to5 )
{
	data = (((	0.7891537804651475	0.2108462195348525	)
		(	0.7891537804651475	0.2108462195348525	))
		((	0.7891537804651475	0.2108462195348525	)
		(	0.7891537804651475	0.2108462195348525	)));
}
potential ( hidden4to6 | node4 hidden3to6 )
{
	data = (((	0.23716802214645227	0.7628319778535477	)
		(	0.23716802214645227	0.7628319778535477	))
		((	0.23716802214645227	0.7628319778535477	)
		(	0.23716802214645227	0.7628319778535477	)));
}
potential ( hidden4to7 | node4 hidden3to7 )
{
	data = (((	0.158306590026691	0.841693409973309	)
		(	0.158306590026691	0.841693409973309	))
		((	0.158306590026691	0.841693409973309	)
		(	0.158306590026691	0.841693409973309	)));
}
potential ( hidden4to8 | node4 hidden3to8 )
{
	data = (((	0.6016827563614138	0.3983172436385862	)
		(	0.6016827563614138	0.3983172436385862	))
		((	0.6016827563614138	0.3983172436385862	)
		(	0.6016827563614138	0.3983172436385862	)));
}
potential ( hidden4to9 | node4 hidden3to9 )
{
	data = (((	0.42855390792696146	0.5714460920730385	)
		(	0.42855390792696146	0.5714460920730385	))
		((	0.42855390792696146	0.5714460920730385	)
		(	0.42855390792696146	0.5714460920730385	)));
}
potential ( node5 | node4 hidden4to5 )
{
	data = (((	0.5	0.5	)
		(	0.5	0.5	))
		((	0.5	0.5	)
		(	0.5	0.5	)));
}
potential ( hidden5to6 | node5 hidden4to6 )
{
	data = (((	0.2288159781195459	0.7711840218804541	)
		(	0.2288159781195459	0.7711840218804541	))
		((	0.2288159781195459	0.7711840218804541	)
		(	0.2288159781195459	0.7711840218804541	)));
}
potential ( hidden5to7 | node5 hidden4to7 )
{
	data = (((	0.9206082712917248	0.07939172870827516	)
		(	0.9206082712917248	0.07939172870827516	))
		((	0.9206082712917248	0.07939172870827516	)
		(	0.9206082712917248	0.07939172870827516	)));
}
potential ( hidden5to8 | node5 hidden4to8 )
{
	data = (((	0.6469345209267742	0.35306547907322583	)
		(	0.6469345209267742	0.35306547907322583	))
		((	0.6469345209267742	0.35306547907322583	)
		(	0.6469345209267742	0.35306547907322583	)));
}
potential ( hidden5to9 | node5 hidden4to9 )
{
	data = (((	0.48570715617627913	0.5142928438237209	)
		(	0.48570715617627913	0.5142928438237209	))
		((	0.48570715617627913	0.5142928438237209	)
		(	0.48570715617627913	0.5142928438237209	)));
}
potential ( node6 | node5 hidden5to6 )
{
	data = (((	0.5	0.5	)
		(	0.5	0.5	))
		((	0.5	0.5	)
		(	0.5	0.5	)));
}
potential ( hidden6to7 | node6 hidden5to7 )
{
	data = (((	0.23151870709123956	0.7684812929087604	)
		(	0.23151870709123956	0.7684812929087604	))
		((	0.23151870709123956	0.7684812929087604	)
		(	0.23151870709123956	0.7684812929087604	)));
}
potential ( hidden6to8 | node6 hidden5to8 )
{
	data = (((	0.7165433604336487	0.28345663956635125	)
		(	0.7165433604336487	0.28345663956635125	))
		((	0.7165433604336487	0.28345663956635125	)
		(	0.7165433604336487	0.28345663956635125	)));
}
potential ( hidden6to9 | node6 hidden5to9 )
{
	data = (((	0.10965426999082561	0.8903457300091744	)
		(	0.10965426999082561	0.8903457300091744	))
		((	0.10965426999082561	0.8903457300091744	)
		(	0.10965426999082561	0.8903457300091744	)));
}
potential ( node7 | node6 hidden6to7 )
{
	data = (((	0.5	0.5	)
		(	0.5	0.5	))
		((	0.5	0.5	)
		(	0.5	0.5	)));
}
potential ( hidden7to8 | node7 hidden6to8 )
{
	data = (((	0.734693494166021	0.26530650583397897	)
		(	0.734693494166021	0.26530650583397897	))
		((	0.734693494166021	0.26530650583397897	)
		(	0.734693494166021	0.26530650583397897	)));
}
potential ( hidden7to9 | node7 hidden6to9 )
{
	data = (((	0.633378431661132	0.36662156833886805	)
		(	0.633378431661132	0.36662156833886805	))
		((	0.633378431661132	0.36662156833886805	)
		(	0.633378431661132	0.36662156833886805	)));
}
potential ( node8 | node7 hidden7to8 )
{
	data = (((	0.5	0.5	)
		(	0.5	0.5	))
		((	0.5	0.5	)
		(	0.5	0.5	)));
}
potential ( hidden8to9 | node8 hidden7to9 )
{
	data = (((	0.273074478109132	0.726925521890868	)
		(	0.273074478109132	0.726925521890868	))
		((	0.273074478109132	0.726925521890868	)
		(	0.273074478109132	0.726925521890868	)));
}
potential ( node9 | node8 hidden8to9 )
{
	data = (((	0.5	0.5	)
		(	0.5	0.5	))
		((	0.5	0.5	)
		(	0.5	0.5	)));
}
