net
{
}
node asia
{
states = ( "yes" "no" );
}
node tub
{
states = ( "yes" "no" );
}
node smoke
{
states = ( "yes" "no" );
}
node lung
{
states = ( "yes" "no" );
}
node bronc
{
states = ( "yes" "no" );
}
node either
{
states = ( "yes" "no" );
}
node xray
{
states = ( "yes" "no" );
}
node dysp
{
states = ( "yes" "no" );
}
potential ( asia )
{
data = ( 0.013888888888888888 0.027777777777777776 );
}
potential ( tub | asia )
{
data = (( 0.05 0.95 )( 0.01 0.99 ));
}
potential ( smoke )
{
data = ( 0.041666666666666664 0.05555555555555555 );
}
potential ( lung | smoke )
{
data = (( 0.06944444444444445 0.08333333333333334 )( 0.09722222222222224 0.11111111111111113 ));
}
potential ( bronc | smoke )
{
data = (( 0.12500000000000003 0.13888888888888892 )( 0.15277777777777782 0.1666666666666667 ));
}
potential ( either | lung tub )
{
data = ((( 0.1805555555555556 0.1944444444444445 )( 0.2083333333333334 0.2222222222222223 ))(( 0.2361111111111112 0.25000000000000006 )( 0.26388888888888895 0.27777777777777785 )));
}
potential ( xray | either )
{
data = (( 0.98 0.02 )( 0.05 0.95 ));
}
potential ( dysp | bronc either )
{
data = ((( 0.9 0.1 )( 0.8 0.2 ))(( 0.7 0.3 )( 0.1 0.9 )));
}
