net
{
}
node node_0
{
	states = ("value0" "value1" );
	position = (0 0);
	label = "node_0";
}
node node_1
{
	states = ("value0" "value1" "value2" );
	position = (10 -10);
	label = "node_1";
}
node node_10
{
	states = ("value0" "value1" );
	position = (20 -20);
	label = "node_10";
}
node node_11
{
	states = ("value0" "value1" "value2" );
	position = (30 -30);
	label = "node_11";
}
node node_12
{
	states = ("value0" "value1" );
	position = (40 -40);
	label = "node_12";
}
node node_13
{
	states = ("value0" "value1" );
	position = (50 -50);
	label = "node_13";
}
node node_14
{
	states = ("value0" "value1" "value2" );
	position = (60 -60);
	label = "node_14";
}
node node_15
{
	states = ("value0" "value1" "value2" "value3" );
	position = (70 -70);
	label = "node_15";
}
node node_16
{
	states = ("value0" "value1" );
	position = (80 -80);
	label = "node_16";
}
node node_17
{
	states = ("value0" "value1" "value2" "value3" );
	position = (90 -90);
	label = "node_17";
}
node node_18
{
	states = ("value0" "value1" );
	position = (100 -100);
	label = "node_18";
}
node node_19
{
	states = ("value0" "value1" "value2" );
	position = (110 -110);
	label = "node_19";
}
node node_2
{
	states = ("value0" "value1" "value2" );
	position = (120 -120);
	label = "node_2";
}
node node_20
{
	states = ("value0" "value1" "value2" );
	position = (130 -130);
	label = "node_20";
}
node node_21
{
	states = ("value0" "value1" "value2" );
	position = (140 -140);
	label = "node_21";
}
node node_22
{
	states = ("value0" "value1" );
	position = (150 -150);
	label = "node_22";
}
node node_23
{
	states = ("value0" "value1" );
	position = (160 -160);
	label = "node_23";
}
node node_24
{
	states = ("value0" "value1" "value2" );
	position = (170 -170);
	label = "node_24";
}
node node_25
{
	states = ("value0" "value1" "value2" "value3" );
	position = (180 -180);
	label = "node_25";
}
node node_26
{
	states = ("value0" "value1" );
	position = (190 -190);
	label = "node_26";
}
node node_27
{
	states = ("value0" "value1" "value2" );
	position = (200 -200);
	label = "node_27";
}
node node_28
{
	states = ("value0" "value1" "value2" "value3" );
	position = (210 -210);
	label = "node_28";
}
node node_29
{
	states = ("value0" "value1" "value2" "value3" );
	position = (220 -220);
	label = "node_29";
}
node node_3
{
	states = ("value0" "value1" );
	position = (230 -230);
	label = "node_3";
}
node node_30
{
	states = ("value0" "value1" "value2" "value3" );
	position = (240 -240);
	label = "node_30";
}
node node_31
{
	states = ("value0" "value1" "value2" "value3" );
	position = (250 -250);
	label = "node_31";
}
node node_32
{
	states = ("value0" "value1" "value2" );
	position = (260 -260);
	label = "node_32";
}
node node_33
{
	states = ("value0" "value1" );
	position = (270 -270);
	label = "node_33";
}
node node_34
{
	states = ("value0" "value1" "value2" );
	position = (280 -280);
	label = "node_34";
}
node node_35
{
	states = ("value0" "value1" "value2" );
	position = (290 -290);
	label = "node_35";
}
node node_36
{
	states = ("value0" "value1" "value2" );
	position = (300 -300);
	label = "node_36";
}
node node_4
{
	states = ("value0" "value1" "value2" );
	position = (310 -310);
	label = "node_4";
}
node node_5
{
	states = ("value0" "value1" );
	position = (320 -320);
	label = "node_5";
}
node node_6
{
	states = ("value0" "value1" "value2" );
	position = (330 -330);
	label = "node_6";
}
node node_7
{
	states = ("value0" "value1" );
	position = (340 -340);
	label = "node_7";
}
node node_8
{
	states = ("value0" "value1" "value2" );
	position = (350 -350);
	label = "node_8";
}
node node_9
{
	states = ("value0" "value1" "value2" );
	position = (360 -360);
	label = "node_9";
}
potential ( node_10 | )
{
	data = (	0.44767634513243193	0.5523236548675681	);
}
potential ( node_12 | )
{
	data = (	0.38266726492178404	0.617332735078216	);
}
potential ( node_13 | )
{
	data = (	0.5479829724545386	0.45201702754546136	);
}
potential ( node_16 | )
{
	data = (	0.4905111122383639	0.5094888877616361	);
}
potential ( node_18 | )
{
	data = (	0.464219900544382	0.5357800994556181	);
}
potential ( node_22 | )
{
	data = (	0.4630769261676082	0.5369230738323917	);
}
potential ( node_26 | )
{
	data = (	0.05947054460705905	0.940529455392941	);
}
potential ( node_3 | )
{
	data = (	0.21569260093184425	0.7843073990681556	);
}
potential ( node_5 | )
{
	data = (	0.8931925396130653	0.10680746038693464	);
}
potential ( node_7 | )
{
	data = (	0.12321280920541275	0.8767871907945872	);
}
potential ( node_24 | )
{
	data = (	0.44016554308437217	0.04277838027920464	0.5170560766364232	);
}
potential ( node_27 | )
{
	data = (	0.5207311323519029	0.009830420490236629	0.4694384471578605	);
}
potential ( node_0 | node_5 )
{
	data = ((	0.32126907225709944	0.6787309277429006	)
		(	0.5553768126245289	0.44462318737547113	));
}
potential ( node_14 | node_13 )
{
	data = ((	0.28735641336004175	0.5359766919525388	0.17666689468741936	)
		(	0.22682154466304325	0.16973915100233775	0.6034393043346191	));
}
potential ( node_21 | node_22 )
{
	data = ((	0.037379755557276385	0.640720939619715	0.3218993048230086	)
		(	0.5349427751104789	0.42197280346115923	0.04308442142836173	));
}
potential ( node_34 | node_33 )
{
	data = ((	0.44626703024114106	0.13894604749151462	0.4147869222673444	)
		(	0.2273480335748552	0.3538057352781475	0.4188462311469973	));
}
potential ( node_1 | node_4 )
{
	data = ((	0.2158497165649335	0.26075353040825433	0.5233967530268122	)
		(	0.6968336554974307	0.07102876847616825	0.2321375760264012	)
		(	0.30760942871503316	0.45592080632364207	0.23646976496132482	));
}
potential ( node_2 | node_4 )
{
	data = ((	0.7426480806981038	0.1342120693959811	0.12313984990591503	)
		(	0.5784475549740005	0.038279619506887796	0.38327282551911157	)
		(	0.2903514188838189	0.25767517696413483	0.45197340415204623	));
}
potential ( node_28 | node_27 )
{
	data = ((	0.058349464674959495	0.3180062486017355	0.2612953186877755	0.36234896803552946	)
		(	0.1711822310320568	0.28681122274785315	0.31947891151280483	0.22252763470728518	)
		(	0.18549880333194907	0.10225038577598249	0.3878244925712436	0.3244263183208248	));
}
potential ( node_32 | node_31 )
{
	data = ((	0.4170365521844784	0.43328093659117484	0.14968251122434675	)
		(	0.32276435592071717	0.3814736453788705	0.2957619987004124	)
		(	0.1350279788435618	0.6372390162708131	0.22773300488562515	)
		(	0.4336008661309035	0.40575653319332433	0.16064260067577232	));
}
potential ( node_23 | node_22 node_24 )
{
	data = (((	0.3158221474655161	0.6841778525344839	)
		(	0.39393845061393035	0.6060615493860697	)
		(	0.25680894366392193	0.7431910563360781	))
		((	0.6063249823846653	0.3936750176153347	)
		(	0.45309740354936096	0.5469025964506391	)
		(	0.7026778845711165	0.2973221154288835	)));
}
potential ( node_4 | node_3 node_5 )
{
	data = (((	0.28526047741921423	0.38474935247150144	0.32999017010928433	)
		(	0.6955068408906107	0.20165544934984006	0.10283770975954931	))
		((	0.4531345086543754	0.10022120165865904	0.44664428968696557	)
		(	0.27331627859497043	0.5455567915044026	0.18112692990062693	)));
}
potential ( node_6 | node_3 node_5 )
{
	data = (((	0.22916466619605982	0.7187567220781851	0.05207861172575507	)
		(	0.006689298391498565	0.579447502441686	0.4138631991668154	))
		((	0.502660482935543	0.2525284745497986	0.24481104251465835	)
		(	0.11424692030663548	0.21215589791109876	0.6735971817822657	)));
}
potential ( node_11 | node_10 node_34 )
{
	data = (((	0.4765385749071853	0.07150749506966338	0.45195393002315126	)
		(	0.4080274467434957	0.12565679398453053	0.4663157592719737	)
		(	0.09256645386474917	0.25911804975331004	0.6483154963819409	))
		((	0.061727798933946525	0.43960045531872544	0.49867174574732803	)
		(	0.3424359901297847	0.30279602722100646	0.35476798264920884	)
		(	0.2719784597712996	0.7272181059716254	8.034342570751147E-4	)));
}
potential ( node_9 | node_10 node_34 )
{
	data = (((	0.8255274887965481	0.0464245822417109	0.12804792896174091	)
		(	0.3840354484840549	0.09804985150487339	0.5179147000110718	)
		(	0.17520954046332463	0.22773969436268157	0.5970507651739939	))
		((	0.21090206980384596	0.4144264066018858	0.3746715235942683	)
		(	0.30825554090073204	0.45494706465377416	0.2367973944454939	)
		(	0.2710120378485283	0.4994045601767978	0.22958340197467392	)));
}
potential ( node_20 | node_19 node_23 )
{
	data = (((	0.39355950966843256	0.22264038418594112	0.3838001061456263	)
		(	0.4475421106100454	0.42139286170203466	0.13106502768792	))
		((	0.07271967014917546	0.335892599268196	0.5913877305826286	)
		(	0.09164498789714952	0.6985525141497878	0.20980249795306263	))
		((	0.46815416503100843	0.4871762093388221	0.04466962563016957	)
		(	0.5950982182656448	0.12706356434819263	0.27783821738616277	)));
}
potential ( node_8 | node_7 node_34 )
{
	data = (((	0.39757424551353543	0.18098092882864797	0.42144482565781655	)
		(	0.4559948834136836	0.2867719364265199	0.25723318015979657	)
		(	0.47868717761545276	0.1539015495674118	0.3674112728171354	))
		((	0.2627355535051028	0.36942948071849074	0.3678349657764064	)
		(	0.4925743955030338	0.241916950511679	0.2655086539852871	)
		(	0.06877753357124584	0.4489300457027355	0.48229242072601874	)));
}
potential ( node_19 | node_18 node_31 )
{
	data = (((	0.3010165660880253	0.4157750614166077	0.283208372495367	)
		(	0.4029472580253665	0.2345087181027604	0.3625440238718731	)
		(	0.5361238687936959	0.17163911927507647	0.29223701193122764	)
		(	0.38522523325192737	0.279892413694622	0.3348823530534506	))
		((	0.32702211329471276	0.397543670468727	0.27543421623656017	)
		(	0.7016956773568116	0.10407007525648841	0.1942342473867	)
		(	0.3106498392075125	0.3930632642864034	0.296286896506084	)
		(	0.36046026529273395	0.16767618401952722	0.47186355068773883	)));
}
potential ( node_36 | node_14 node_35 )
{
	data = (((	0.09810442863974723	0.6999343279699621	0.2019612433902908	)
		(	0.5056477408389238	0.45943440774860544	0.03491785141247075	)
		(	0.5346964029104223	0.4113444043698721	0.05395919271970585	))
		((	0.29572932060233664	0.3116477846726747	0.3926228947249887	)
		(	0.22155116713368933	0.23223359886318637	0.5462152340031243	)
		(	0.4575495938220361	0.10619936029516222	0.4362510458828016	))
		((	0.09985963022474825	0.6398335703338284	0.2603067994414234	)
		(	0.3767513869313186	0.3740573977485779	0.24919121532010347	)
		(	0.3727592931160324	0.14433427655850511	0.4829064303254625	)));
}
potential ( node_35 | node_6 node_34 )
{
	data = (((	0.23723101473680233	0.39304814415532474	0.3697208411078729	)
		(	0.15083187327508518	0.40845415655134165	0.44071397017357306	)
		(	0.40571114822857096	0.23317187355378716	0.361116978217642	))
		((	0.06579333316056835	0.510895438107173	0.4233112287322586	)
		(	0.6023768669902694	0.34296591685018013	0.0546572161595505	)
		(	0.3837724146916399	0.4986771263871889	0.11755045892117122	))
		((	0.37059981852524526	0.2049754946508849	0.4244246868238699	)
		(	0.30768743932958	0.6028256922414494	0.08948686842897062	)
		(	0.31733368842406845	0.3429792027528196	0.33968710882311187	)));
}
potential ( node_29 | node_26 node_28 )
{
	data = (((	0.4096624394716528	0.18071505878683822	0.06928333137855618	0.3403391703629528	)
		(	0.24898150929265914	0.31410164500809057	0.41076301202511856	0.02615383367413184	)
		(	0.4597703026992013	0.13281668925384554	0.38581297134840653	0.02160003669854669	)
		(	0.31235121369573	0.2944900977445878	0.03584114334652393	0.3573175452131583	))
		((	0.21891094591792304	0.2936443836766974	0.2369441623580251	0.2505005080473545	)
		(	0.18884063052427638	0.2565946562353555	0.26291195702290504	0.2916527562174632	)
		(	0.005664601258325021	0.05029370496654872	0.5590019606482293	0.38503973312689704	)
		(	0.2772192291140978	0.2742043700966057	0.1462793976529356	0.30229700313636093	)));
}
potential ( node_17 | node_24 node_30 )
{
	data = (((	0.048428642178729706	0.16242387904040778	0.49313203279210305	0.29601544598875945	)
		(	0.1396716210622441	0.3648171971970542	0.13406039749705503	0.3614507842436467	)
		(	0.055756962523800135	0.4415539004313822	0.375789099574302	0.12690003747051565	)
		(	0.10692779832198308	0.2259617466208203	0.40637493587991647	0.2607355191772802	))
		((	0.5842873777003957	0.1966683676770214	0.06452350749794523	0.1545207471246376	)
		(	0.23532593455359774	0.403096067307244	0.0976356574062608	0.2639423407328974	)
		(	0.16077863883709403	0.5943082968153242	0.21080312099872672	0.03410994334885502	)
		(	0.2026665426562751	0.0878390095063726	0.5444218805736515	0.16507256726370084	))
		((	0.3046099760272913	0.31370206633314146	0.2766807618015196	0.10500719583804756	)
		(	0.13622495446827726	0.42271915136336147	0.10163142128230537	0.33942447288605593	)
		(	0.2542960722954754	0.28404322941439436	0.20937468928720077	0.25228600900292936	)
		(	0.17795194240535117	0.28869422369038683	0.37841950746687925	0.15493432643738264	)));
}
potential ( node_31 | node_24 node_30 )
{
	data = (((	1.3204412098594717E-4	0.3936570605107657	0.35719450897243044	0.24901638639581786	)
		(	0.3009034204208584	0.0993607309617431	0.42647964403928545	0.1732562045781131	)
		(	0.07834554149083503	0.39924897687461103	0.37567394144790767	0.1467315401866462	)
		(	0.04126027542755587	0.5507406546260755	0.18043327625424324	0.22756579369212546	))
		((	0.2937402384200287	0.23819523852336902	0.24760916544125489	0.22045535761534732	)
		(	0.3110651040875038	0.1093057051606697	0.2691261290460193	0.31050306170580716	)
		(	0.21005504254215615	0.2511399208399313	0.3093939249792903	0.22941111163862227	)
		(	0.27692931270227017	0.26464583201592756	0.108562221647771	0.3498626336340313	))
		((	0.5098383187076987	0.21051703012587905	0.1666041106165786	0.11304054054984371	)
		(	0.3389951362673684	0.09084104958500734	0.22579889134295814	0.34436492280466624	)
		(	0.04592159358541476	0.11511678704838818	0.4349094323797824	0.40405218698641476	)
		(	0.279178019944689	0.25719329993519097	0.1495757873034345	0.31405289281668575	)));
}
potential ( node_15 | node_30 node_32 )
{
	data = (((	0.24266499926580015	0.11066400376304204	0.039419906087564835	0.6072510908835929	)
		(	0.07622463694094427	0.03379498353295706	0.3540993854389728	0.5358809940871259	)
		(	0.2962343130711427	0.16507507362913013	0.3990457819990034	0.13964483130072372	))
		((	0.1349603274622821	0.1948457621178391	0.34386832146564866	0.32632558895423003	)
		(	0.4673582223093382	0.016045423125507316	0.5137214212830364	0.0028749332821181154	)
		(	0.4223394621058466	0.40391468606257	0.13513962851552683	0.038606223316056475	))
		((	0.34521900083785284	0.23176103174473156	0.18406693840617444	0.23895302901124124	)
		(	0.42036085529630657	0.2693711695150181	0.13452964532683725	0.17573832986183802	)
		(	0.34766538456269896	0.38719379548156546	2.11358967998723E-4	0.26492946098773684	))
		((	0.22361340433636143	0.1676892664097485	0.3768857461787058	0.2318115830751842	)
		(	0.21083235139382644	0.28037195502755086	0.32315503031369286	0.1856406632649298	)
		(	0.2797561370997875	0.19864442545981537	0.45522754678114197	0.0663718906592552	)));
}
potential ( node_25 | node_16 node_24 node_29 )
{
	data = ((((	0.46300844154478565	0.34581149782662457	0.11274265922382139	0.07843740140476836	)
		(	0.2552182194511342	0.2339641222419498	0.2990734280273711	0.21174423027954486	)
		(	0.2251853213146606	0.2972435308257526	0.08943876504247451	0.38813238281711226	)
		(	0.2649054397908529	0.33789249384500136	0.1622687968488565	0.23493326951528912	))
		((	0.266740868338397	0.046677865228735946	0.4030672579493087	0.28351400848355846	)
		(	0.5680444624436678	0.29313775645620826	0.02850388091559828	0.11031390018452567	)
		(	0.36709495957948235	0.060004187920772084	0.35121742464933636	0.22168342785040918	)
		(	0.22526140160564534	0.16106044316075616	0.45771463477262264	0.15596352046097603	))
		((	0.20711463066479796	0.39733413383486693	0.15305743830360205	0.24249379719673309	)
		(	0.3993252692814233	0.07907646269231144	0.18341079613479497	0.3381874718914702	)
		(	0.39021468802359666	0.3304254746476623	0.23976325387720665	0.03959658345153426	)
		(	0.39157444743491926	0.40789602671067177	0.03797086596834825	0.1625586598860608	)))
		(((	0.21453804496440318	0.3916360346032536	0.3720373919362942	0.021788528496049196	)
		(	0.14355311648360508	0.2303042380505726	0.32418560473741037	0.30195704072841206	)
		(	0.2610072042242941	0.2552254637323904	0.21769189391230745	0.26607543813100804	)
		(	0.30478818239691924	0.14236773587518867	0.41600949547703747	0.1368345862508547	))
		((	0.18420515059978917	0.26781729066308785	0.19045797478906087	0.3575195839480621	)
		(	0.2813489939003447	0.20639701886749293	0.2678563954745062	0.24439759175765619	)
		(	0.3320639525113767	0.343824564533331	0.025399406741123884	0.29871207621416834	)
		(	0.11604477892517098	0.3136669487197006	0.3260937581812236	0.24419451417390467	))
		((	0.13251264429488904	0.4079367741330267	0.2747502147103706	0.1848003668617136	)
		(	0.34226988332913827	0.11220091943782282	0.21740943103708435	0.3281197661959546	)
		(	0.23781420578253437	0.2740112075988583	0.1938635174988414	0.29431106911976596	)
		(	0.2834921667709197	0.07863273838609225	0.329047668446013	0.3088274263969749	))));
}
potential ( node_30 | node_16 node_24 node_29 )
{
	data = ((((	0.3463554156647668	0.37046309646935016	0.02999699964735171	0.25318448821853146	)
		(	0.3342041471586455	0.1968591831995315	0.11587039949880643	0.3530662701430165	)
		(	0.08018436093669194	0.3783710619959071	0.32043946539285195	0.22100511167454892	)
		(	0.2565017574811882	0.27163505439846036	0.17237744769935878	0.2994857404209927	))
		((	0.36306348615157163	0.33159129302294943	0.0016447137685026377	0.3037005070569762	)
		(	0.011637941462476138	0.7873535118204247	0.03439093324516172	0.1666176134719376	)
		(	0.3746822725044419	0.08824055570664437	0.3550801153796659	0.18199705640924788	)
		(	0.24044195162727894	0.3026827149500253	0.09357546007841581	0.36329987334428004	))
		((	0.15229352495113135	0.22598030199739044	0.1995225492212468	0.4222036238302315	)
		(	0.18794317056025944	0.14538509583141776	0.4695523094022068	0.19711942420611595	)
		(	0.06118916738386862	0.3795490800675852	0.2040825227957687	0.35517922975277755	)
		(	0.19551272758866725	0.25602825881022323	0.20245713554976857	0.3460018780513409	)))
		(((	0.1704918487101216	0.2684710407331562	0.16275510213107844	0.39828200842564376	)
		(	0.25727053126299043	0.10001885106820971	0.24663757221294028	0.3960730454558596	)
		(	0.2236438702152343	0.1383079148617402	0.5435829184988047	0.09446529642422084	)
		(	0.19743045897312173	0.044142194169384086	0.7289205774311023	0.02950676942639196	))
		((	0.30740315181368644	0.005442359128114385	0.5596946259018201	0.12745986315637906	)
		(	0.1745484883657482	0.36066784451892214	0.2428333108476137	0.22195035626771586	)
		(	0.3724182202312157	0.08080602880689167	0.39134211151191184	0.1554336394499807	)
		(	0.12678819417352674	0.40490431157287143	0.11098229119778415	0.35732520305581783	))
		((	0.2592374277946061	0.38245633568769477	0.18916367027445585	0.1691425662432434	)
		(	0.3717660248690876	0.3091972448167812	0.290586378169199	0.02845035214493227	)
		(	0.32832860865054314	0.40178007995265136	0.03145567915725699	0.2384356322395484	)
		(	0.08189318561808656	0.36747751654617744	0.185590782498661	0.365038515337075	))));
}
potential ( node_33 | node_12 node_14 node_20 node_32 )
{
	data = (((((	0.4692688857787937	0.5307311142212063	)
		(	0.3478289148333824	0.6521710851666176	)
		(	0.4886142851646073	0.5113857148353926	))
		((	0.4377689677581165	0.5622310322418834	)
		(	0.8095411449906889	0.19045885500931115	)
		(	0.31952509991013556	0.6804749000898644	))
		((	0.7647528288214729	0.23524717117852717	)
		(	0.459496528758044	0.5405034712419561	)
		(	0.18645395969437448	0.8135460403056255	)))
		(((	0.3247176090290822	0.6752823909709178	)
		(	0.5232551158272629	0.4767448841727371	)
		(	0.48995353770486616	0.5100464622951338	))
		((	0.23515514943676274	0.7648448505632373	)
		(	0.22095946892152982	0.7790405310784702	)
		(	0.11764563466324178	0.8823543653367583	))
		((	0.31424840771480783	0.6857515922851922	)
		(	0.7483173926938195	0.2516826073061806	)
		(	0.10333509140693448	0.8966649085930656	)))
		(((	0.05516186606754522	0.9448381339324547	)
		(	0.3647601047934002	0.6352398952065997	)
		(	0.26947368334698324	0.7305263166530168	))
		((	0.07934464472301064	0.9206553552769894	)
		(	0.7376358399144921	0.2623641600855079	)
		(	0.6089557054010682	0.3910442945989317	))
		((	0.1871200709848069	0.8128799290151931	)
		(	0.05001753980152441	0.9499824601984755	)
		(	0.3568157488009214	0.6431842511990785	))))
		((((	0.31341012888926084	0.6865898711107391	)
		(	0.858821823112798	0.14117817688720197	)
		(	0.5434730746240158	0.4565269253759842	))
		((	0.43894024507084295	0.561059754929157	)
		(	0.36409156792364694	0.635908432076353	)
		(	0.0710166679371347	0.9289833320628653	))
		((	0.7245546834709945	0.27544531652900545	)
		(	0.49792940921640794	0.5020705907835921	)
		(	0.45198541950356513	0.5480145804964348	)))
		(((	0.8813555194719155	0.11864448052808448	)
		(	0.18138275759079966	0.8186172424092003	)
		(	0.3066986332340267	0.6933013667659733	))
		((	0.39499287478038014	0.6050071252196199	)
		(	0.5730648050342579	0.426935194965742	)
		(	0.3058613665577676	0.6941386334422324	))
		((	0.895755502112421	0.10424449788757893	)
		(	0.11784305869065279	0.8821569413093472	)
		(	0.49223763877334903	0.5077623612266509	)))
		(((	0.3801196632343839	0.619880336765616	)
		(	0.3451759523847455	0.6548240476152545	)
		(	0.9100428902500793	0.08995710974992069	))
		((	0.5264724393819309	0.4735275606180691	)
		(	0.4833598545306044	0.5166401454693955	)
		(	0.5526032066504433	0.44739679334955684	))
		((	0.1706318171802995	0.8293681828197006	)
		(	0.23866107080625218	0.7613389291937478	)
		(	0.4056689896580588	0.5943310103419412	)))));
}
