net
{
}
node node_0
{
	states = ("value0" "value1" );
	position = (0 0);
	label = "node_0";
}
node node_1
{
	states = ("value0" "value1" "value2" );
	position = (10 -10);
	label = "node_1";
}
node node_10
{
	states = ("value0" "value1" );
	position = (20 -20);
	label = "node_10";
}
node node_11
{
	states = ("value0" "value1" "value2" );
	position = (30 -30);
	label = "node_11";
}
node node_12
{
	states = ("value0" "value1" );
	position = (40 -40);
	label = "node_12";
}
node node_13
{
	states = ("value0" "value1" );
	position = (50 -50);
	label = "node_13";
}
node node_14
{
	states = ("value0" "value1" "value2" );
	position = (60 -60);
	label = "node_14";
}
node node_15
{
	states = ("value0" "value1" "value2" "value3" );
	position = (70 -70);
	label = "node_15";
}
node node_16
{
	states = ("value0" "value1" );
	position = (80 -80);
	label = "node_16";
}
node node_17
{
	states = ("value0" "value1" "value2" "value3" );
	position = (90 -90);
	label = "node_17";
}
node node_18
{
	states = ("value0" "value1" );
	position = (100 -100);
	label = "node_18";
}
node node_19
{
	states = ("value0" "value1" "value2" );
	position = (110 -110);
	label = "node_19";
}
node node_2
{
	states = ("value0" "value1" "value2" );
	position = (120 -120);
	label = "node_2";
}
node node_20
{
	states = ("value0" "value1" "value2" );
	position = (130 -130);
	label = "node_20";
}
node node_21
{
	states = ("value0" "value1" "value2" );
	position = (140 -140);
	label = "node_21";
}
node node_22
{
	states = ("value0" "value1" );
	position = (150 -150);
	label = "node_22";
}
node node_23
{
	states = ("value0" "value1" );
	position = (160 -160);
	label = "node_23";
}
node node_24
{
	states = ("value0" "value1" "value2" );
	position = (170 -170);
	label = "node_24";
}
node node_25
{
	states = ("value0" "value1" "value2" "value3" );
	position = (180 -180);
	label = "node_25";
}
node node_26
{
	states = ("value0" "value1" );
	position = (190 -190);
	label = "node_26";
}
node node_27
{
	states = ("value0" "value1" "value2" );
	position = (200 -200);
	label = "node_27";
}
node node_28
{
	states = ("value0" "value1" "value2" "value3" );
	position = (210 -210);
	label = "node_28";
}
node node_29
{
	states = ("value0" "value1" "value2" "value3" );
	position = (220 -220);
	label = "node_29";
}
node node_3
{
	states = ("value0" "value1" );
	position = (230 -230);
	label = "node_3";
}
node node_30
{
	states = ("value0" "value1" "value2" "value3" );
	position = (240 -240);
	label = "node_30";
}
node node_31
{
	states = ("value0" "value1" "value2" "value3" );
	position = (250 -250);
	label = "node_31";
}
node node_32
{
	states = ("value0" "value1" "value2" );
	position = (260 -260);
	label = "node_32";
}
node node_33
{
	states = ("value0" "value1" );
	position = (270 -270);
	label = "node_33";
}
node node_34
{
	states = ("value0" "value1" "value2" );
	position = (280 -280);
	label = "node_34";
}
node node_35
{
	states = ("value0" "value1" "value2" );
	position = (290 -290);
	label = "node_35";
}
node node_36
{
	states = ("value0" "value1" "value2" );
	position = (300 -300);
	label = "node_36";
}
node node_4
{
	states = ("value0" "value1" "value2" );
	position = (310 -310);
	label = "node_4";
}
node node_5
{
	states = ("value0" "value1" );
	position = (320 -320);
	label = "node_5";
}
node node_6
{
	states = ("value0" "value1" "value2" );
	position = (330 -330);
	label = "node_6";
}
node node_7
{
	states = ("value0" "value1" );
	position = (340 -340);
	label = "node_7";
}
node node_8
{
	states = ("value0" "value1" "value2" );
	position = (350 -350);
	label = "node_8";
}
node node_9
{
	states = ("value0" "value1" "value2" );
	position = (360 -360);
	label = "node_9";
}
potential ( node_10 | )
{
	data = (	0.1	0.9	);
}
potential ( node_12 | )
{
	data = (	0.1	0.9	);
}
potential ( node_13 | )
{
	data = (	0.01	0.99	);
}
potential ( node_16 | )
{
	data = (	0.04	0.96	);
}
potential ( node_18 | )
{
	data = (	0.05	0.95	);
}
potential ( node_22 | )
{
	data = (	0.01	0.99	);
}
potential ( node_26 | )
{
	data = (	0.1	0.9	);
}
potential ( node_3 | )
{
	data = (	0.2	0.8	);
}
potential ( node_5 | )
{
	data = (	0.05	0.95	);
}
potential ( node_7 | )
{
	data = (	0.05	0.95	);
}
potential ( node_24 | )
{
	data = (	0.92	0.03	0.05	);
}
potential ( node_27 | )
{
	data = (	0.05	0.9	0.05	);
}
potential ( node_0 | node_5 )
{
	data = ((	0.9	0.1	)
		(	0.01	0.99	));
}
potential ( node_14 | node_13 )
{
	data = ((	0.98	0.01	0.01	)
		(	0.3	0.4	0.3	));
}
potential ( node_21 | node_22 )
{
	data = ((	0.01	0.19	0.8	)
		(	0.05	0.9	0.05	));
}
potential ( node_34 | node_33 )
{
	data = ((	0.05	0.9	0.05	)
		(	0.01	0.09	0.9	));
}
potential ( node_1 | node_4 )
{
	data = ((	0.95	0.04	0.01	)
		(	0.04	0.95	0.01	)
		(	0.01	0.29	0.7	));
}
potential ( node_2 | node_4 )
{
	data = ((	0.95	0.04	0.01	)
		(	0.04	0.95	0.01	)
		(	0.01	0.04	0.95	));
}
potential ( node_28 | node_27 )
{
	data = ((	0.05	0.93	0.01	0.01	)
		(	0.05	0.01	0.93	0.01	)
		(	0.05	0.01	0.01	0.93	));
}
potential ( node_32 | node_31 )
{
	data = ((	0.01	0.01	0.98	)
		(	0.01	0.01	0.98	)
		(	0.04	0.92	0.04	)
		(	0.9	0.09	0.01	));
}
potential ( node_23 | node_22 node_24 )
{
	data = (((	0.1	0.9	)
		(	0.1	0.9	)
		(	0.01	0.99	))
		((	0.95	0.05	)
		(	0.95	0.05	)
		(	0.05	0.95	)));
}
potential ( node_4 | node_3 node_5 )
{
	data = (((	0.95	0.04	0.01	)
		(	0.98	0.01	0.01	))
		((	0.01	0.09	0.9	)
		(	0.05	0.9	0.05	)));
}
potential ( node_6 | node_3 node_5 )
{
	data = (((	0.98	0.01	0.01	)
		(	0.95	0.04	0.01	))
		((	0.5	0.49	0.01	)
		(	0.05	0.9	0.05	)));
}
potential ( node_11 | node_10 node_34 )
{
	data = (((	0.3333333333333333	0.3333333333333333	0.3333333333333333	)
		(	0.3333333333333333	0.3333333333333333	0.3333333333333333	)
		(	0.3333333333333333	0.3333333333333333	0.3333333333333333	))
		((	0.98	0.01	0.01	)
		(	0.01	0.98	0.01	)
		(	0.01	0.01	0.98	)));
}
potential ( node_9 | node_10 node_34 )
{
	data = (((	0.3333333333333333	0.3333333333333333	0.3333333333333333	)
		(	0.3333333333333333	0.3333333333333333	0.3333333333333333	)
		(	0.3333333333333333	0.3333333333333333	0.3333333333333333	))
		((	0.98	0.01	0.01	)
		(	0.01	0.98	0.01	)
		(	0.01	0.01	0.98	)));
}
potential ( node_20 | node_19 node_23 )
{
	data = (((	0.98	0.01	0.01	)
		(	0.01	0.98	0.01	))
		((	0.01	0.01	0.98	)
		(	0.98	0.01	0.01	))
		((	0.98	0.01	0.01	)
		(	0.69	0.3	0.01	)));
}
potential ( node_8 | node_7 node_34 )
{
	data = (((	0.98	0.01	0.01	)
		(	0.4	0.59	0.01	)
		(	0.3	0.4	0.3	))
		((	0.98	0.01	0.01	)
		(	0.01	0.98	0.01	)
		(	0.01	0.01	0.98	)));
}
potential ( node_19 | node_18 node_31 )
{
	data = (((	1.0	0.0	0.0	)
		(	0.99	0.01	0.0	)
		(	0.95	0.04	0.01	)
		(	0.95	0.04	0.01	))
		((	1.0	0.0	0.0	)
		(	0.95	0.04	0.01	)
		(	0.01	0.95	0.04	)
		(	0.01	0.01	0.98	)));
}
potential ( node_36 | node_14 node_35 )
{
	data = (((	0.98	0.01	0.01	)
		(	0.98	0.01	0.01	)
		(	0.9	0.09	0.01	))
		((	0.98	0.01	0.01	)
		(	0.1	0.85	0.05	)
		(	0.05	0.2	0.75	))
		((	0.30000000000000004	0.6000000000000001	0.10000000000000002	)
		(	0.05	0.4	0.55	)
		(	0.01	0.09	0.9	)));
}
potential ( node_35 | node_6 node_34 )
{
	data = (((	0.98	0.01	0.01	)
		(	0.95	0.04	0.01	)
		(	0.8	0.19	0.01	))
		((	0.95	0.04	0.01	)
		(	0.04	0.95	0.01	)
		(	0.01	0.04	0.95	))
		((	0.3	0.69	0.01	)
		(	0.01	0.3	0.69	)
		(	0.01	0.01	0.98	)));
}
potential ( node_29 | node_26 node_28 )
{
	data = (((	0.97	0.01	0.01	0.01	)
		(	0.97	0.01	0.01	0.01	)
		(	0.97	0.01	0.01	0.01	)
		(	0.97	0.01	0.01	0.01	))
		((	0.97	0.01	0.01	0.01	)
		(	0.01	0.97	0.01	0.01	)
		(	0.01	0.01	0.97	0.01	)
		(	0.01	0.01	0.01	0.97	)));
}
potential ( node_17 | node_24 node_30 )
{
	data = (((	0.97	0.01	0.01	0.01	)
		(	0.01	0.97	0.01	0.01	)
		(	0.01	0.01	0.97	0.01	)
		(	0.01	0.01	0.01	0.97	))
		((	0.97	0.01	0.01	0.01	)
		(	0.6	0.38	0.01	0.01	)
		(	0.5	0.48	0.01	0.01	)
		(	0.5	0.48	0.01	0.01	))
		((	0.97	0.01	0.01	0.01	)
		(	0.01	0.97	0.01	0.01	)
		(	0.01	0.01	0.97	0.01	)
		(	0.01	0.01	0.01	0.97	)));
}
potential ( node_31 | node_24 node_30 )
{
	data = (((	0.97	0.01	0.01	0.01	)
		(	0.01	0.97	0.01	0.01	)
		(	0.01	0.01	0.97	0.01	)
		(	0.01	0.01	0.01	0.97	))
		((	0.97	0.01	0.01	0.01	)
		(	0.01	0.97	0.01	0.01	)
		(	0.01	0.01	0.97	0.01	)
		(	0.01	0.01	0.01	0.97	))
		((	0.97	0.01	0.01	0.01	)
		(	0.03	0.95	0.01	0.01	)
		(	0.01	0.94	0.04	0.01	)
		(	0.01	0.88	0.1	0.01	)));
}
potential ( node_15 | node_30 node_32 )
{
	data = (((	0.97	0.01	0.01	0.01	)
		(	0.01	0.97	0.01	0.01	)
		(	0.01	0.97	0.01	0.01	))
		((	0.01	0.97	0.01	0.01	)
		(	0.97	0.01	0.01	0.01	)
		(	0.01	0.01	0.97	0.01	))
		((	0.01	0.01	0.97	0.01	)
		(	0.01	0.01	0.97	0.01	)
		(	0.97	0.01	0.01	0.01	))
		((	0.01	0.01	0.01	0.97	)
		(	0.01	0.01	0.01	0.97	)
		(	0.01	0.01	0.01	0.97	)));
}
potential ( node_25 | node_16 node_24 node_29 )
{
	data = ((((	0.97	0.01	0.01	0.01	)
		(	0.01	0.3	0.49	0.2	)
		(	0.01	0.01	0.08	0.9	)
		(	0.01	0.01	0.01	0.97	))
		((	0.97	0.01	0.01	0.01	)
		(	0.1	0.84	0.05	0.01	)
		(	0.05	0.25	0.25	0.45	)
		(	0.01	0.15	0.25	0.59	))
		((	0.97	0.01	0.01	0.01	)
		(	0.01	0.29	0.3	0.4	)
		(	0.01	0.01	0.08	0.9	)
		(	0.01	0.01	0.01	0.97	)))
		(((	0.97	0.01	0.01	0.01	)
		(	0.01	0.97	0.01	0.01	)
		(	0.01	0.01	0.97	0.01	)
		(	0.01	0.01	0.01	0.97	))
		((	0.97	0.01	0.01	0.01	)
		(	0.4	0.58	0.01	0.01	)
		(	0.2	0.75	0.04	0.01	)
		(	0.20000000000000004	0.7000000000000001	0.09000000000000001	0.010000000000000002	))
		((	0.97	0.01	0.01	0.01	)
		(	0.01	0.9	0.08	0.01	)
		(	0.01	0.01	0.38	0.6	)
		(	0.01	0.01	0.01	0.97	))));
}
potential ( node_30 | node_16 node_24 node_29 )
{
	data = ((((	0.97	0.01	0.01	0.01	)
		(	0.95	0.03	0.01	0.01	)
		(	0.4	0.58	0.01	0.01	)
		(	0.3	0.68	0.01	0.01	))
		((	0.97	0.01	0.01	0.01	)
		(	0.97	0.01	0.01	0.01	)
		(	0.97	0.01	0.01	0.01	)
		(	0.97	0.01	0.01	0.01	))
		((	0.97	0.01	0.01	0.01	)
		(	0.95	0.03	0.01	0.01	)
		(	0.5	0.48	0.01	0.01	)
		(	0.3	0.68	0.01	0.01	)))
		(((	0.97	0.01	0.01	0.01	)
		(	0.01	0.97	0.01	0.01	)
		(	0.01	0.01	0.97	0.01	)
		(	0.01	0.01	0.01	0.97	))
		((	0.97	0.01	0.01	0.01	)
		(	0.97	0.01	0.01	0.01	)
		(	0.97	0.01	0.01	0.01	)
		(	0.97	0.01	0.01	0.01	))
		((	0.97	0.01	0.01	0.01	)
		(	0.01	0.97	0.01	0.01	)
		(	0.01	0.01	0.97	0.01	)
		(	0.01	0.01	0.01	0.97	))));
}
potential ( node_33 | node_12 node_14 node_20 node_32 )
{
	data = (((((	0.01	0.99	)
		(	0.01	0.99	)
		(	0.01	0.99	))
		((	0.01	0.99	)
		(	0.01	0.99	)
		(	0.01	0.99	))
		((	0.01	0.99	)
		(	0.01	0.99	)
		(	0.01	0.99	)))
		(((	0.01	0.99	)
		(	0.01	0.99	)
		(	0.01	0.99	))
		((	0.01	0.99	)
		(	0.01	0.99	)
		(	0.01	0.99	))
		((	0.05	0.95	)
		(	0.05	0.95	)
		(	0.01	0.99	)))
		(((	0.01	0.99	)
		(	0.01	0.99	)
		(	0.01	0.99	))
		((	0.05	0.95	)
		(	0.05	0.95	)
		(	0.01	0.99	))
		((	0.05	0.95	)
		(	0.05	0.95	)
		(	0.01	0.99	))))
		((((	0.05	0.95	)
		(	0.05	0.95	)
		(	0.01	0.99	))
		((	0.05	0.95	)
		(	0.05	0.95	)
		(	0.01	0.99	))
		((	0.05	0.95	)
		(	0.05	0.95	)
		(	0.01	0.99	)))
		(((	0.7	0.3	)
		(	0.7	0.3	)
		(	0.1	0.9	))
		((	0.7	0.3	)
		(	0.7	0.3	)
		(	0.1	0.9	))
		((	0.7	0.3	)
		(	0.7	0.3	)
		(	0.1	0.9	)))
		(((	0.95	0.05	)
		(	0.99	0.01	)
		(	0.3	0.7	))
		((	0.95	0.05	)
		(	0.99	0.01	)
		(	0.3	0.7	))
		((	0.95	0.05	)
		(	0.99	0.01	)
		(	0.3	0.7	)))));
}
