net
{
}
node CBODD_12_00
{
	states = ("15_MG/L" "20_MG/L" "25_MG/L" "30_MG/L" );
	position = (0 0);
	label = "CBODD_12_00";
}
node CBODD_12_15
{
	states = ("15_MG/L" "20_MG/L" "25_MG/L" "30_MG/L" );
	position = (10 -10);
	label = "CBODD_12_15";
}
node CBODD_12_30
{
	states = ("15_MG/L" "20_MG/L" "25_MG/L" "30_MG/L" );
	position = (20 -20);
	label = "CBODD_12_30";
}
node CBODD_12_45
{
	states = ("15_MG/L" "20_MG/L" "25_MG/L" "30_MG/L" );
	position = (30 -30);
	label = "CBODD_12_45";
}
node CBODN_12_00
{
	states = ("5_MG/L" "10_MG/L" "15_MG/L" "20_MG/L" );
	position = (40 -40);
	label = "CBODN_12_00";
}
node CBODN_12_15
{
	states = ("5_MG/L" "10_MG/L" "15_MG/L" "20_MG/L" );
	position = (50 -50);
	label = "CBODN_12_15";
}
node CBODN_12_30
{
	states = ("5_MG/L" "10_MG/L" "15_MG/L" "20_MG/L" );
	position = (60 -60);
	label = "CBODN_12_30";
}
node CBODN_12_45
{
	states = ("5_MG/L" "10_MG/L" "15_MG/L" "20_MG/L" );
	position = (70 -70);
	label = "CBODN_12_45";
}
node CKND_12_00
{
	states = ("2_MG/L" "4_MG/L" "6_MG/L" );
	position = (80 -80);
	label = "CKND_12_00";
}
node CKND_12_15
{
	states = ("2_MG/L" "4_MG/L" "6_MG/L" );
	position = (90 -90);
	label = "CKND_12_15";
}
node CKND_12_30
{
	states = ("2_MG/L" "4_MG/L" "6_MG/L" );
	position = (100 -100);
	label = "CKND_12_30";
}
node CKND_12_45
{
	states = ("2_MG/L" "4_MG/L" "6_MG/L" );
	position = (110 -110);
	label = "CKND_12_45";
}
node CKNI_12_00
{
	states = ("20_MG/L" "30_MG/L" "40_MG/L" );
	position = (120 -120);
	label = "CKNI_12_00";
}
node CKNI_12_15
{
	states = ("20_MG/L" "30_MG/L" "40_MG/L" );
	position = (130 -130);
	label = "CKNI_12_15";
}
node CKNI_12_30
{
	states = ("20_MG/L" "30_MG/L" "40_MG/L" );
	position = (140 -140);
	label = "CKNI_12_30";
}
node CKNI_12_45
{
	states = ("20_MG/L" "30_MG/L" "40_MG/L" );
	position = (150 -150);
	label = "CKNI_12_45";
}
node CKNN_12_00
{
	states = ("0.5_MG/L" "1_MG/L" "2_MG/L" );
	position = (160 -160);
	label = "CKNN_12_00";
}
node CKNN_12_15
{
	states = ("0.5_MG/L" "1_MG/L" "2_MG/L" );
	position = (170 -170);
	label = "CKNN_12_15";
}
node CKNN_12_30
{
	states = ("0.5_MG/L" "1_MG/L" "2_MG/L" );
	position = (180 -180);
	label = "CKNN_12_30";
}
node CKNN_12_45
{
	states = ("0.5_MG/L" "1_MG/L" "2_MG/L" );
	position = (190 -190);
	label = "CKNN_12_45";
}
node CNOD_12_00
{
	states = ("0.5_MG/L" "1_MG/L" "2_MG/L" "4_MG/L" );
	position = (200 -200);
	label = "CNOD_12_00";
}
node CNOD_12_15
{
	states = ("0.5_MG/L" "1_MG/L" "2_MG/L" "4_MG/L" );
	position = (210 -210);
	label = "CNOD_12_15";
}
node CNOD_12_30
{
	states = ("0.5_MG/L" "1_MG/L" "2_MG/L" "4_MG/L" );
	position = (220 -220);
	label = "CNOD_12_30";
}
node CNOD_12_45
{
	states = ("0.5_MG/L" "1_MG/L" "2_MG/L" "4_MG/L" );
	position = (230 -230);
	label = "CNOD_12_45";
}
node CNON_12_00
{
	states = ("2_MG/L" "4_MG/L" "6_MG/L" "10_MG/L" );
	position = (240 -240);
	label = "CNON_12_00";
}
node CNON_12_15
{
	states = ("2_MG/L" "4_MG/L" "6_MG/L" "10_MG/L" );
	position = (250 -250);
	label = "CNON_12_15";
}
node CNON_12_30
{
	states = ("2_MG/L" "4_MG/L" "6_MG/L" "10_MG/L" );
	position = (260 -260);
	label = "CNON_12_30";
}
node CNON_12_45
{
	states = ("2_MG/L" "4_MG/L" "6_MG/L" "10_MG/L" );
	position = (270 -270);
	label = "CNON_12_45";
}
node C_NI_12_00
{
	states = ("3" "4" "5" "6" );
	position = (280 -280);
	label = "C_NI_12_00";
}
node C_NI_12_15
{
	states = ("3" "4" "5" "6" );
	position = (290 -290);
	label = "C_NI_12_15";
}
node C_NI_12_30
{
	states = ("3" "4" "5" "6" );
	position = (300 -300);
	label = "C_NI_12_30";
}
node C_NI_12_45
{
	states = ("3" "4" "5" "6" );
	position = (310 -310);
	label = "C_NI_12_45";
}
potential ( CKND_12_00 | )
{
	data = (	0.279796388312785	0.41124712812281505	0.3089564835644	);
}
potential ( CKNI_12_00 | )
{
	data = (	0.44311823245623466	0.5347763407875468	0.022105426756218512	);
}
potential ( CKNN_12_00 | )
{
	data = (	0.5556823477843531	0.4411968330828773	0.0031208191327695397	);
}
potential ( CBODD_12_00 | )
{
	data = (	0.3189728402634405	0.2045185417102198	0.27566270897980905	0.20084590904653057	);
}
potential ( CBODN_12_00 | )
{
	data = (	0.2697927079516986	0.13005500675499454	0.33563053277407445	0.26452175251923243	);
}
potential ( CNOD_12_00 | )
{
	data = (	0.04187109482698952	0.4134155765117711	0.26164499691441734	0.2830683317468221	);
}
potential ( CNON_12_00 | )
{
	data = (	0.22334358137713012	0.23001173046810733	0.17879082314723563	0.3678538650075269	);
}
potential ( C_NI_12_00 | )
{
	data = (	0.30329872834947386	0.07062822288373506	0.31008009594747876	0.3159929528193123	);
}
potential ( CKNI_12_15 | CKNI_12_00 )
{
	data = ((	0.2243891095205658	0.44504882576479504	0.33056206471463906	)
		(	0.21254664124687966	0.5600694137464126	0.22738394500670764	)
		(	0.4987732895700265	0.14040545166299473	0.3608212587669789	));
}
potential ( CKNI_12_30 | CKNI_12_15 )
{
	data = ((	0.35523135265883643	0.16029666958717578	0.48447197775398776	)
		(	0.07106470898082946	0.7030433672819909	0.22589192373717967	)
		(	0.42213616587404623	0.3456670413403551	0.23219679278559868	));
}
potential ( CKNI_12_45 | CKNI_12_30 )
{
	data = ((	0.33948116452604254	0.1310024631337927	0.5295163723401648	)
		(	0.5511525452205571	0.4187582438107713	0.030089210968671464	)
		(	0.22708118479841616	0.14314923773816238	0.6297695774634214	));
}
potential ( C_NI_12_15 | C_NI_12_00 )
{
	data = ((	0.22582236805743006	0.03169716853404314	0.08209655706087203	0.6603839063476548	)
		(	0.3463306274602147	0.36365161026651016	0.00954713102210849	0.28047063125116667	)
		(	0.4999086833876258	0.0907949142476282	0.04593225995754411	0.36336414240720194	)
		(	0.3344014536237264	0.26267443625261744	0.09825376761319767	0.3046703425104585	));
}
potential ( C_NI_12_30 | C_NI_12_15 )
{
	data = ((	0.0044045760165757055	0.5011989842126513	0.18495730825207962	0.3094391315186933	)
		(	0.21324407309671237	0.27274466624613786	0.0900334383045328	0.423977822352617	)
		(	0.1809074580253304	0.09299740446566944	0.6873087230538685	0.038786414455131646	)
		(	0.6261916666297519	0.15047591645308137	0.1390245869968362	0.08430782992033059	));
}
potential ( C_NI_12_45 | C_NI_12_30 )
{
	data = ((	0.13353205377083385	0.041206886093466524	0.5119381341909821	0.31332292594471756	)
		(	0.040333122097857055	0.30437319283026343	0.18067374948243362	0.474619935589446	)
		(	0.2939800835574309	0.281268838499513	0.19909877566513287	0.2256523022779231	)
		(	0.2409528713729946	0.1761768902641636	0.14591392991474908	0.4369563084480927	));
}
potential ( CKNN_12_15 | CKND_12_00 CKNN_12_00 )
{
	data = (((	0.525000701460115	0.12633267429296122	0.3486666242469238	)
		(	0.6209531422498075	0.31492481811522444	0.06412203963496824	)
		(	0.22863878082794098	0.4419925947249396	0.32936862444711945	))
		((	0.2964653089151225	0.3404495138172188	0.3630851772676588	)
		(	0.25188093526874056	0.33008536450613213	0.41803370022512737	)
		(	0.40965531088207124	0.3873164939615781	0.20302819515635054	))
		((	0.24579160809057976	0.18596571095663675	0.5682426809527835	)
		(	0.3646449176212415	0.5272936697765311	0.10806141260222735	)
		(	0.41980327345534046	0.45593907100620623	0.12425765553845342	)));
}
potential ( CKNN_12_30 | CKND_12_15 CKNN_12_15 )
{
	data = (((	0.206808407834218	0.5386440561217776	0.25454753604400454	)
		(	0.5950852757016941	0.06007419513637468	0.3448405291619312	)
		(	0.5160509032423676	0.37406928751797625	0.10987980923965616	))
		((	0.1518712667158339	0.48120498886889995	0.36692374441526615	)
		(	0.27372209751464466	0.5566321891777565	0.1696457133075988	)
		(	0.34122547843892	0.292124657476721	0.3666498640843591	))
		((	0.4760463343853343	0.4962239785985101	0.02772968701615561	)
		(	0.29805365860493227	0.2666593744133267	0.4352869669817411	)
		(	0.04751531988485683	0.5809532710636983	0.3715314090514449	)));
}
potential ( CKNN_12_45 | CKND_12_30 CKNN_12_30 )
{
	data = (((	0.2776573758016732	0.175371230563458	0.5469713936348688	)
		(	0.14560458796473738	0.450393316595102	0.4040020954401606	)
		(	0.19021482320089658	0.34196462467717853	0.4678205521219249	))
		((	0.3667654182338331	0.5496649938333938	0.08356958793277304	)
		(	0.404169667553948	0.36810324930189436	0.22772708314415763	)
		(	0.09713221685783888	0.7856086373031841	0.11725914583897706	))
		((	0.6500913546589527	0.33539918636783145	0.014509458973215844	)
		(	0.2843070713015637	0.29975747685022186	0.41593545184821434	)
		(	0.03420051765085971	0.437954050330444	0.5278454320186963	)));
}
potential ( CKND_12_15 | CKNI_12_00 CKND_12_00 CKNN_12_00 )
{
	data = ((((	0.13034078596183932	0.4389894540610168	0.43066975997714374	)
		(	0.2916821858242025	0.42381551692322245	0.284502297252575	)
		(	0.00764613059476806	0.3560956071166777	0.6362582622885542	))
		((	0.21486215025358718	0.44559107082994615	0.33954677891646656	)
		(	0.029949043139200496	0.5939335078513375	0.3761174490094619	)
		(	0.6030303119460899	0.32875095884806854	0.0682187292058416	))
		((	0.36333604184762974	0.5090513296918414	0.1276126284605288	)
		(	0.34855747607069143	0.6244600445120567	0.026982479417251782	)
		(	0.7509774313183987	0.17958736087707763	0.06943520780452345	)))
		(((	0.3544301746470935	0.49487711360143594	0.15069271175147056	)
		(	0.1443506532604065	0.357881407856954	0.4977679388826395	)
		(	0.061481175402646845	0.8011858900211546	0.13733293457619852	))
		((	0.44141206578522385	0.31398525786745396	0.24460267634732225	)
		(	0.405691147116991	0.2119413424729031	0.38236751041010597	)
		(	0.2304351378920899	0.35008261974176547	0.41948224236614473	))
		((	0.38597874938310806	0.3748060123052964	0.23921523831159558	)
		(	0.27552907550674083	0.44338907605041555	0.2810818484428437	)
		(	0.14102226966874365	0.1630146659914218	0.6959630643398346	)))
		(((	0.22153342308658772	0.6992831728078479	0.07918340410556451	)
		(	0.34825379323470435	0.6359926653796962	0.015753541385599368	)
		(	0.34600769075860816	0.29350138678237986	0.36049092245901204	))
		((	0.6072323095317445	0.3034109594119234	0.08935673105633213	)
		(	0.5269180230597549	0.32763699402162355	0.1454449829186216	)
		(	0.6894398094094982	0.3005231903564961	0.010037000234005672	))
		((	0.4899907936725563	0.43801538387570954	0.07199382245173408	)
		(	0.03355602439649802	0.34427820429456496	0.622165771308937	)
		(	0.18698390761299175	0.47692346583594525	0.33609262655106303	))));
}
potential ( CKND_12_30 | CKNI_12_15 CKND_12_15 CKNN_12_15 )
{
	data = ((((	0.27923511188077565	0.28425852786915196	0.4365063602500724	)
		(	0.4828970469598189	0.39397914460844313	0.1231238084317379	)
		(	0.29640887049592707	0.1317557203893471	0.5718354091147259	))
		((	0.010401294613003202	0.6200741909187714	0.36952451446822543	)
		(	0.11501706513037926	0.5268032016904997	0.3581797331791211	)
		(	0.36147950541617196	0.40878585957029157	0.2297346350135364	))
		((	0.5685750759304837	0.08959812427437686	0.3418267997951394	)
		(	0.42318757293586384	0.4665629299735883	0.11024949709054782	)
		(	0.5802326335097931	0.26083591293506253	0.1589314535551443	)))
		(((	0.19125606952566826	0.46507585528010004	0.3436680751942317	)
		(	0.24182747585717637	0.17102298394599966	0.5871495401968241	)
		(	0.09914993402289049	0.5842068008987564	0.3166432650783531	))
		((	0.34057951127975533	0.2462161747225907	0.41320431399765406	)
		(	0.076808026802547	0.5141024185192506	0.4090895546782024	)
		(	0.1960097907257335	0.5590244303848112	0.24496577888945534	))
		((	0.4178465309032567	0.3943243185466634	0.18782915055008	)
		(	0.3726818173541908	0.3312322187885765	0.2960859638572327	)
		(	0.19963665910206635	0.4301037960396805	0.37025954485825313	)))
		(((	0.24601336029226747	0.03147751049011848	0.722509129217614	)
		(	0.6464582113908466	0.19293353083745365	0.1606082577716997	)
		(	0.36048886764345006	0.22008223735285168	0.4194288950036982	))
		((	0.5185137960145438	0.448198283135984	0.03328792084947222	)
		(	0.07074388111123138	0.4474320996446887	0.4818240192440798	)
		(	0.22372451399066673	0.4721826219925107	0.3040928640168227	))
		((	0.1354223280185591	0.4528904402468552	0.41168723173458577	)
		(	0.06414453946132824	0.49926109987786293	0.43659436066080887	)
		(	0.33498576621430615	0.6317797001226848	0.03323453366300882	))));
}
potential ( CKND_12_45 | CKNI_12_30 CKND_12_30 CKNN_12_30 )
{
	data = ((((	0.35684689181601126	0.20830015797817822	0.4348529502058105	)
		(	0.38578707719133	0.3499739730602742	0.2642389497483958	)
		(	0.4123103761290991	0.025306704404288418	0.5623829194666125	))
		((	0.6250840022793044	0.15265297697835278	0.22226302074234283	)
		(	0.5723307876794914	0.286657274021206	0.14101193829930245	)
		(	0.5149225198941467	0.42526794956747843	0.059809530538374754	))
		((	0.5376665923860167	0.24144445500592526	0.2208889526080581	)
		(	0.40287117749958307	0.4469848002078029	0.1501440222926141	)
		(	0.49397025773620074	0.02842800212798237	0.4776017401358169	)))
		(((	0.27014740012383925	0.041166740147133056	0.6886858597290277	)
		(	0.5379921495414961	0.23270802343557595	0.22929982702292795	)
		(	0.5356527650830393	0.21711122006253455	0.24723601485442606	))
		((	0.06455580905660659	0.5172739262459504	0.41817026469744306	)
		(	0.3775248624677943	0.6054195968296221	0.017055540702583596	)
		(	0.22649122026169585	0.47809106035744925	0.2954177193808551	))
		((	0.4370535146620336	0.4796092364405216	0.08333724889744466	)
		(	0.1429555759382533	0.7738245741400246	0.08321984992172206	)
		(	0.1529679922674922	0.3932277326405382	0.4538042750919696	)))
		(((	0.3610744965176036	0.09088047078205452	0.5480450327003419	)
		(	0.4239302017801881	0.5407738497071014	0.03529594851271041	)
		(	0.3513237676679859	0.2750463208069898	0.37362991152502434	))
		((	0.25321591457760523	0.2190964016759002	0.5276876837464946	)
		(	0.5276915768521108	0.4660343703996611	0.00627405274822813	)
		(	0.5198649183859197	0.38840894062259135	0.09172614099148887	))
		((	0.1005312980874748	0.817708158450392	0.08176054346213328	)
		(	0.5097965976028644	0.13790046296211972	0.35230293943501595	)
		(	0.36582035287023523	0.2696932287499008	0.3644864183798638	))));
}
potential ( CBODN_12_15 | CBODD_12_00 CBODN_12_00 CNON_12_00 )
{
	data = ((((	0.21270177601605414	0.2928238054651524	0.18515818188361305	0.3093162366351805	)
		(	0.2317953189747955	0.20980530993504298	0.2625284557559503	0.29587091533421106	)
		(	0.3472965305596623	0.234517071716369	0.3094054506284058	0.1087809470955629	)
		(	0.07655187590975984	0.34130999763788605	0.17200594087078433	0.4101321855815698	))
		((	0.06780892635656022	0.17814838396332197	0.3086270803209468	0.44541560935917096	)
		(	0.03891334501097597	0.23414801323292073	0.28612045903267863	0.4408181827234247	)
		(	0.20681492566689139	0.2066670037122639	0.3662053427383674	0.22031272788247733	)
		(	0.4663293578513965	0.02271236027552253	0.3701031897901683	0.14085509208291258	))
		((	0.06736907847118959	0.24043900797159268	0.3859261907155013	0.30626572284171627	)
		(	0.30492819553948164	0.1887264441517753	0.3654075261561513	0.14093783415259184	)
		(	0.023310112240255112	0.2945624092815141	0.49578694831760195	0.1863405301606288	)
		(	0.08837001738436562	0.20805093605833638	0.293374199962008	0.41020484659529	))
		((	0.22291255405727076	0.2042874230831346	0.2786652332353834	0.29413478962421125	)
		(	0.2545771457036068	0.3007519709110969	0.1603021906510575	0.2843686927342388	)
		(	0.1392171315086213	0.6345394371281478	0.014146724549403881	0.2120967068138272	)
		(	0.2545149237301507	0.30218727749837104	0.23248072731789735	0.21081707145358083	)))
		(((	0.08174149233221735	0.4205157603722111	0.14387564514066398	0.3538671021549076	)
		(	0.40376811003344537	0.17579639373649503	0.41695832994323834	0.0034771662868211964	)
		(	0.1972232169479372	0.1223672980492973	0.2735521420000309	0.40685734300273463	)
		(	0.12939310894310702	0.44259822552693084	0.2269163956774578	0.20109226985250434	))
		((	0.10236974346300942	0.5211549133134599	0.08096287644835892	0.2955124667751719	)
		(	0.29321721086561514	0.03292910297233868	0.25045420595076007	0.423399480211286	)
		(	0.30075042213522246	0.2514096084366767	0.4343041417449992	0.013535827683101652	)
		(	0.3114382673985947	0.20077660060754712	0.4463693271384389	0.04141580485541909	))
		((	0.2518983833110555	0.12441197481278567	0.3355661803703254	0.28812346150583346	)
		(	0.04177303144412977	0.41489072671392296	0.09313434637802386	0.4502018954639235	)
		(	0.050038894206664256	0.41460657018138575	0.21659475328889846	0.3187597823230514	)
		(	0.382991483772387	0.06134156151906931	0.38112656908621056	0.174540385622333	))
		((	0.4573009451651483	0.09649440983153865	0.33771825604779004	0.10848638895552307	)
		(	0.15639537355313757	0.2926400999588672	0.25846742104468035	0.292497105443315	)
		(	0.2003937044664723	0.20409597879822677	0.06056335540526211	0.5349469613300388	)
		(	0.28111646497437165	0.1488433701705838	0.32785268748980884	0.24218747736523583	)))
		(((	0.3522582116294889	0.14809510048057015	0.2631876411606566	0.2364590467292844	)
		(	0.27405388486822024	0.2633613906616974	0.1981945720222174	0.26439015244786496	)
		(	0.26544060955688775	0.30287719151294457	0.09969306394518014	0.33198913498498756	)
		(	0.09036206235506168	0.37341046836222896	0.22529841896850294	0.3109290503142064	))
		((	0.22489464134939738	0.2105835159962529	0.292605866179006	0.27191597647534366	)
		(	0.40755494833751005	0.24097260383700547	0.03430086359689793	0.31717158422858654	)
		(	0.33704129566555324	0.07372682933585106	0.36056102904879267	0.22867084594980291	)
		(	0.20813240607684363	0.05400358639427679	0.6476775213329727	0.0901864861959069	))
		((	0.2786282452916801	0.045126534350917444	0.310073718196555	0.3661715021608475	)
		(	0.10250235258272286	0.3304625634929901	0.3904808939069294	0.17655419001735753	)
		(	0.19918759932968044	0.10996347167105802	0.6099020670107725	0.08094686198848887	)
		(	0.183189492023982	0.14666884506054792	0.35929848897850075	0.3108431739369693	))
		((	0.04914550956138645	0.11195496966252927	0.5040097324134091	0.33488978836267513	)
		(	0.48402078389213793	0.18720816403852786	0.018407965805347704	0.3103630862639866	)
		(	0.34977480901113384	0.22641746998241785	0.2010381093858834	0.2227696116205648	)
		(	0.38543051330123745	0.27050872740490395	0.015699586485075245	0.3283611728087834	)))
		(((	0.390490627957121	0.289307042091265	0.2619370885324479	0.058265241419166086	)
		(	0.06690167216535263	0.3122327119062869	0.5948586142842222	0.026007001644138446	)
		(	0.019263861875567487	0.2192215637235973	0.37791429749124955	0.3836002769095857	)
		(	0.1459152626901233	0.3048517984920004	0.36349393827735094	0.1857390005405254	))
		((	0.1831996219344118	0.4272885413803686	0.09824147118472422	0.2912703655004954	)
		(	0.0688157736981582	0.495225697020684	0.23066096775493272	0.20529756152622503	)
		(	0.37073468403139553	0.22003216341562223	0.04548109862514377	0.36375205392783844	)
		(	0.06408983687296838	0.25855706024567415	0.3071974709126789	0.3701556319686786	))
		((	0.23072106667621445	0.11429856781396203	0.37109038855614424	0.2838899769536792	)
		(	0.23570632710715717	0.3816955138002686	0.2327027222251604	0.14989543686741372	)
		(	0.12259244622193387	0.30536275365487114	0.2407936937812887	0.3312511063419063	)
		(	0.5891886398634514	0.15084149263662058	0.002223389286101542	0.2577464782138264	))
		((	0.07432441611360885	0.19474056532472017	0.44813617423044333	0.28279884433122765	)
		(	0.416219792837545	0.08470844502217549	0.06724125074056518	0.43183051139971435	)
		(	0.05629050498600288	0.2867449795062757	0.3504959951865045	0.3064685203212169	)
		(	0.4202754473529694	0.4561199956229966	0.07227783095764295	0.05132672606639108	))));
}
potential ( CNOD_12_15 | CBODD_12_00 CNOD_12_00 CNON_12_00 )
{
	data = ((((	0.3211773716077334	0.44410562432779294	0.004911052535586359	0.22980595152888736	)
		(	0.3070567141200566	0.06642562926398647	0.2995124258446582	0.32700523077129867	)
		(	0.3224857771923001	0.062071663623825636	0.3484597398771973	0.26698281930667683	)
		(	0.45676880379998236	0.039086992496594655	0.22141479655141647	0.2827294071520065	))
		((	0.2464230797439513	0.0147740005403555	0.3614218694150549	0.37738105030063834	)
		(	0.0778598847923304	0.034200835888641014	0.5095300313465919	0.37840924797243675	)
		(	0.003557355577741235	0.2844237784095046	0.43728970074221124	0.2747291652705429	)
		(	0.34641107799158155	0.11646969804352653	0.4519802745190795	0.08513894944581239	))
		((	0.2224734460991691	0.3035234018534147	0.43228030453586774	0.0417228475115486	)
		(	0.14957704583023423	0.281495775963016	0.32147488346427033	0.24745229474247937	)
		(	0.12959032501992296	0.4149764270810261	0.3410265631192628	0.11440668477978808	)
		(	0.08819328326867486	0.1099723663502966	0.4303817203842159	0.3714526299968128	))
		((	0.2632471369842382	0.20867608673338484	0.2393709136169763	0.2887058626654006	)
		(	0.39329777142094974	0.20747669859448925	0.19534628208834656	0.2038792478962144	)
		(	0.24492238290538648	0.14138829620574245	0.5244231584230782	0.0892661624657928	)
		(	0.32292991210229455	0.21144701194335427	0.12859928107324894	0.33702379488110223	)))
		(((	0.27288849854444297	0.10122552293525712	0.27307289287164055	0.35281308564865943	)
		(	0.06433840934525827	0.21186852509458587	0.39635846715067846	0.3274345984094773	)
		(	0.19409005295943219	0.2917455857926176	0.27892438213163884	0.23523997911631137	)
		(	0.42988547273809197	0.0017330990158450318	0.4245675030179756	0.14381392522808742	))
		((	0.3048941763060596	0.3169791322295675	0.34195931698200976	0.03616737448236312	)
		(	0.29109124687460847	0.13811985670190693	0.2763546210080062	0.29443427541547845	)
		(	0.015712471402607443	0.4746502616314935	0.10809092759970229	0.40154633936619677	)
		(	0.26139325879532593	0.39863703768863457	0.2544469464292702	0.08552275708676929	))
		((	0.4556604406107997	0.3331268190738172	0.1920764298818507	0.0191363104335323	)
		(	0.4533562575286513	0.10586356907464758	0.29727135986340103	0.14350881353330014	)
		(	0.2664507993325007	0.10073952141459433	0.4736813473596092	0.15912833189329575	)
		(	0.25355336601809	0.33225339215854266	0.28582522099794605	0.12836802082542134	))
		((	0.04950763549891266	0.41862036808954795	0.18967338638237702	0.3421986100291624	)
		(	0.3619342050281637	0.1247880660251919	0.3354239262949407	0.17785380265170375	)
		(	0.37350823148895285	0.1750067147297699	0.14153757190260347	0.30994748187867366	)
		(	0.3081837792043959	0.22320033568903538	0.26055809151174203	0.20805779359482662	)))
		(((	0.32334290447011116	0.07885475774666742	0.5677534325084187	0.030048905274802723	)
		(	0.49926649073207	0.09515002854775102	0.2662475534101223	0.13933592731005673	)
		(	0.31261511675915366	0.35877724964507524	0.16222837003153207	0.16637926356423902	)
		(	0.09113741184485434	0.09820563225323804	0.35686550395353717	0.45379145194837045	))
		((	0.3791168707981612	0.10501410017507523	0.3408142044255227	0.17505482460124086	)
		(	0.17337683045196592	0.24532086115028137	0.3270075204363706	0.254294787961382	)
		(	0.3432467907403912	0.12353298710015849	0.16424507677747685	0.3689751453819735	)
		(	0.3760031816800402	0.10184411967655267	0.14561851735496167	0.3765341812884454	))
		((	0.20786365836629764	0.3133451152512423	0.3462996668040778	0.13249155957838238	)
		(	0.6808409377331286	0.11448952172553022	0.021218901800021568	0.1834506387413196	)
		(	0.1855828641710926	0.22052204864363853	0.273743865055544	0.320151222129725	)
		(	0.31689134496537263	0.008248968175746219	0.12083909172912108	0.5540205951297601	))
		((	0.32350520643609376	0.34925431147346636	0.15131135031003148	0.17592913178040837	)
		(	0.13218843367006894	0.27116291418149774	0.2623832787647047	0.33426537338372864	)
		(	0.4659490552238733	0.19924142841377113	0.25767544945505855	0.07713406690729703	)
		(	0.35247208223309745	0.225907439049041	0.2939186078146921	0.12770187090316937	)))
		(((	0.2786043097177651	0.15850789868528856	0.08314202417632317	0.47974576742062314	)
		(	0.35612472846337745	0.11777508114422244	0.17436664198175125	0.3517335484106489	)
		(	0.3726198240019414	0.16676651085420222	0.27142745156306636	0.1891862135807902	)
		(	0.23823177155273836	0.3071405305355816	0.28297749563388697	0.17165020227779312	))
		((	0.39980812447338504	0.10709300808985632	0.2749165714308828	0.2181822960058759	)
		(	0.23708382902475028	0.24172607653909875	0.25277895816193535	0.26841113627421553	)
		(	0.11516691179104804	0.40786657433541323	0.24564523174009342	0.23132128213344533	)
		(	0.2905402597207497	0.26604393131016374	0.24742678845373217	0.1959890205153544	))
		((	0.3645592684192875	0.08404267934035177	0.2963389111382011	0.25505914110215966	)
		(	0.6027614416201815	0.08746170719252733	0.2553119165471968	0.05446493464009445	)
		(	0.25474745900916984	0.04779038246692525	0.38996628536607225	0.3074958731578327	)
		(	0.21500863355810748	0.3603801884652037	0.22776233595331288	0.196848842023376	))
		((	0.3326606010863799	0.2035925127755291	0.002526710070266054	0.46122017606782495	)
		(	0.2148108171144813	0.4453917384647966	0.2922786705512969	0.04751877386942523	)
		(	0.22562119312220977	0.1000620493115236	0.503306358865996	0.17101039870027074	)
		(	0.2316473634537728	0.3089218889205659	0.2799230378681499	0.17950770975751137	))));
}
potential ( CBODN_12_30 | CBODD_12_15 CBODN_12_15 CNON_12_15 )
{
	data = ((((	0.092849036840457	0.6396983752007729	0.26302914439203756	0.004423443566732722	)
		(	0.23675241741809286	0.46660757636776873	0.18167164515537942	0.11496836105875897	)
		(	0.09832316997347688	0.4197673915938802	0.09343076202762786	0.388478676405015	)
		(	0.28725780224487546	0.17307541524532485	0.17822504969340808	0.36144173281639164	))
		((	0.2477723122489817	0.5691439768517114	0.08303939324092773	0.10004431765837923	)
		(	0.011597620164673894	0.10120550805727531	0.3847896999139856	0.5024071718640652	)
		(	0.2629466934370116	0.14597560364448955	0.27370229424788556	0.3173754086706133	)
		(	0.1144898346545643	0.38893191448779113	0.35141042304081943	0.1451678278168252	))
		((	0.31427046557981003	0.2888173464667514	0.2073887587016243	0.18952342925181423	)
		(	0.45251772709448196	0.2948500601260493	0.19462891296746365	0.058003299812005235	)
		(	0.10956967495054902	0.2451895321068016	0.40744282911618324	0.2377979638264662	)
		(	0.13532986306555717	0.38824800869177145	0.4744309254512453	0.0019912027914261166	))
		((	0.2999071518301142	0.30691495954984593	0.09915731800207475	0.29402057061796505	)
		(	0.4460389931074195	0.005182507986855277	0.1619333347500401	0.3868451641556851	)
		(	0.21404309950860714	0.009217108177374889	0.47365333456483877	0.3030864577491793	)
		(	0.3925150180933265	0.29138136966582745	0.2960713363557433	0.020032275885102837	)))
		(((	0.08935734429664313	0.2940954823085932	0.6089797046607932	0.007567468733970504	)
		(	0.23524198330088283	0.2634332391125985	0.1583938665818747	0.342930911004644	)
		(	0.37806086648983667	0.035598261988343594	0.44320789425448115	0.14313297726733862	)
		(	0.45804789274407415	0.4834014603104438	0.04013669210959682	0.018413954835885232	))
		((	0.06644282055381837	0.3993035111570106	0.2549493931544721	0.27930427513469896	)
		(	0.011781681414485767	0.4721494881560523	0.40777289829643515	0.1082959321330268	)
		(	0.28625239224434423	0.16268906545554393	0.2912423233782633	0.2598162189218486	)
		(	0.34432155540092124	0.147113784543626	0.41395951719786106	0.09460514285759161	))
		((	0.3787629565546026	0.12500656962612888	0.11766912536072278	0.3785613484585457	)
		(	0.3342572145241611	0.26850888896478375	0.3077962860461319	0.08943761046492332	)
		(	0.017671274275307715	0.2235537020102108	0.2514598809553163	0.5073151427591652	)
		(	0.3497837625062264	0.3527334029968921	0.1271117489033681	0.17037108559351333	))
		((	0.1323533003539645	0.41415497630806625	0.31808138781130557	0.13541033552666354	)
		(	0.42460598372918457	0.23946239711325848	0.17412191352625359	0.16180970563130329	)
		(	0.4403548095776362	0.14185637732932707	0.33118596155547086	0.08660285153756597	)
		(	0.5196040752044158	0.06178433626110378	0.05267172524333874	0.3659398632911418	)))
		(((	0.4242621427656452	0.05828310936753957	0.2173394433955863	0.3001153044712289	)
		(	0.21470746733222365	0.40025090082608766	0.16125399631683632	0.2237876355248525	)
		(	0.3301008736994879	0.14733733493299805	0.1873314736090885	0.33523031775842566	)
		(	0.4748814799405207	0.3461044849901434	0.0567684484072121	0.12224558666212376	))
		((	0.09745978895865169	0.4894237793376723	0.41224391344941724	8.725182542587749E-4	)
		(	0.30492014245078936	0.35065795395872407	0.2869300143081034	0.057491889282383295	)
		(	0.4678598490768975	0.25368470732053167	0.0864240758595399	0.19203136774303103	)
		(	0.10866887338370752	0.5444165983918536	0.30799705528250104	0.03891747294193782	))
		((	0.07624809722579105	0.5633660388785188	0.004202079514493645	0.35618378438119663	)
		(	0.03215866748533891	0.44060634104413066	0.48057863394608713	0.04665635752444344	)
		(	0.04169726542587686	0.24078452467872433	0.30858874120891133	0.40892946868648744	)
		(	0.4955861681013305	0.13997970791610256	0.20089134404483042	0.1635427799377365	))
		((	0.020100037169768402	0.2772808505942449	0.25463619003219085	0.44798292220379576	)
		(	0.24459945871927274	0.4448403182479956	0.3065711280371021	0.0039890949956295114	)
		(	0.06764932923561663	0.5335756989598902	0.03173675723292136	0.3670382145715719	)
		(	0.2848792641013545	0.20493003292167555	0.12902655084098272	0.3811641521359872	)))
		(((	0.6002189950333338	0.22827144417922368	0.1673839022628026	0.00412565852463994	)
		(	0.21484421262107412	0.23796579121759937	0.33183699917497284	0.2153529969863537	)
		(	0.4009511451332135	0.26739939584831474	0.0676480996765919	0.2640013593418798	)
		(	0.17906432839476885	0.03285064774775151	0.5049140679727722	0.28317095588470736	))
		((	0.00697089339759511	0.619074765657569	0.10163886398376334	0.27231547696107256	)
		(	0.42563551647687703	0.32635687571189703	0.22566401242399595	0.022343595387230027	)
		(	0.17229196092338736	0.44976267577023865	0.25763342188167504	0.12031194142469893	)
		(	0.375590160369965	0.111590255376999	0.23725431527911295	0.2755652689739229	))
		((	0.23009433151587613	0.2653430073500862	0.12675210120989658	0.37781055992414114	)
		(	0.3590896831864416	0.4164186932872867	0.09706819083861955	0.1274234326876523	)
		(	0.2595531897998637	0.38935980503899864	0.25746805764509884	0.0936189475160389	)
		(	0.25795141263685833	0.044905089956357745	0.620834166351077	0.07630933105570686	))
		((	0.33370417444701045	0.33228363052695353	0.2834742653423664	0.05053792968366972	)
		(	0.3113623450804572	0.22054060476842802	0.28105880866950167	0.1870382414816131	)
		(	0.22540051413634918	0.25975978606244005	0.08796362809363985	0.4268760717075711	)
		(	0.2009780397209659	0.28495114131300175	0.17677748922314226	0.33729332974288995	))));
}
potential ( CNOD_12_30 | CBODD_12_15 CNOD_12_15 CNON_12_15 )
{
	data = ((((	0.17879051328027884	0.2588991955665496	0.009413330222416832	0.5528969609307547	)
		(	0.36257558856093364	0.10640821970199182	0.2713991726190557	0.2596170191180189	)
		(	0.11293955078162138	0.41951296924416187	0.056903612892911085	0.4106438670813056	)
		(	0.31910281898357146	0.23866770582838603	0.09528621663369304	0.3469432585543495	))
		((	0.41870401077819386	0.1846288531385897	0.2551410778471269	0.14152605823608952	)
		(	0.30527931835343164	0.25634236930449333	0.43313947268717207	0.005238839654902939	)
		(	0.4336160769382269	0.14869655987331792	0.3372528433284084	0.08043451986004668	)
		(	0.7352216533375631	0.07905875764125704	0.18271650186632954	0.003003087154850362	))
		((	0.0848743555452603	0.16606365256558941	0.3141081958995816	0.4349537959895687	)
		(	0.16310860856764037	0.23658523073727356	0.36615387256057685	0.2341522881345092	)
		(	0.24822231278409662	0.2542915777872945	0.08209527233787949	0.4153908370907295	)
		(	0.038573876557467676	0.04740751522071282	0.5417928878829954	0.37222572033882406	))
		((	0.3232225920363707	0.23773734764131016	0.2677729954954347	0.17126706482688434	)
		(	0.3400166108252369	0.3402955892754815	0.09573466523073655	0.22395313466854516	)
		(	0.20013085209272832	0.4093784409073884	0.19055684909439383	0.19993385790548943	)
		(	0.599600723331103	0.007918322772719349	0.1892238908254695	0.203257063070708	)))
		(((	0.14720726026024444	0.13667247344842726	0.3677574491779439	0.3483628171133844	)
		(	0.3140556778992934	0.28775900213219385	0.06392885593541292	0.33425646403309994	)
		(	0.08617561534387318	0.24095503595301582	0.15291745481880686	0.5199518938843042	)
		(	0.4552647964658249	0.1766824417740932	0.17292705575365622	0.1951257060064258	))
		((	0.06430290314078743	0.06657312804465373	0.513408376577322	0.35571559223723687	)
		(	0.17309632492440913	0.4203991638453637	0.18112462804963467	0.22537988318059252	)
		(	0.45936845647933916	0.1689443422165836	0.06415388397481238	0.3075333173292649	)
		(	0.33841554722868317	0.3710868834844876	0.06942215525626164	0.22107541403056769	))
		((	0.25459790031987073	0.24434404782782468	0.4687100254166606	0.03234802643564403	)
		(	0.2371646257312943	0.2537148182838417	0.29291093352585756	0.21620962245900643	)
		(	0.2823513127845867	0.26492747978696474	0.29563340451289427	0.15708780291555444	)
		(	0.27263078186431494	0.3077743842760415	0.1145903368295099	0.3050044970301337	))
		((	0.11310496299177927	0.427896264770884	0.06550918128687236	0.39348959095046426	)
		(	0.16807306095617214	0.2265003599189725	0.3113530639929129	0.2940735151319426	)
		(	0.217256282939754	0.4541914641931711	0.07125219615059906	0.2573000567164758	)
		(	0.28463385936273655	0.27420729766985097	0.10651706680086173	0.3346417761665506	)))
		(((	0.28271318637196097	0.17091355005763645	0.18171377757576396	0.3646594859946385	)
		(	0.3037633373987715	0.47169571969065643	0.11111024137177229	0.11343070153879967	)
		(	0.21033129454150964	0.31678427497715045	0.2936294177791476	0.17925501270219238	)
		(	0.37190028833702116	0.38505968288078074	0.06505755137108085	0.1779824774111173	))
		((	0.3631752468256939	0.3168428178421108	0.07146071677494624	0.24852121855724912	)
		(	0.023327484969162947	0.4282902589827615	0.18981605859968922	0.3585661974483864	)
		(	0.43114502506431585	0.07576355665171995	0.3318327444052448	0.16125867387871945	)
		(	0.3925898120818928	0.1981212914949886	0.19127600920261442	0.21801288722050416	))
		((	0.3143318829683977	0.21866675629389704	0.3073526974462786	0.15964866329142668	)
		(	0.21171740151241064	0.5301470207436094	0.08226735172121298	0.17586822602276697	)
		(	0.3556466374845204	0.22052388165183073	0.24747589157061176	0.17635358929303716	)
		(	0.13927359310920587	0.2991442480487456	0.31838213186051234	0.24320002698153623	))
		((	0.3521148065095621	0.2574608398438796	0.017807007694395652	0.37261734595216267	)
		(	0.26956364560213164	0.23265289939684833	0.2895640349316011	0.20821942006941896	)
		(	0.27965737099204774	0.006820047037948834	0.3600277369402211	0.3534948450297823	)
		(	0.2827798399917135	0.2061163443998381	0.08784477395218623	0.42325904165626216	)))
		(((	0.35643472162855805	0.21971619724980418	0.3277739114745856	0.09607516964705208	)
		(	0.11367178734834602	0.26739902634219354	0.18338406576730584	0.4355451205421546	)
		(	0.05928389260096768	0.39426716912403786	0.21334455464105098	0.3331043836339434	)
		(	0.3016375569740379	0.21593762542346176	0.31131701472853757	0.17110780287396282	))
		((	0.2534490653080482	0.37707879952745704	0.11434767194473755	0.2551244632197571	)
		(	0.5356855476877072	0.09237465476581325	0.006937727609821227	0.36500206993665846	)
		(	0.13329048769798252	0.009322358560467224	0.2774595352962458	0.5799276184453044	)
		(	0.257806567797616	0.37499513485973734	0.05902732761386018	0.30817096972878627	))
		((	0.10588728551608914	0.6562158618780265	0.07140121797428543	0.16649563463159892	)
		(	0.16315711749671893	0.12856583678613592	0.46706090306894843	0.24121614264819666	)
		(	0.1939166335872006	0.2479342439892537	0.301524275195656	0.25662484722788953	)
		(	0.08066089874493129	0.11623396948580006	0.378524885952082	0.4245802458171868	))
		((	0.2935518398446114	0.23239543127198797	0.30577589538813377	0.16827683349526698	)
		(	0.40701503837280806	0.010829005193523937	0.09866497108922885	0.48349098534443913	)
		(	0.3484630932039325	0.17439570656295098	0.35676062828099	0.12038057195212665	)
		(	0.11771533561135517	0.3609766601162345	0.1436059681800145	0.3777020360923959	))));
}
potential ( CBODN_12_45 | CBODD_12_30 CBODN_12_30 CNON_12_30 )
{
	data = ((((	0.45397448104158383	0.3339607787447954	0.14888075050511437	0.06318398970850653	)
		(	0.5848484043375766	0.26230846345249026	0.09068210184523248	0.06216103036470065	)
		(	0.2790808275264849	0.17467370082480294	0.24143277909752398	0.3048126925511881	)
		(	0.3410867390662816	0.03442987035086567	0.4039571000519294	0.22052629053092343	))
		((	0.24892117495350485	0.18122458121584184	0.4647693028846421	0.10508494094601126	)
		(	0.3119957364748774	0.23520074673783198	0.3101337424843245	0.1426697743029661	)
		(	0.3445086898784769	0.08708645536199311	0.368276544966377	0.20012830979315294	)
		(	0.280118070263731	0.10978833041438624	0.5259858356009199	0.08410776372096285	))
		((	0.16880748208412538	0.09901407067193728	0.40446051122000104	0.32771793602393623	)
		(	0.47833895210436594	0.0057341880334097865	0.21234689564615533	0.30357996421606903	)
		(	0.27531687619502515	0.1803932302295569	0.3761494609959435	0.1681404325794744	)
		(	0.33022971956306335	0.0943482447570596	0.2521240369267667	0.3232979987531103	))
		((	0.13679477791268352	0.40425598794327366	0.18732186815218319	0.2716273659918597	)
		(	0.40380330806260095	0.2724775480149018	0.09213676072128389	0.23158238320121333	)
		(	0.3016439770643042	0.2981865983178923	0.34396641608271694	0.05620300853508666	)
		(	0.3635737505294025	0.31308741348596997	0.04450107627765247	0.2788377597069751	)))
		(((	0.3471704487708879	0.03898064118906598	0.33221747859325257	0.28163143144679353	)
		(	0.3780823708982899	0.2992916307256913	0.15356975742434978	0.16905624095166896	)
		(	0.20607262261278803	0.6069243721653685	0.1327614835796538	0.05424152164218965	)
		(	0.08910475810019326	0.20301464896881	0.3925413840893903	0.3153392088416065	))
		((	0.4645716608932228	0.05603766944973618	0.3622937231212302	0.1170969465358109	)
		(	0.2885556480128519	0.29548665452308526	0.11660341144151815	0.2993542860225447	)
		(	0.23607824421532808	0.33703758729118405	0.1345199076344047	0.2923642608590832	)
		(	0.18126918570349607	0.42278996082493076	0.06369069314887338	0.33225016032269983	))
		((	0.24462799344711317	0.2642545721962337	0.3241649220601868	0.16695251229646627	)
		(	0.40030059649719596	0.16716866355281076	0.34782637460193855	0.08470436534805477	)
		(	0.41776305100648825	0.09181243191529875	0.26036390495803813	0.23006061212017492	)
		(	0.06986739990650609	0.569256817454734	0.08312955743338163	0.2777462252053783	))
		((	0.3542900862320172	0.33561516345534514	0.05678234256335366	0.253312407749284	)
		(	0.3532493086747047	0.33195049168281326	0.20562974423435876	0.10917045540812322	)
		(	0.1426645386483212	0.3681241027158196	0.34556887137340053	0.1436424872624586	)
		(	0.2894162264606454	0.3537469288519962	0.26073236011622136	0.096104484571137	)))
		(((	0.3258912772896565	0.3933023939982425	0.10931422941680363	0.17149209929529732	)
		(	0.05845313683298049	0.22501420602564012	0.34661399530756026	0.36991866183381905	)
		(	0.20721246235585525	0.22472684262177683	0.3286549266371946	0.2394057683851733	)
		(	0.03937934541185943	0.1268685920837187	0.40601317575422247	0.4277388867501994	))
		((	0.05531373605686526	0.18965718956347938	0.3797036662795716	0.37532540810008386	)
		(	0.2831518054295419	0.28113619429181114	0.27554735387343315	0.16016464640521388	)
		(	0.48393386574121966	0.10870609196136155	0.2858237624461196	0.12153627985129926	)
		(	0.2346572468294997	0.18275186402461982	0.40144196880563177	0.18114892034024865	))
		((	0.24094702440029878	0.0725911165611205	0.41483229775170816	0.2716295612868726	)
		(	0.4534387224726958	0.1251046988628482	0.21549041326118865	0.20596616540326732	)
		(	0.24715257035997512	0.29830437062183784	0.0733637665629039	0.38117929245528315	)
		(	0.2962776969700872	0.14893716829426223	0.44804640051723243	0.10673873421841822	))
		((	0.27030503813412826	0.47258827574293477	0.03798040659093101	0.21912627953200597	)
		(	0.28546560824548034	0.28698756289765937	0.18370061502711238	0.2438462138297479	)
		(	0.20384012257563738	0.30698978833284984	0.22511549472673856	0.2640545943647742	)
		(	0.2166652728722968	0.36341053336386353	0.29531450670024617	0.12460968706359359	)))
		(((	0.08256776072918297	0.4052559848233425	0.25486342710101534	0.25731282734645905	)
		(	0.287634231718996	0.4160200450587582	0.014347837535734452	0.28199788568651124	)
		(	0.3725005248155263	0.4156268504542376	0.15959147139850963	0.05228115333172638	)
		(	0.3938164839227267	0.054424266260747145	0.3263305404649153	0.2254287093516108	))
		((	0.19445111692736963	0.16870084064212193	0.5688154387208288	0.06803260370967956	)
		(	0.14396747941588642	0.3215206352397058	0.14527583817508213	0.3892360471693256	)
		(	0.49549905484827145	0.13834341785854817	0.11641832795237086	0.2497391993408096	)
		(	0.05198093112212954	0.421865987084857	0.23218248213952158	0.29397059965349187	))
		((	0.4157704097384747	0.26348902030637283	0.03792502927009581	0.2828155406850566	)
		(	0.08350218196579992	0.4559706370684579	0.24650286255205495	0.21402431841368724	)
		(	0.18242562387072891	0.3160680955924307	0.33029555548827744	0.17121072504856302	)
		(	0.2898561648778604	0.2624490896054727	0.13580484054466405	0.31188990497200275	))
		((	0.08003305845365001	0.2750722493890392	0.30903055603930335	0.3358641361180076	)
		(	0.2545405182212771	0.3657398190392979	0.34909854645644445	0.03062111628298064	)
		(	0.6305167234074243	0.07923142329483691	0.07187070684948754	0.2183811464482513	)
		(	0.15215523184433147	0.15374010784293957	0.17545371536121998	0.5186509449515091	))));
}
potential ( CNOD_12_45 | CBODD_12_30 CNOD_12_30 CNON_12_30 )
{
	data = ((((	0.06375181769537065	0.29327454729075536	0.2549409206584935	0.3880327143553806	)
		(	0.1567586477764792	0.14168826724951283	0.42253659674057303	0.2790164882334349	)
		(	0.4223793363771515	0.30147162298497643	0.2582600811906237	0.017888959447248252	)
		(	0.2628383545580515	0.1796938035445682	0.263268848685159	0.29419899321222126	))
		((	0.2502975086605213	0.2819666560591831	0.16690144876611956	0.30083438651417616	)
		(	0.3112190449585183	0.014389141079370537	0.3333826242765183	0.3410091896855928	)
		(	0.020310277787966118	0.2882816876458849	0.470144876390299	0.22126315817584996	)
		(	0.47288843323788826	0.00974445344056189	0.18364150940523966	0.33372560391631023	))
		((	0.24422805138446826	0.13799206326206392	0.34067131328791034	0.27710857206555756	)
		(	0.021661488399495745	0.3516270525576827	0.24890263386038344	0.3778088251824382	)
		(	0.3832133708161722	0.056644718532617926	0.24212194887637864	0.31801996177483133	)
		(	0.3181080135389015	0.03278927604091536	0.31315743437948	0.3359452760407032	))
		((	0.0863128207884608	0.2857741939445586	0.4198070388800487	0.20810594638693186	)
		(	0.300254006812149	0.14771835457963645	0.29475031653683	0.2572773220713847	)
		(	0.3101554506322691	0.2173068096792122	0.1406431859386773	0.33189455374984145	)
		(	0.053619128832827344	0.4027073607159125	0.35914968496938654	0.1845238254818735	)))
		(((	0.453488679800761	0.05899885898503138	0.4350494177750625	0.05246304343914494	)
		(	0.1155887750576324	0.16760481888789555	0.4750213732977341	0.24178503275673793	)
		(	0.12168175545545004	0.24824636281782372	0.21099770931531395	0.41907417241141237	)
		(	0.36966603309499274	0.17130340224054477	0.15319132307956268	0.30583924158489983	))
		((	0.2331344221401063	0.26000584693105916	0.22812737048632395	0.2787323604425106	)
		(	0.002118953270591508	0.35644140808640373	0.33770925864505796	0.3037303799979469	)
		(	0.41214308161462654	0.3655150534306547	0.08991166803049641	0.1324301969242223	)
		(	0.3570818875279111	0.22595899329341626	0.3596917400718528	0.05726737910681986	))
		((	0.28990684448121956	0.11406704510136523	0.312268221881614	0.2837578885358011	)
		(	0.19834598551603097	0.23286862102187583	0.389673806710206	0.1791115867518871	)
		(	0.32125093023297	0.2878329403490944	0.1954693113742981	0.1954468180436374	)
		(	0.24644523662274365	0.2618905823243203	0.14243713426336563	0.3492270467895704	))
		((	0.3805097657884465	0.27824060163013803	0.1261837405814826	0.21506589199993284	)
		(	0.1585058426449194	0.15720297736768668	0.34898746879958886	0.33530371118780505	)
		(	0.09039849759464319	0.5698358676968436	0.0730179215611237	0.2667477131473895	)
		(	0.3316428729240237	0.14528649509257724	0.27439788699741813	0.2486727449859808	)))
		(((	0.44619081738016636	0.16460258498341146	0.32927760186556004	0.059928995770862206	)
		(	0.14450323438895757	0.08138407088356371	0.2466447427680856	0.527467951959393	)
		(	0.34783638140747974	0.30915457721432504	0.2307188248380939	0.11229021654010134	)
		(	0.0370510543920604	0.2193102578909718	0.587080252787933	0.15655843492903476	))
		((	0.23509120831271152	0.34160119401439704	0.24836363612514703	0.17494396154774447	)
		(	0.22630045090065087	0.30463850369872303	0.05200694032802354	0.41705410507260254	)
		(	0.02700150925756438	0.2635297263976796	0.5744555309085569	0.135013233436199	)
		(	0.3481977272290904	0.022275740921693283	0.24743183629141008	0.38209469555780623	))
		((	0.12220197793747628	0.35963352743920646	0.3926236056184828	0.12554088900483448	)
		(	0.369268694134542	0.15764361954105616	0.011731079443714005	0.4613566068806878	)
		(	0.15871304559057048	0.18899634078862376	0.17570790782758017	0.4765827057932257	)
		(	0.21837072004197589	0.18345715744971272	0.2914778575091508	0.3066942649991606	))
		((	0.26517245040051884	0.1302274399393465	0.1105428547210974	0.49405725493903724	)
		(	0.11353009645778592	0.3827711200418511	0.16965702648654543	0.3340417570138176	)
		(	0.36230183284448914	0.0921988466810772	0.1757527616612289	0.36974655881320473	)
		(	0.28161039697605267	0.19976601594620233	0.19908693381190737	0.3195366532658376	)))
		(((	0.30341636355955914	0.12522317985838796	0.42204541293252623	0.14931504364952664	)
		(	0.3327304399583813	0.1613225570020772	0.33167569115719314	0.17427131188234846	)
		(	0.39664763877564724	0.3664367927478575	0.09483349632420551	0.1420820721522898	)
		(	0.10655760840493764	0.3328582134320796	0.31653355457822746	0.24405062358475527	))
		((	0.16346764651536302	0.2849394683411902	0.33206310163707403	0.21952978350637273	)
		(	0.14026981731700677	0.26593124836025983	0.5247720259002893	0.06902690842244409	)
		(	0.24038971390377312	0.13373768868777683	0.08019790805334014	0.5456746893551099	)
		(	0.05803268534006077	0.4397721557584584	0.4456395481666351	0.056555610734845746	))
		((	0.09437216690183187	0.4668835737059666	0.19365846925015326	0.2450857901420483	)
		(	0.30124847474680144	0.028484890854414083	0.42570896021700816	0.2445576741817763	)
		(	0.31332604217891796	0.05390052368041056	0.31489569350411495	0.3178777406365566	)
		(	0.1131342182687067	0.4016100951437785	0.28972287358119836	0.19553281300631634	))
		((	0.2786615020623483	0.14184466152419786	0.1984984671189727	0.38099536929448125	)
		(	0.2197445567108937	0.16998619958911262	0.14679790083628552	0.4634713428637082	)
		(	0.3211273326482787	0.24269994831493072	0.2665943554797534	0.1695783635570372	)
		(	0.26150335002511926	0.5110161698392852	0.21244992556311149	0.015030554572484079	))));
}
potential ( CNON_12_15 | CNOD_12_00 CBODN_12_00 CKNN_12_00 CNON_12_00 )
{
	data = (((((	0.381690030975994	0.22207304881014392	0.2181538284905745	0.17808309172328748	)
		(	0.2931349776209715	0.03529913682050713	0.3221242149377987	0.34944167062072273	)
		(	0.25637253192079545	0.08914467495796143	0.3271889158240416	0.32729387729720155	)
		(	0.06469254612697356	0.45625431666305144	0.1146058852225344	0.36444725198744055	))
		((	0.20830603204818268	0.19335794994981148	0.4026225378930426	0.19571348010896325	)
		(	0.3277882438748568	0.01508470873409372	0.2908167577944684	0.3663102895965811	)
		(	0.3880959608304429	0.10243773946259924	0.38309596953715	0.12637033016980798	)
		(	0.22039583721546108	0.29754440162510787	0.2820474423470801	0.20001231881235113	))
		((	0.5202884488349107	0.17272819037752507	0.22673839685355182	0.0802449639340126	)
		(	0.5100590442971303	0.053773403235695356	0.07921752537910604	0.3569500270880682	)
		(	0.22187098858892676	0.16622406288476219	0.08116254119103018	0.5307424073352809	)
		(	0.3458221709468368	0.0051632990220781974	0.28437918574676807	0.36463534428431693	)))
		(((	0.1127852378969982	0.40976246713791026	0.26960510217712036	0.20784719278797115	)
		(	0.12301057436665014	0.08821046991448729	0.259363221139333	0.5294157345795296	)
		(	0.5375906449449508	0.272223186870089	0.097117636068836	0.09306853211612426	)
		(	0.3081970562373726	0.30030637792892373	0.24960317812969685	0.1418933877040068	))
		((	0.02053099039760684	0.20239592917355392	0.33492288807115	0.44215019235768926	)
		(	0.34771940274159546	0.022511149419159517	0.5802421846266751	0.049527263212570165	)
		(	0.06287637476046921	0.33671506307668264	0.4051999521170993	0.1952086100457487	)
		(	0.44120513723807775	0.04711176672007933	0.0640031351316715	0.44767996091017137	))
		((	0.06199546202688499	0.39192701818478304	0.4374765501091746	0.10860096967915754	)
		(	0.3605295332109642	0.4129467877820109	0.1345040972890087	0.09201958171801618	)
		(	0.1420297168802505	0.3288622833341655	0.2759108213555491	0.25319717843003486	)
		(	0.08821433787189797	0.3508396182193311	0.21500253923423845	0.34594350467453244	)))
		(((	0.2585303294055121	0.08677573171227904	0.359345100024291	0.2953488388579179	)
		(	0.44250791130270223	0.044532537676045154	0.3547736624585154	0.15818588856273735	)
		(	0.21809935726412097	0.3142294742800591	0.15136453412675327	0.3163066343290666	)
		(	0.12263475954089141	0.44861918125246036	0.3874712528381763	0.04127480636847196	))
		((	0.17124744367989778	0.2385214012618627	0.2981935259738517	0.2920376290843878	)
		(	0.4004055075496565	0.012919674602871039	0.5334532582562559	0.053221559591216605	)
		(	0.37494251680127455	0.4365089907772364	0.09082404372935222	0.09772444869213685	)
		(	0.2897357989260328	0.21963673102277032	0.41511967096340024	0.07550779908779656	))
		((	0.13132522128048113	0.404022006522722	0.4287888037149652	0.035863968481831716	)
		(	0.10213823790716674	0.3626808425252868	0.21686360356834206	0.3183173159992045	)
		(	0.01355632943698106	0.2647544846337906	0.3240415816491109	0.39764760428011753	)
		(	0.3737254868898392	0.4450379892942028	0.15444702226809223	0.02678950154786576	)))
		(((	0.268681550134638	0.27655939252047784	0.4069463979123126	0.0478126594325715	)
		(	0.13880975402873946	0.3461487928633455	0.34554689829638696	0.1694945548115282	)
		(	0.326431392650982	0.1420246720347292	0.16779690228874505	0.3637470330255438	)
		(	0.48894223839775774	0.07241529785697887	0.04330247730668235	0.39533998643858115	))
		((	0.5070455668623077	0.037584615905804	0.13218705592852426	0.32318276130336404	)
		(	0.22016371326799455	0.2742798724017061	0.2655674678988335	0.23998894643146568	)
		(	0.3452533448267462	0.20595968576981408	0.14457082315534422	0.3042161462480954	)
		(	0.27926328884059265	0.5168459481541676	0.020521189486368965	0.18336957351887087	))
		((	0.009959451751222963	0.7970528310218756	0.14105784086239667	0.051929876364504704	)
		(	0.17627800563072094	0.10820239183976625	0.5282368501806658	0.187282752348847	)
		(	0.2275030824672163	0.2860605810997336	0.39382575835514033	0.09261057807790984	)
		(	0.21351385315461988	0.4554868042834503	0.1109442117134661	0.22005513084846365	))))
		((((	0.27203892578912237	0.3909330473127879	0.04405432338438432	0.2929737035137053	)
		(	0.29176452767275934	0.39560443749041974	0.03318019443069995	0.27945084040612084	)
		(	0.009835015577933082	0.5377376483252521	0.3104462456578806	0.14198109043893423	)
		(	0.21675640257559167	0.37502946583485347	0.19701270787934855	0.21120142371020637	))
		((	0.052585742358883296	0.04705214212556327	0.587477681936575	0.31288443357897844	)
		(	0.20238536341572297	0.37772056455227987	0.02505351001030521	0.39484056202169193	)
		(	0.014129120935100412	0.3463514581366109	0.2608600846398774	0.3786593362884113	)
		(	0.4108735533051125	0.5202477689236128	0.027621929573556848	0.041256748197717956	))
		((	0.006681411068053668	0.28596101002393925	0.20684806693923644	0.5005095119687707	)
		(	0.39351260807403887	0.10222561477084371	0.20115888950238836	0.30310288765272914	)
		(	0.286225675100762	0.05456732212384538	0.37691281141446387	0.28229419136092876	)
		(	0.1466754003075117	0.5888434206578983	0.17705509809821582	0.08742608093637419	)))
		(((	0.3669268786941567	0.1835399421435098	0.23724062086992762	0.21229255829240593	)
		(	0.23982526760941256	0.25077082744068907	0.3096928845505193	0.19971102039937902	)
		(	0.24660848456432322	0.13826091636633708	0.18888718613739927	0.42624341293194035	)
		(	0.23657505650006633	0.11592886185656048	0.24057344871659628	0.40692263292677694	))
		((	0.243352316710819	0.2916637607097532	0.36644017434696086	0.09854374823246706	)
		(	0.16268445376583995	0.26622122806445997	0.25209366800560534	0.31900065016409473	)
		(	0.23843328448664716	0.2529117721749853	0.3358236138920407	0.17283132944632693	)
		(	0.3107882600906181	0.307200881881351	0.22913041404096654	0.1528804439870644	))
		((	0.3073032360258747	0.39363879302161264	0.2886240082670526	0.010433962685460093	)
		(	0.1621198942291477	0.18663732541229308	0.6416303865425811	0.009612393815978329	)
		(	0.24343476567388117	0.5362602656405137	0.10544467297356526	0.11486029571203994	)
		(	0.37098349548060955	0.10739732519650026	0.32202256755584174	0.19959661176704838	)))
		(((	0.2358203293731398	0.28782178146572607	0.27025986736560426	0.20609802179553	)
		(	0.15308587404452723	0.0770101991573985	0.538895258315987	0.23100866848208748	)
		(	0.2969377270271949	0.2981996154308939	0.15338362702152564	0.25147903052038545	)
		(	0.06627334971255344	0.3968932132338971	0.24958669721287793	0.28724673984067156	))
		((	0.22963193477471885	0.2506507037513662	0.3860319898373258	0.13368537163658925	)
		(	0.2325831709622755	0.3058371918419167	0.2303134764287147	0.23126616076709314	)
		(	0.10547328742315978	0.3445154466837163	0.46714113956418785	0.08287012632893605	)
		(	0.28038189379555545	0.17166553068047055	0.356214593830102	0.19173798169387213	))
		((	0.18723243845905405	0.20786248921033415	0.45748736271503093	0.14741770961558098	)
		(	0.3028233780314314	0.4086559346446032	0.17643702005785605	0.11208366726610931	)
		(	0.25662508625882824	0.10498349758145821	0.20562929120719872	0.4327621249525149	)
		(	0.45815625152515715	0.1822748747639884	0.1776982199632941	0.18187065374756045	)))
		(((	0.24031311591685173	0.4965443296992127	0.12422844396239939	0.13891411042153612	)
		(	0.28340441892541013	0.44681195788948747	0.24606177012400562	0.023721853061096664	)
		(	0.09059382995423032	0.31394651783811706	0.2764945639443996	0.3189650882632531	)
		(	0.28802129121851605	0.251466059887715	0.19732126655594065	0.26319138233782824	))
		((	0.19829127662531087	0.384754520377515	0.15804049949104296	0.25891370350613113	)
		(	0.1502592602691719	0.0664163291728285	0.4035030151621546	0.37982139539584503	)
		(	0.015289269662229911	0.38188936623106395	0.14587414860275058	0.45694721550395556	)
		(	6.124574466412545E-4	0.28084769643500107	0.3506603154217744	0.3678795306965833	))
		((	0.3139519001648764	0.3334272431299273	0.23900209304147782	0.11361876366371845	)
		(	0.14843672923766305	0.26881634625061396	0.5611579437241103	0.02158898078761259	)
		(	0.09738647871423403	0.29281916629556354	0.2731293756386083	0.3366649793515942	)
		(	0.09910276160914751	0.1407477021477364	0.5264689586586447	0.23368057758447133	))))
		((((	0.15721226196176485	0.26253811212141065	0.2940735124043246	0.2861761135125	)
		(	0.12756298050808357	0.19451534731370945	0.37702277023704206	0.30089890194116486	)
		(	0.3284108189310408	0.3514410133404676	0.272633118691592	0.04751504903689968	)
		(	0.11670748145296916	0.3180893499706639	0.3912385013311557	0.1739646672452113	))
		((	0.3671507484189292	0.20914996089149454	0.10140441599605834	0.3222948746935178	)
		(	0.3337516410892011	0.4010966664266144	0.05051504042205354	0.214636652062131	)
		(	0.23244244660216076	0.4308910731269653	0.23843464792281285	0.09823183234806115	)
		(	0.16128918003264822	0.39141733064164475	0.15652116151744916	0.29077232780825785	))
		((	0.01143217615750725	0.43808062923868313	0.11183592714629842	0.4386512674575111	)
		(	0.2794256193320793	0.1421448970754664	0.28487282980092365	0.29355665379153056	)
		(	0.021477927432530446	0.28813892099110106	0.2768372750282219	0.41354587654814656	)
		(	0.38992166022818575	0.2381374917735574	0.030977321180217947	0.3409635268180389	)))
		(((	0.4134778492641167	0.2480181085373663	0.19432305768821748	0.14418098451029962	)
		(	0.16298643832304463	0.39301984728259287	0.1134800200786666	0.3305136943156959	)
		(	0.322906661894806	0.32381717863777953	0.317253501890332	0.03602265757708233	)
		(	0.40644872226376155	0.053887410866966336	0.09341040301164598	0.44625346385762615	))
		((	0.30812157261330403	0.16064970410411486	0.2430504545571752	0.2881782687254059	)
		(	0.2473618730056536	0.31775409631015067	0.2647993781989653	0.17008465248523055	)
		(	0.102923399132078	0.21113009221931334	0.32621946569858823	0.3597270429500204	)
		(	0.4681669389075696	0.11791630511791548	0.09303771020149433	0.3208790457730206	))
		((	0.33812428534287464	0.14117344434167897	0.32216590788722793	0.19853636242821843	)
		(	0.07714137249819843	0.05187078903662724	0.6229530691281143	0.24803476933705998	)
		(	0.022626530319558066	0.4582552096525945	0.2534635357716273	0.2656547242562203	)
		(	0.2199145014425121	0.054459858047336385	0.47032045668482686	0.2553051838253248	)))
		(((	0.2281421332114185	0.17553016642327673	0.25583223052098103	0.34049546984432366	)
		(	0.321163000642956	0.08350970781653824	0.3404786377753551	0.2548486537651508	)
		(	0.26418985258888594	0.24609124836957436	0.14513477218087098	0.34458412686066886	)
		(	0.12014741421789879	0.3244798680408087	0.4208088865668331	0.1345638311744595	))
		((	0.07840568553584304	0.49208759386365303	0.35856660978257826	0.07094011081792567	)
		(	0.4461065096421966	0.020893456908560277	0.11917301449368439	0.4138270189555587	)
		(	0.4392396955169795	0.24264557079324567	0.056508540670127505	0.2616061930196473	)
		(	0.26657181560978593	0.16799208088534082	0.2895110949202009	0.2759250085846724	))
		((	0.3587700706752313	0.15925561618786438	0.4566400324504636	0.025334280686440724	)
		(	0.08228923537894298	0.40460533594682857	0.4915589423011852	0.021546486373043388	)
		(	0.10066522093749866	0.2337062838484437	0.34976234331937595	0.31586615189468176	)
		(	0.41930413499910396	0.032388867227779186	0.5145244719155553	0.03378252585756175	)))
		(((	0.4247037431272277	0.40085870208372715	0.007079732678852653	0.1673578221101926	)
		(	0.13054695652121248	0.32423054386669087	0.3459796657900792	0.1992428338220175	)
		(	0.4566123024056957	0.38913144733077154	8.895337551516953E-4	0.15336671650838105	)
		(	0.11874569489676705	0.25477387084715797	0.2562312450714294	0.3702491891846455	))
		((	0.06468394470563366	0.3420530527523048	0.2968937846164391	0.29636921792562254	)
		(	0.3712682478613978	0.2399726205907533	0.07114167680033047	0.3176174547475184	)
		(	0.02012452548433411	0.06510221564592264	0.22776688807121054	0.6870063707985328	)
		(	0.3404125930203657	0.0050856195887095095	0.2551973385635499	0.3993044488273749	))
		((	0.1816109254466287	0.27356151507983817	0.4485698769231835	0.09625768255034968	)
		(	0.3026570721315868	0.44442495984598174	0.24778013951604544	0.005137828506385959	)
		(	0.0139723115694305	0.39352333114595894	0.3273733172284256	0.265131040056185	)
		(	0.20593145299493126	0.34627371883691505	0.4386190798383055	0.009175748329848217	))))
		((((	0.05217430557154439	0.38443539007342603	0.19317604124266755	0.37021426311236205	)
		(	0.07616650716342771	0.08826617896353783	0.5053063576744915	0.330260956198543	)
		(	0.20222918487332184	0.31722951755575535	0.2843734297976018	0.19616786777332101	)
		(	0.4859409524333604	0.373971071773805	0.038323881322619366	0.10176409447021523	))
		((	0.22517696773114304	0.43184216853143037	0.11897345760455388	0.2240074061328727	)
		(	0.17029212070297367	0.2813197685093561	0.5051556867267196	0.04323242406095061	)
		(	0.1689925039275994	0.32138656019215334	0.41199443940658037	0.09762649647366693	)
		(	0.3604392612762342	0.08254385468871564	0.17915653041831173	0.3778603536167385	))
		((	0.10373049440894481	0.3130784352072501	0.5151915840927109	0.06799948629109417	)
		(	0.35563061752233344	0.21513326323980705	0.3748535686585617	0.054382550579297834	)
		(	0.3403472531317922	0.22512981383358155	0.3165082193603039	0.11801471367432241	)
		(	0.09889401867074511	0.2643145731472638	0.23553233492806075	0.40125907325393023	)))
		(((	0.02690971741326917	0.634308721141934	0.297991026885442	0.0407905345593547	)
		(	0.3014526250122784	0.5352751220530831	0.12747430838319157	0.03579794455144684	)
		(	0.38104059131159035	0.2753212940971869	0.22813233020266274	0.11550578438856014	)
		(	0.20094524223198756	0.32033269584536644	0.2092148115570176	0.2695072503656285	))
		((	0.08025654746680572	0.5331117773479808	0.07545540052286219	0.3111762746623513	)
		(	0.3405546924312906	0.3489118999541697	0.15371056436456243	0.1568228432499773	)
		(	0.39689414999647055	0.041300352934914665	0.43422092758845676	0.12758456948015817	)
		(	0.2941357783046614	0.3543029259360718	0.08693453249477041	0.2646267632644964	))
		((	0.01435054149934986	0.22075615283579178	0.41041108461141723	0.35448222105344107	)
		(	0.10484918577755292	0.38492332660190887	0.22042999902410498	0.28979748859643323	)
		(	0.2767592837312797	0.25086698221957665	0.12951503080287016	0.34285870324627343	)
		(	0.20993563336296303	0.10214931826711911	0.3638852488651624	0.32402979950475547	)))
		(((	0.1168919606702001	0.37414514560232176	0.10177703230092186	0.4071858614265562	)
		(	0.3182223306265086	0.1815895846369582	0.37467299517503083	0.12551508956150242	)
		(	0.30219804532500805	0.2643321736077757	0.2894968705071787	0.14397291056003747	)
		(	0.17021519047350975	0.3672735784719357	0.2574026439008947	0.2051085871536599	))
		((	0.038031733680258965	0.47112392445831625	0.34919621298664605	0.14164812887477876	)
		(	0.22789967643037343	0.2103251818917035	0.42338398394185744	0.13839115773606558	)
		(	0.07152154934902963	0.3811629360922073	0.475631322806458	0.07168419175230512	)
		(	0.004549822097034662	0.3895508053703954	0.41895411185222264	0.18694526068034722	))
		((	0.5458767589314468	0.1629403267791392	0.22266461755758105	0.06851829673183295	)
		(	0.33467583314770294	0.298724292397889	0.2567028759563261	0.10989699849808202	)
		(	0.2933759116983278	0.45257864515441515	0.13696112111850017	0.11708432202875683	)
		(	0.23733136169237007	0.23427669715552193	0.413755541219219	0.114636399932889	)))
		(((	0.057833387115837784	0.32024605673829526	0.4302516944418757	0.19166886170399125	)
		(	0.120295659550816	0.31246792807992657	0.24539692956254208	0.32183948280671526	)
		(	0.40388066472368583	0.23505030365730134	0.34063605002996716	0.020432981589045638	)
		(	0.1787781072528017	0.21479239256809204	0.20439628893550826	0.402033211243598	))
		((	0.2092526739716734	0.349890213433104	0.20716664675636987	0.2336904658388527	)
		(	0.2495441708263377	0.4039840840454606	0.28026823653080984	0.06620350859739184	)
		(	0.522294501985984	0.17482093347069358	0.1884351420808921	0.11444942246243026	)
		(	0.2600995636177724	0.3462768444945942	0.06361041401642392	0.3300131778712095	))
		((	0.34531258324950376	0.3675608855246024	0.08113438500010671	0.20599214622578718	)
		(	0.16573141400766705	0.44527042795623306	0.11290528927341596	0.27609286876268396	)
		(	0.11181258552837295	0.32438886919679	0.04587420176349261	0.5179243435113444	)
		(	0.6043461316948675	0.06116570792865137	0.17371933603545642	0.1607688243410246	)))));
}
potential ( CNON_12_30 | CNOD_12_15 CBODN_12_15 CKNN_12_15 CNON_12_15 )
{
	data = (((((	0.3273718245823929	0.23848158158935873	0.10868501574043854	0.3254615780878099	)
		(	0.11610465595330358	0.14902651077034954	0.39808315270864647	0.3367856805677004	)
		(	0.378393896183059	0.3829916396574482	0.16427597331032046	0.07433849084917243	)
		(	0.2633559866913074	0.2382336168931753	0.4150455570486353	0.08336483936688198	))
		((	0.049096261303631164	0.15266143178062133	0.39192414447003915	0.4063181624457083	)
		(	0.26192919504129386	0.3509296788232604	0.09513089473780299	0.2920102313976427	)
		(	0.485820681838455	0.06598126768819151	0.22554212324545864	0.22265592722789498	)
		(	0.3063913110185496	0.2623954445228065	0.3913190295447581	0.03989421491388574	))
		((	0.32847848745404457	0.39543175505317346	0.042840024126298615	0.23324973336648328	)
		(	0.22166126521902704	0.26935131943007784	0.1568639417222636	0.3521234736286316	)
		(	0.01652423671877134	0.39021400526920685	0.16621461798608633	0.42704714002593536	)
		(	0.22031051315575276	0.18870955814930915	0.17695663033355785	0.41402329836138035	)))
		(((	0.05139741219756563	0.4681162493107463	0.42789728422246376	0.052589054269224396	)
		(	0.19504334373275695	0.29372902149286106	0.16038936332375386	0.3508382714506281	)
		(	0.3062440645007799	0.32937384530094893	0.2972012283101837	0.06718086188808753	)
		(	0.455337087888534	0.006871146837600381	0.27179494170807283	0.26599682356579263	))
		((	0.6124698541697404	0.18828429571869693	0.0059607168391571175	0.19328513327240557	)
		(	0.34114431972951903	0.003453533794102793	0.29789073508109354	0.3575114113952847	)
		(	0.015630772445282288	0.591150567917456	0.14234278119451538	0.2508758784427463	)
		(	0.21315369464060993	0.2724830300149885	0.24319203604889228	0.27117123929550935	))
		((	0.510307716978589	0.3479770695643458	0.04980870114347562	0.09190651231358966	)
		(	0.17103086828734707	0.42669234102170045	0.32242279312001687	0.07985399757093556	)
		(	0.17064197472936746	0.33627303258027774	0.021987101190286837	0.47109789150006803	)
		(	0.16268981864166754	0.3732745979178498	0.20701965419210838	0.2570159292483743	)))
		(((	0.15719683713531313	0.28717741705941185	0.08289859339348747	0.47272715241178753	)
		(	0.24747202531010853	0.23240663627403477	0.31752723098195207	0.20259410743390469	)
		(	0.2755474513551502	0.25929832138675724	0.10403303995695197	0.3611211873011406	)
		(	0.09844848018065153	0.14913339219831848	0.12583875545331813	0.6265793721677119	))
		((	0.4311163330205941	0.3447030283449518	0.13299049575596053	0.0911901428784935	)
		(	0.3215563610934618	0.3467973971843107	0.03164005752049768	0.30000618420173	)
		(	0.19128158234484602	0.2515002394177709	0.27973944242736587	0.2774787358100173	)
		(	0.3646274114936593	0.2991523120582843	0.11624312677463557	0.21997714967342086	))
		((	0.38181571820431115	0.1345268024709734	0.4030693786271353	0.08058810069758	)
		(	0.2950682308786748	0.10885380973192268	0.15642533864123218	0.43965262074817035	)
		(	0.05034335669825019	0.3347273192364121	0.11962918742099188	0.4953001366443458	)
		(	0.09193245652345523	0.5415731476523226	0.051159598631432185	0.3153347971927901	)))
		(((	0.20401459481715548	0.2875007139845372	0.22939783782388123	0.27908685337442607	)
		(	0.092408478480528	0.3499020200326287	0.13855045192242507	0.4191390495644183	)
		(	0.2996460155956898	0.15423407511152423	0.3264467875865409	0.21967312170624514	)
		(	0.20151984685137056	0.4081503828493587	0.31932771953344	0.07100205076583069	))
		((	0.14143338780421497	0.28406832344653604	0.37201961896636604	0.20247866978288298	)
		(	0.10123993295975353	0.2757555769082212	0.5850421758444414	0.037962314287583884	)
		(	0.1630345914297653	0.2515241117825817	0.2921418963805981	0.2932994004070548	)
		(	0.31959613110410534	0.3524834501406109	0.05587595983113364	0.2720444589241501	))
		((	0.29934415903463374	0.26193569836812436	0.19005124235600312	0.24866890024123886	)
		(	0.48900616942217046	0.15144033839083415	0.17727270139568557	0.1822807907913098	)
		(	0.45705889336356753	0.16208296566504263	0.004096691858236731	0.376761449113153	)
		(	0.440837867898669	0.26206325394504104	0.1962035902586523	0.10089528789763753	))))
		((((	0.24438346579670037	0.28524926766093095	0.2697699649885281	0.20059730155384056	)
		(	0.30811733826284166	0.4247501250609987	0.0010089493742524752	0.26612358730190727	)
		(	0.329088446087825	0.12088049538151757	0.3093947547809075	0.24063630374974992	)
		(	0.30912798271693503	0.27002894217886475	0.2511715379691016	0.1696715371350985	))
		((	0.1591582441683536	0.14528262974089223	0.47003517331157146	0.22552395277918272	)
		(	0.16734285283615333	0.19003577221927268	0.031156947385770864	0.6114644275588031	)
		(	0.34469396168387667	0.37312610266636353	0.21110800565255203	0.0710719299972078	)
		(	0.2481578558178691	0.47341425289499894	0.2429164539590182	0.03551143732811375	))
		((	0.5826216040051555	0.018945847062431645	0.04564156497937484	0.35279098395303804	)
		(	0.5376254044573471	0.2777139536961199	0.025103554248507843	0.1595570875980252	)
		(	0.24705127256189913	0.4146852747635227	0.2208268474609168	0.11743660521366138	)
		(	0.10423557468720138	0.45568308474407937	0.10339332741773366	0.3366880131509856	)))
		(((	0.030900539410199556	0.1961156100981296	0.4041137291589516	0.36887012133271924	)
		(	0.3352312154760675	0.4101206999684944	0.20564923908111807	0.04899884547432008	)
		(	0.2232943803994671	0.13300955939605633	0.26001794205044654	0.38367811815403	)
		(	0.28697329254961157	0.040075163293396054	0.3837877594313847	0.2891637847256076	))
		((	0.3722011553018255	0.10188838255204574	0.15318478206241265	0.372725680083716	)
		(	0.1854040057014756	0.3084746428073059	0.2871617486836078	0.21895960280761073	)
		(	0.3431233836041984	0.28371108338750234	0.08030901405399408	0.2928565189543052	)
		(	0.036487168646877864	0.3361121466702809	0.2739342212040589	0.35346646347878224	))
		((	0.24306716994970748	0.08507533077714377	0.47890409988464255	0.19295339938850606	)
		(	0.31603953244568994	0.0790536531966691	0.16835198636867205	0.4365548279889689	)
		(	0.4370200474403503	0.10700506413463465	0.2999026586410149	0.15607222978400018	)
		(	0.22260402316499672	0.41384873576311015	0.18168020084370615	0.1818670402281871	)))
		(((	0.2142403497746739	0.11474627118708967	0.32420581914152524	0.34680755989671125	)
		(	0.13455109220577852	0.21006704628556683	0.5020763490845022	0.15330551242415258	)
		(	0.10153236672654206	0.10553623002768532	0.47388966821569695	0.31904173503007577	)
		(	0.033791169849326744	0.4193313266289953	0.425969430374618	0.12090807314705997	))
		((	0.11208700819323505	0.2631351123191103	0.4827153060789948	0.14206257340865988	)
		(	0.7972361912724556	0.09008241648735021	0.025538732523733867	0.08714265971646035	)
		(	0.31060423999967174	0.4637361827948575	0.00865171302762984	0.217007864177841	)
		(	0.5110038388486137	0.0952827726635479	0.30275618121278264	0.09095720727505564	))
		((	0.6145554101023657	0.2563230660070017	0.018355111099904713	0.11076641279072783	)
		(	0.019828093903850093	0.458282744784524	0.1555649381166063	0.3663242231950195	)
		(	0.02185406906892596	0.47604827220490004	0.017291421804175224	0.4848062369219988	)
		(	0.13656012856268834	0.7063189791239005	0.02609444527120646	0.1310264470422046	)))
		(((	0.1646871368263037	0.36079900811084714	0.24133490781724157	0.2331789472456076	)
		(	0.260518327481718	0.25016838561628685	0.38921899785328834	0.10009428904870694	)
		(	0.15963182776498538	0.3525112949186878	0.18650218330156537	0.3013546940147614	)
		(	0.3898478405283898	0.23746904726056617	0.09572127573901293	0.2769618364720311	))
		((	0.018824720057725154	0.13313947179750446	0.2645344678899549	0.5835013402548155	)
		(	0.10722339942470083	0.17258887244258725	0.2992355637618277	0.4209521643708842	)
		(	0.09123721142756328	0.15293561513466875	0.6693750294009857	0.0864521440367824	)
		(	0.2159880765181707	0.15264552892784874	0.27420865044928194	0.3571577441046986	))
		((	0.2874861860641037	0.1769185806187468	0.4726861407255717	0.06290909259157786	)
		(	0.1432579073247302	0.22658931131880305	0.37810036392023283	0.25205241743623397	)
		(	0.17535676897155508	0.47644008712084934	0.1800653550372954	0.16813778887030026	)
		(	0.26670072684787266	0.16785064897005075	0.18984339445859297	0.3756052297234837	))))
		((((	0.42706747865360417	0.14544622145327354	0.19816593683201372	0.22932036306110862	)
		(	0.4651419060069708	0.16105794492956596	0.22777954664962272	0.14602060241384046	)
		(	0.34002111284080466	0.2746472165008568	0.07613721209433373	0.3091944585640049	)
		(	0.10497934970437402	0.16717355188354924	0.3701148745832284	0.3577322238288484	))
		((	0.21573364098782247	0.10317089811368665	0.5395664442833427	0.14152901661514833	)
		(	0.41068184518811074	0.501321539722881	0.05726791739662265	0.030728697692385704	)
		(	0.24212580959621574	0.26348120627736604	0.0749365258233228	0.4194564583030954	)
		(	0.5497855748140893	0.10199362174459196	0.29144122548869333	0.056779577952625414	))
		((	0.12947418136824418	0.05221842633022465	0.14552867807122308	0.6727787142303081	)
		(	0.1437176692695267	0.5606871973422834	0.2610815189192934	0.034513614468896385	)
		(	0.3625763230877224	0.27891797719008043	0.1011020641214234	0.2574036356007738	)
		(	0.15647498917591632	0.4851515142080302	0.28205841969742046	0.07631507691863292	)))
		(((	0.2769524413975094	0.06527707854854084	0.2625086205594722	0.3952618594944776	)
		(	0.5832046515652741	0.1618947401581122	0.022728186515854336	0.23217242176075933	)
		(	0.28390086287091504	0.1619347146490909	0.30096921603336724	0.2531952064466268	)
		(	0.20684284904340675	0.18793424950036386	0.24124675036203136	0.36397615109419795	))
		((	0.4804973599226041	0.28006453475864246	0.048030360523433485	0.19140774479532008	)
		(	0.055661358515133014	0.4276312729404292	0.24788177371329417	0.26882559483114354	)
		(	0.14463013874478153	0.2985942152805564	0.5099705988357611	0.04680504713890083	)
		(	0.16806500656036674	0.3520670104116538	0.10770092941426007	0.37216705361371943	))
		((	0.16965932726382496	0.1424825922614852	0.17944203965744285	0.5084160408172471	)
		(	0.050373116387604645	0.42305093461592025	0.2999519413651986	0.22662400763127655	)
		(	0.285047786527531	0.4298428120816889	0.055309708662674546	0.2297996927281055	)
		(	0.20400787407181917	0.2647507012805845	0.22591681900449403	0.3053246056431022	)))
		(((	0.2652230985596854	0.24480335202520329	0.23095059740098198	0.2590229520141294	)
		(	0.2947058230135136	0.03470007644176499	0.3694181871662753	0.3011759133784462	)
		(	0.004894923933432421	0.4034493713630197	0.41879743369208505	0.17285827101146292	)
		(	0.19818673630566333	0.17606334365242599	0.2682274749599069	0.35752244508200365	))
		((	0.38848910723546926	0.3080837559647569	0.11149700108756048	0.19193013571221323	)
		(	0.13865945454963052	0.29903957618284316	0.17775166323899033	0.384549306028536	)
		(	0.42875728295714655	0.05167691353226788	0.45350327955533903	0.06606252395524655	)
		(	0.37832408395157113	0.37423919713469395	0.09961601577383086	0.14782070313990398	))
		((	0.14860905680462325	0.25521914902499887	0.28135297270679815	0.3148188214635797	)
		(	0.07464103041860959	0.31943559935681104	0.46292647282669885	0.14299689739788052	)
		(	0.1981625935574944	0.43697670527084553	0.21160619703197167	0.1532545041396882	)
		(	0.049249835065764726	0.48384654891962847	0.2014960972900628	0.26540751872454404	)))
		(((	0.004700200955853626	0.27072694174217793	0.28342701411899257	0.44114584318297584	)
		(	0.1698134194895547	0.05762462239152131	0.24798791790647567	0.5245740402124484	)
		(	0.16908560718936327	0.3922441554599535	0.26353378575892855	0.17513645159175467	)
		(	0.6207966509486111	0.3668481754687882	0.002416449967826803	0.00993872361477387	))
		((	0.05263892142852399	0.3467355662078956	0.2794617705552374	0.32116374180834295	)
		(	0.3663711170939275	0.004197757689418407	0.19289427550933805	0.4365368497073161	)
		(	0.1166495951268299	0.402550220586853	0.10069395095733692	0.38010623332898	)
		(	0.03621919209071341	0.07952706021646094	0.4158922775925377	0.46836147010028795	))
		((	0.17391473585341982	0.3130410206692239	0.2985923673467379	0.21445187613061847	)
		(	0.06563634846075597	0.3998677107626537	0.3655344704875249	0.1689614702890654	)
		(	0.2872215447375986	0.0900099790179283	0.37745996792049	0.24530850832398293	)
		(	0.025324196631814407	0.3076529026762338	0.1337437996742025	0.5332791010177492	))))
		((((	0.5035293117016021	0.07060308713471676	0.23525407188458133	0.19061352927909977	)
		(	0.28104664700611914	0.19056860873078396	0.26776456210910277	0.2606201821539941	)
		(	0.15920586666984649	0.37871300750639775	0.40606525527872506	0.056015870545030766	)
		(	0.009964518172074043	0.5288191188898653	0.19079028173186197	0.2704260812061986	))
		((	0.2412760783371672	0.386543149936629	0.2788853944293372	0.09329537729686653	)
		(	0.3379020929472611	0.33795532687232793	0.15060977123481242	0.17353280894559855	)
		(	0.08904795889296141	0.0765018747509684	0.7099386380018222	0.12451152835424799	)
		(	0.23459143553267509	0.27815478882801553	0.13814363439531424	0.3491101412439951	))
		((	0.3000222095438696	0.09681824494700922	0.3282890222701848	0.27487052323893635	)
		(	0.09393199047641894	0.40565263867384993	0.44615310805062286	0.05426226279910812	)
		(	0.5666439857875084	0.17534700520007265	0.07280663058339655	0.18520237842902246	)
		(	0.43641711266941	0.08999484552536631	0.45473744652344406	0.018850595281779542	)))
		(((	0.07283382638033213	0.3143693258775467	0.368461269184089	0.244335578558032	)
		(	0.2286750443695818	0.36087734107168923	0.21019150869293216	0.20025610586579673	)
		(	0.2924161583785381	0.3356081492693816	0.3004923403019418	0.07148335205013842	)
		(	0.31642301693909003	0.42099870990343424	0.003396822945422843	0.25918145021205286	))
		((	0.33984872948036615	0.19223267678152287	0.20812255829433343	0.2597960354437775	)
		(	0.007083342637712847	0.1070316033501248	0.4559789414163366	0.4299061125958256	)
		(	0.17680924864600586	0.30321075373546147	0.2807993791012907	0.23918061851724198	)
		(	0.4912073074649291	0.32025021216699867	0.17889084551516746	0.00965163485290478	))
		((	0.04010406944012054	0.44950315061974044	0.4586981541782451	0.05169462576189384	)
		(	0.30760950110149393	0.256271164916933	0.14051715996510133	0.29560217401647176	)
		(	0.21539122680611936	0.14735251889219042	0.3434790263433283	0.29377722795836203	)
		(	0.1628312688811019	0.217817525133865	0.40583525698408046	0.2135159490009526	)))
		(((	0.11625812138770655	0.3979091954894585	0.35808868787055487	0.12774399525228006	)
		(	0.15025448329245888	0.11005966867932047	0.10173118440844235	0.6379546636197784	)
		(	0.18557207268866122	0.2795408374084028	0.40311580763629024	0.13177128226664558	)
		(	0.06411295623009665	0.21334759537227643	0.10158237990896614	0.6209570684886607	))
		((	0.1074856642723069	0.5186927916927241	0.03932848397113955	0.3344930600638295	)
		(	0.24207335078664283	0.19739651550837833	0.26045427205528665	0.30007586164969213	)
		(	0.4046243676755976	0.48078736988526954	0.009250072050972656	0.10533819038816024	)
		(	0.07343185815747147	0.2610339859766419	0.29541883492998355	0.37011532093590294	))
		((	0.26022738900430975	0.18307149795710193	0.21114821317441326	0.34555289986417503	)
		(	0.15992618624669452	0.30545882777460726	0.3762879432954782	0.15832704268321993	)
		(	0.5047771863296302	0.11730758320458766	0.19902474713618892	0.17889048332959312	)
		(	0.14704002192322904	0.16091941132887452	0.3092466596445562	0.38279390710334016	)))
		(((	0.03355998341424851	0.009558936802999915	0.2745545885088397	0.6823264912739119	)
		(	0.025567085369389137	0.2785463059116291	0.3185269632228468	0.377359645496135	)
		(	0.20598031730759325	0.17960754293430756	0.18878417250385135	0.4256279672542479	)
		(	0.09537931584590374	0.5493154045175205	0.33812890967135617	0.017176369965219578	))
		((	0.4253587420646015	0.40879242426240275	0.045107805361869396	0.12074102831112636	)
		(	0.17114077130925043	0.3213025481797081	0.2465917158984285	0.2609649646126131	)
		(	0.13371385805981365	0.22523658098202157	0.23602728350288094	0.4050222774552838	)
		(	0.4105744673101486	0.1633242776556015	0.07265475732584385	0.3534464977084061	))
		((	0.1056160943000737	0.32591040726631	0.39131598712127186	0.17715751131234447	)
		(	0.3400197719939812	0.015359486465911195	0.3812078042364319	0.2634129373036756	)
		(	0.520906477774033	0.044167351785361256	0.35072638051708277	0.08419978992352303	)
		(	0.3627908901141819	0.2843347311263165	0.1344755292099344	0.21839884954956706	)))));
}
potential ( CNON_12_45 | CNOD_12_30 CBODN_12_30 CKNN_12_30 CNON_12_30 )
{
	data = (((((	0.6691604725662655	0.13631900906984312	0.13493049151236683	0.059590026851524515	)
		(	0.47221107321512085	0.016403384318449416	0.1638253115255476	0.347560230940882	)
		(	0.12813764782978077	0.3604722624163482	0.3486708066880217	0.1627192830658492	)
		(	0.4471101102356341	0.2942389679640616	0.024289542610694353	0.23436137918960986	))
		((	0.061788032663715735	0.4075087922527327	0.2519447485688822	0.27875842651466937	)
		(	0.5068125424686915	0.2500228974795988	0.11873510221717555	0.12442945783453417	)
		(	0.3503360850924883	0.05794948668507131	0.3808142221602964	0.210900206062144	)
		(	0.051805998412896195	0.14409577482821687	0.7801943368503983	0.023903889908488563	))
		((	0.02486917335404038	0.31126959597330256	0.340275550433775	0.3235856802388821	)
		(	0.37965897744298965	0.2508652713808539	0.1863647437846696	0.18311100739148686	)
		(	0.2792641840681995	0.42773752968237466	0.22395827443465932	0.0690400118147665	)
		(	0.4123687872916382	0.22419041700237302	0.27310427972000223	0.0903365159859864	)))
		(((	0.4013270661964318	0.2570729169309634	0.16421563235708783	0.17738438451551689	)
		(	0.0400218113316207	0.07200657047901954	0.46213082441115766	0.42584079377820194	)
		(	0.32659465032394475	0.23748320497456293	0.3837149243337942	0.05220722036769812	)
		(	0.07920878376949661	0.5459777835200842	0.21285687348928292	0.16195655922113633	))
		((	0.1671186949966634	0.21238607084635017	0.36916113125613037	0.25133410290085606	)
		(	0.26817665104331717	0.2927932873186381	0.1609468816324645	0.2780831800055803	)
		(	0.07237215844794544	0.25599579344545514	0.4216090320648687	0.2500230160417307	)
		(	0.453814062765374	0.22175039765992713	0.21948655628676397	0.1049489832879349	))
		((	0.34641835909958046	0.05885525518754933	0.42436028253620955	0.17036610317666068	)
		(	0.10261780733247765	0.5185515725676516	0.21722624515618405	0.16160437494368685	)
		(	0.15308213188339828	0.15327932387606796	0.42756114866676337	0.26607739557377025	)
		(	0.1207753037296494	0.5414708566647674	0.30518949948708257	0.03256434011850086	)))
		(((	0.01299790778196353	0.45621749365640324	0.3886680487245293	0.14211654983710387	)
		(	0.05118734774062584	0.2176002592592544	0.5033592943003825	0.22785309869973722	)
		(	0.4040915226094475	0.0740063838672629	0.015987342512491922	0.5059147510107976	)
		(	0.3160013305957412	0.018326875097482417	0.30768983070585243	0.357981963600924	))
		((	0.036277146306202365	0.0071361907297558275	0.5710475324089103	0.38553913055513156	)
		(	0.4688590595822657	0.05468497065776626	0.32514971447706076	0.15130625528290728	)
		(	0.2930748084106571	0.2574868858292199	0.08136316209036515	0.3680751436697579	)
		(	0.4671476763687978	0.31845576965046435	0.1273874552034597	0.08700909877727801	))
		((	0.13811001529540642	0.4722026050326143	0.04200625242062799	0.34768112725135136	)
		(	0.25575746202111616	0.09467638264835969	0.3664324466079521	0.2831337087225721	)
		(	0.18542338767568878	0.6102667480502654	0.050167844882325605	0.1541420193917204	)
		(	0.2902192109746998	0.3928689226364894	0.1912833910390269	0.12562847534978383	)))
		(((	0.3380311057159106	0.1493054550702031	0.355855710718702	0.15680772849518432	)
		(	0.22909908274489976	0.12120953890124936	0.29337784549671586	0.35631353285713513	)
		(	0.1882641766456917	0.27888447912759695	0.0892767935821631	0.44357455064454815	)
		(	0.16276727737376706	0.34056783637207666	0.13364825375023828	0.3630166325039179	))
		((	0.33806999153733974	0.24850007485729658	0.3372094815654643	0.07622045203989934	)
		(	0.3510548202373143	0.2148341147995868	0.3872857469408704	0.0468253180222283	)
		(	0.3827344182582665	0.36953359464804475	0.22768013276699398	0.020051854326694703	)
		(	0.35615842611192144	0.2631585307552803	0.31846134717804464	0.06222169595475368	))
		((	0.1910473882630078	0.06700562935196594	0.5960930123787277	0.14585397000629874	)
		(	0.22159189910544208	0.036539521625829595	0.2800947238937508	0.46177385537497756	)
		(	0.20220224992652652	0.1696520839486995	0.17430910627044913	0.45383655985432486	)
		(	0.26277477270177835	0.7248644703100129	0.008294026100091605	0.004066730888117165	))))
		((((	0.11860397994672714	0.30297930411048063	0.44103202788621665	0.13738468805657567	)
		(	0.11678407042406681	0.25197398781575553	0.32457340136413443	0.3066685403960432	)
		(	0.2850759471591034	0.03098035620742466	0.49961165454024087	0.184332042093231	)
		(	0.23341734036177952	0.09287382457446892	0.33821043917374816	0.33549839589000335	))
		((	0.4652946984801611	0.05451693454352057	0.10741096801518503	0.3727773989611334	)
		(	0.3798618409211404	0.036056947231483956	0.21509601669196077	0.36898519515541495	)
		(	0.0388875642277111	0.3183315306881279	0.401391261697564	0.24138964338659696	)
		(	0.2344138922860504	0.2538728205659882	0.09485057363888508	0.4168627135090762	))
		((	0.3422729628971041	0.28408110907498396	0.27091047014899994	0.10273545787891204	)
		(	0.33049108548864353	0.24652928764877027	0.17900273441457806	0.2439768924480082	)
		(	0.18075997019679635	0.2561627524638719	0.16377678642730276	0.39930049091202907	)
		(	0.18103049871679602	0.1894549079432119	0.37500010239738313	0.2545144909426089	)))
		(((	0.3592782000970494	0.2757249429437648	0.06860693011987319	0.2963899268393124	)
		(	0.27817472515782316	0.1938186701487828	0.12494111973311976	0.4030654849602743	)
		(	0.06776552734596965	0.36972824783790875	0.21158571562943726	0.35092050918668427	)
		(	0.0048948398126799466	0.24352031412521186	0.4904490496636042	0.26113579639850404	))
		((	0.02534369546825049	0.3348429906289485	0.28228378354378864	0.35752953035901236	)
		(	0.015498756580840534	0.38568117186455486	0.46213489892277876	0.13668517263182592	)
		(	0.2585117198299399	0.16948461802043227	0.24871090000116208	0.3232927621484657	)
		(	0.3517856464680966	0.28613761066561605	0.11578494829049234	0.2462917945757951	))
		((	0.16862903612322735	0.2215659204384849	0.31884245577114323	0.2909625876671444	)
		(	0.3668438461698728	0.228024021705586	0.07955392872099462	0.32557820340354654	)
		(	0.10844722016762864	0.44981500438984984	0.39898262105961346	0.04275515438290797	)
		(	0.33936484271020617	0.07380733418630413	0.28009498972084756	0.3067328333826421	)))
		(((	0.14807612220138291	0.703613015601058	0.14681814232258086	0.0014927198749781158	)
		(	0.3538515721093235	0.11346941604202791	0.29919069860940944	0.23348831323923908	)
		(	0.22969897699181305	0.3499887389314668	0.3398117714682725	0.08050051260844769	)
		(	0.267488203920895	0.3764126271189577	0.19945373967724056	0.15664542928290673	))
		((	0.08854046281554676	0.3673267666057511	0.08570926848422955	0.4584235020944725	)
		(	0.34081526479141855	0.27699999177123125	0.07897732919861887	0.3032074142387313	)
		(	0.3066865932122999	0.34530880641235556	0.045338858618991264	0.30266574175635336	)
		(	0.10413975316357012	0.2646629971857679	0.21480546257000493	0.41639178708065694	))
		((	0.030562985394482704	0.4181742849063956	0.24807965981586078	0.30318306988326105	)
		(	0.5240979504778592	0.2682776211299423	0.19536438278581805	0.012260045606380558	)
		(	0.37415161587491763	0.08670268853960891	0.19311467193681722	0.3460310236486562	)
		(	0.25053601888171345	0.27765350720734455	0.29345982063417964	0.17835065327676233	)))
		(((	0.18475813050573386	0.2935940603046819	0.49769611477677095	0.02395169441281329	)
		(	0.5005256812653847	0.41378111388856476	0.05532803638079391	0.030365168465256717	)
		(	0.046610553306037555	0.5082355987487459	0.33946428419862895	0.10568956374658743	)
		(	0.07768324603689174	0.01852497506911633	0.6173069868268504	0.2864847920671416	))
		((	0.25132590787638354	0.2698118286382263	0.25996233888861947	0.21889992459677066	)
		(	0.03560564911815026	0.37569572606415197	0.2232221962978269	0.3654764285198709	)
		(	0.3689712486469418	0.11453729109400795	0.2647022207616804	0.2517892394973699	)
		(	0.24330145462208777	0.07527529392417438	0.25805408264184837	0.4233691688118896	))
		((	0.11008891118162979	0.46012606928314237	0.25719193093994647	0.17259308859528136	)
		(	0.3931644779684701	0.12668050749607454	0.23264695764539106	0.24750805689006428	)
		(	0.015097086404571095	0.3138890975424646	0.3228779524306674	0.3481358636222969	)
		(	0.12658153196447522	0.06786340153320754	0.19347776448423784	0.6120773020180794	))))
		((((	0.3692625639881806	0.216375918104487	0.33153016709252997	0.08283135081480231	)
		(	0.28247391699696134	0.31400807252759994	0.2299270257516155	0.17359098472382314	)
		(	0.04559296335632796	0.3180975708764155	0.37767623167828823	0.2586332340889683	)
		(	0.023217459618679694	0.350563776095414	0.4633787821264143	0.16283998215949191	))
		((	0.3103860559716207	0.1816843905307327	0.18418057962693177	0.3237489738707147	)
		(	0.33140017278424344	0.31235433800788603	0.20676394068139653	0.14948154852647397	)
		(	0.28943870916599646	0.16222981612791018	0.4083731600612364	0.13995831464485686	)
		(	0.19536084553455385	0.1359076338192246	0.5781180221712469	0.09061349847497471	))
		((	0.31053525597140963	0.005848679296513997	0.3453947896069046	0.3382212751251718	)
		(	0.4448642988956283	0.27071726176145194	0.13971516228135217	0.14470327706156771	)
		(	0.06915043271685978	0.4378496889835593	0.25791240432734225	0.2350874739722387	)
		(	0.3747147398842339	0.16905737367526116	0.2570571029747895	0.1991707834657154	)))
		(((	0.10736162262577582	0.6091660507203134	0.05776283488893927	0.22570949176497146	)
		(	0.04287208380260252	0.23836030386911403	0.3969559399492688	0.32181167237901465	)
		(	0.34321357118516754	0.34805311797722877	0.0549205352776022	0.25381277556000154	)
		(	0.02275846025299246	0.04318374854257965	0.3557700876605146	0.5782877035439133	))
		((	0.24340679650830177	0.44271278932118396	0.014721917373699428	0.2991584967968148	)
		(	0.02993840797273995	0.37838464666941546	0.4232548435573044	0.16842210180054012	)
		(	0.3849809436492854	0.1356764703205167	0.25117172241907815	0.22817086361111968	)
		(	0.3804714822511522	0.3283187805973191	0.2217307218411176	0.06947901531041105	))
		((	0.07019719217687263	0.2814463013676948	0.462065429180909	0.18629107727452365	)
		(	0.09191876341038684	0.10807494529290691	0.11261212174664334	0.6873941695500629	)
		(	0.33428605080277024	0.33586737247741355	0.03895110873234559	0.29089546798747057	)
		(	0.3530858852034062	0.02900887650474856	0.43384938461801986	0.1840558536738254	)))
		(((	0.5757352421159503	0.04354555085483138	0.15095865602130348	0.22976055100791473	)
		(	0.2983911990129626	0.1739599170942381	0.19398416836866408	0.33366471552413524	)
		(	0.32459792507928475	0.06682789641995518	0.2584204569535989	0.35015372154716123	)
		(	0.20535417728405975	0.34427507855712386	0.26984884947097754	0.18052189468783883	))
		((	0.3727177802070237	0.2179422695304089	0.17093419475565105	0.23840575550691645	)
		(	0.40974210979736525	0.3954583671713741	0.17128445301442688	0.02351507001683375	)
		(	0.18706261279805783	0.23663132561690037	0.36037261729286574	0.21593344429217595	)
		(	0.055425057575401365	0.14243567568914817	0.45627695570399257	0.3458623110314579	))
		((	0.4869431381791588	0.4867844075732872	0.017574651942785333	0.008697802304768713	)
		(	0.03946247703463964	0.268961818463013	0.13681760874303678	0.5547580957593105	)
		(	0.28991905531442264	0.3049941557596527	0.20930784649668713	0.1957789424292375	)
		(	0.2888832761575777	0.275941333756827	0.31791141107496684	0.11726397901062853	)))
		(((	0.2715550233206265	0.3684453812923443	0.16591584160509532	0.19408375378193393	)
		(	0.23277095166651773	0.4154622271172866	0.34760587614893784	0.004160945067257677	)
		(	0.3643934634397066	0.0795620886265119	0.1503614000718349	0.40568304786194653	)
		(	0.1086124969320301	0.25085066582205384	0.34802036231257866	0.29251647493333743	))
		((	0.4221619492765719	0.09462221937223579	0.12357395512808177	0.3596418762231106	)
		(	0.17721167967559823	0.4296070892043583	0.05784874416207208	0.3353324869579715	)
		(	0.3774595387599833	0.37638408183929223	0.16950039864024324	0.07665598076048111	)
		(	0.46884484848346014	0.22380135789783712	0.028133129341529135	0.27922066427717357	))
		((	0.28536287722575415	0.246276092711333	0.15934785941999144	0.30901317064292144	)
		(	0.4180110159840009	0.013572866820457198	0.5383342133644462	0.030081903831095574	)
		(	0.2532723726263503	0.005423166583164832	0.7307492327047366	0.010555228085748445	)
		(	0.206733446936919	0.29811790016119477	0.1725544426991064	0.3225942102027798	))))
		((((	0.26250933942500293	0.13734244572429063	0.41635164117156576	0.18379657367914068	)
		(	0.4981325099463622	0.16197785792272087	0.1414016790593858	0.19848795307153122	)
		(	0.07978344338311334	0.2339667514057179	0.3038975626879737	0.38235224252319505	)
		(	0.30173001797313437	0.492473322629641	0.08821647453462599	0.11758018486259864	))
		((	0.25026626556073855	0.18568149304033754	0.28537884578330897	0.2786733956156149	)
		(	0.4853988448380919	0.14127642794637024	0.33941109152583654	0.03391363568970139	)
		(	0.34287292520209417	0.07290286172951627	0.28831766434599193	0.29590654872239747	)
		(	0.25347983498183196	0.41652201949309076	0.2382708956386975	0.09172724988637984	))
		((	0.3365372632868663	0.2977177089495374	0.19823496490264272	0.1675100628609536	)
		(	0.14570659019395052	0.15111422133035882	0.4025594112467051	0.30061977722898553	)
		(	0.2295793820936802	0.34318727194281784	0.22974160631057786	0.19749173965292416	)
		(	0.04525321842573131	0.44626952770680506	0.22113787225534168	0.28733938161212197	)))
		(((	0.4756880721656908	0.45563449063924494	0.01608431927994352	0.052593117915120655	)
		(	0.06772589359535632	0.17051739922902082	0.5414978319750186	0.2202588752006044	)
		(	0.2188520770246768	0.0013884846590888498	0.5859654048241363	0.19379403349209812	)
		(	0.18121055723326462	0.41082771289232656	0.15198811639183973	0.255973613482569	))
		((	0.36498120376468407	0.4212230438704989	0.19938113636917618	0.01441461599564082	)
		(	0.017577367343387957	0.23680676819341065	0.35090920754415955	0.3947066569190419	)
		(	0.4503840915377567	0.20502922718001987	0.27095219662300846	0.07363448465921486	)
		(	0.28278079486939145	0.26241830127970506	0.42572334330752576	0.029077560543377762	))
		((	0.3590676884314168	0.2366627652393016	0.2911277131911908	0.11314183313809073	)
		(	0.10545519017967114	0.3270480890203698	0.391685144485789	0.17581157631417008	)
		(	0.13314033358916477	0.2571601343180605	0.41118693618861185	0.1985125959041628	)
		(	0.17694197644407503	0.21861835796380308	0.3763305710637921	0.22810909452832986	)))
		(((	0.19355322272810754	0.25591678566479875	0.36387900275808016	0.18665098884901357	)
		(	0.3064354662566846	0.22203604416292605	0.23112052300067423	0.24040796657971514	)
		(	0.2410098936379767	0.38539908454940014	0.2755781894822288	0.09801283233039447	)
		(	0.23929291383280046	0.27002695679687055	0.3411390618295327	0.14954106754079632	))
		((	0.0799746050805166	0.41821833248880175	0.3809979890684101	0.12080907336227154	)
		(	0.1923698996457041	0.30052271433584893	0.19426016344113683	0.3128472225773103	)
		(	0.024812659675505395	0.33292211129244864	0.4173360929943575	0.22492913603768852	)
		(	0.2907544746967785	0.2865187838252019	0.20569664258243547	0.217030098895584	))
		((	0.4408270855473727	0.19265933736359728	0.32201148704798105	0.044502090041048846	)
		(	0.1771233662112162	0.07481573057065678	0.3771515016017334	0.37090940161639363	)
		(	0.27391026675169794	0.3722739442356327	0.14191008010946354	0.21190570890320579	)
		(	0.24029092509155686	0.5638073802984856	0.10653640295828344	0.08936529165167402	)))
		(((	0.19724837898839157	0.11431108474610714	0.1480229303718677	0.5404176058936336	)
		(	0.4882588877760551	0.0023022109681748765	0.5052309174313967	0.004207983824373164	)
		(	0.2825588600126854	0.4169198514342312	0.16184923700532686	0.13867205154775666	)
		(	0.17674207008436188	0.06159466340420894	0.5623557369482614	0.19930752956316783	))
		((	0.3939450371784522	0.2754735439394215	0.13244340758234638	0.19813801129977984	)
		(	0.09768593373816545	0.018186173472427493	0.24485013844313377	0.6392777543462733	)
		(	0.33150595213246187	0.30422595829556215	0.2589490404415989	0.10531904913037698	)
		(	0.21184875019588967	0.3168767377834165	0.30577295619779815	0.1655015558228957	))
		((	0.3260335692686122	0.28071586107247104	0.25041913534067256	0.14283143431824422	)
		(	0.30297960730942824	0.3786373890544945	0.0033675501681665865	0.3150154534679106	)
		(	0.21036603879699897	0.4400247889919985	0.1881667311676498	0.16144244104335273	)
		(	0.28420984624695295	0.10121865189937174	0.5100139834925268	0.10455751836114863	)))));
}
potential ( CBODD_12_15 | C_NI_12_00 CKNI_12_00 CBODD_12_00 CNOD_12_00 CBODN_12_00 )
{
	data = ((((((	0.5679837879371845	0.1043314360818255	0.31850358781410204	0.009181188166888066	)
		(	0.3207128431355997	0.1994126083111409	0.2886232163439116	0.19125133220934776	)
		(	0.27327194931133614	0.37758555912823794	0.18386980004165707	0.16527269151876894	)
		(	0.06270457626883925	0.5547211120142552	0.21447905947169613	0.16809525224520938	))
		((	0.27999629565889295	0.4613372764879519	0.03798879054039856	0.22067763731275664	)
		(	0.197334766120752	0.2505190227833528	0.33012854180717505	0.22201766928872016	)
		(	0.3530477018115461	0.2949913214457108	0.3268529157958129	0.025108060946930143	)
		(	0.01083495198089987	0.3014349792807152	0.3692261959339216	0.3185038728044634	))
		((	0.41152018225157877	0.10427101219619862	0.18712779689104053	0.297081008661182	)
		(	0.259609479478452	0.44154701549600683	0.12661252043046778	0.1722309845950734	)
		(	0.13267967025343977	0.3728832567640605	0.10616422743178212	0.38827284555071767	)
		(	0.45172350762698255	0.33103897274720223	0.10607171517713744	0.11116580444867788	))
		((	0.10581133025795514	0.4984256078455432	0.017443831376332417	0.3783192305201693	)
		(	0.2791678080449563	0.3365470779987705	0.15433877499824616	0.22994633895802696	)
		(	0.10096778946433173	0.5462084510620651	0.22708014867101775	0.12574361080258548	)
		(	0.39291727699581075	0.08578213576435496	0.21599180956869748	0.30530877767113684	)))
		(((	0.30272352175584677	0.24053082146319035	0.3110804861148048	0.14566517066615806	)
		(	0.46695163036432447	0.10689774025262397	0.34241470394952356	0.08373592543352792	)
		(	0.13244547920667768	0.26484398337821907	0.22322961700751784	0.37948092040758546	)
		(	0.18639221905072154	0.3593941318097359	0.07746087268140434	0.3767527764581382	))
		((	0.2389205691478116	0.23875628244568767	0.4811264755076343	0.04119667289886648	)
		(	0.06572555140345025	0.3411174578457036	0.25956095174389004	0.3335960390069562	)
		(	0.19658426272116575	0.11291970990165755	0.3230769968795697	0.367419030497607	)
		(	0.4098041305496895	0.2318182735146316	0.25495718951644497	0.1034204064192338	))
		((	0.06700588956048233	0.591911533295698	0.16321511469912992	0.17786746244468976	)
		(	0.34705990953210863	0.1483421067817793	0.18325587914050764	0.32134210454560447	)
		(	0.5118889646284096	0.09218708580718164	0.18973520781106573	0.20618874175334298	)
		(	0.1555517408893096	0.2944004525229978	0.2885253270857585	0.26152247950193414	))
		((	0.38713688427760895	0.16213329472825652	0.15018997564168246	0.30053984535245215	)
		(	0.1342907791044973	0.17601535028964296	0.2736606442487454	0.41603322635711415	)
		(	0.4571483769571542	0.3452129664224161	0.10324844049939189	0.09439021612103775	)
		(	0.3938413749572077	0.3958089231633453	0.05418161063875003	0.15616809124069697	)))
		(((	0.10544693198093244	0.3763893433834679	0.009609795562807154	0.5085539290727925	)
		(	0.298814084920451	0.360573915975969	0.10703867666224974	0.23357332244133022	)
		(	0.09109793729444389	0.2097596274759083	0.34378331786872535	0.3553591173609226	)
		(	0.4427956732087223	0.027619904689795926	0.10742877425825406	0.4221556478432277	))
		((	0.3443701160752985	0.10721771696129334	0.38024225933208905	0.16816990763131903	)
		(	0.21461901608768705	0.21311416685858228	0.18596298864668123	0.38630382840704947	)
		(	0.4688430857310928	0.24312017209581702	0.13860021951590265	0.14943652265718763	)
		(	0.3752331791481383	0.3245278879521049	0.10439418843088333	0.1958447444688735	))
		((	0.3508370845775518	0.03571090752626562	0.21837256401065017	0.39507944388553246	)
