net
{
}

node x0
{
    states = ("s0" "s1" "s2");
}
node x1
{
    states = ("s0" "s1" "s2");
}
node x2
{
    states = ("s0" "s1" "s2");
}
node x3
{
    states = ("s0" "s1" "s2");
}
node x4
{
    states = ("s0" "s1" "s2");
}
node x5
{
    states = ("s0" "s1" "s2");
}
node x6
{
    states = ("s0" "s1" "s2");
}
node x7
{
    states = ("s0" "s1" "s2");
}
node x8
{
    states = ("s0" "s1" "s2");
}
node x9
{
    states = ("s0" "s1" "s2");
}
node x10
{
    states = ("s0" "s1" "s2");
}
node x11
{
    states = ("s0" "s1" "s2");
}
node x12
{
    states = ("s0" "s1" "s2");
}
node x13
{
    states = ("s0" "s1" "s2");
}
node x14
{
    states = ("s0" "s1" "s2");
}
node x15
{
    states = ("s0" "s1" "s2");
}
node x16
{
    states = ("s0" "s1" "s2");
}
node x17
{
    states = ("s0" "s1" "s2");
}
node x18
{
    states = ("s0" "s1" "s2");
}
node x19
{
    states = ("s0" "s1" "s2");
}
node x20
{
    states = ("s0" "s1" "s2");
}
node x21
{
    states = ("s0" "s1" "s2");
}
node x22
{
    states = ("s0" "s1" "s2");
}
node x23
{
    states = ("s0" "s1" "s2");
}
node x24
{
    states = ("s0" "s1" "s2");
}
node x25
{
    states = ("s0" "s1" "s2");
}
node x26
{
    states = ("s0" "s1" "s2");
}
node x27
{
    states = ("s0" "s1" "s2");
}
node x28
{
    states = ("s0" "s1" "s2");
}
node x29
{
    states = ("s0" "s1" "s2");
}
node x30
{
    states = ("s0" "s1" "s2");
}
node x31
{
    states = ("s0" "s1" "s2");
}
node x32
{
    states = ("s0" "s1" "s2");
}
node x33
{
    states = ("s0" "s1" "s2");
}
node x34
{
    states = ("s0" "s1" "s2");
}
node x35
{
    states = ("s0" "s1" "s2");
}
node x36
{
    states = ("s0" "s1" "s2");
}
node x37
{
    states = ("s0" "s1" "s2");
}
node x38
{
    states = ("s0" "s1" "s2");
}
node x39
{
    states = ("s0" "s1" "s2");
}
node x40
{
    states = ("s0" "s1" "s2");
}
node x41
{
    states = ("s0" "s1" "s2");
}
node x42
{
    states = ("s0" "s1" "s2");
}
node x43
{
    states = ("s0" "s1" "s2");
}
node x44
{
    states = ("s0" "s1" "s2");
}
node x45
{
    states = ("s0" "s1" "s2");
}
node x46
{
    states = ("s0" "s1" "s2");
}
node x47
{
    states = ("s0" "s1" "s2");
}
node x48
{
    states = ("s0" "s1" "s2");
}
node x49
{
    states = ("s0" "s1" "s2");
}
node x50
{
    states = ("s0" "s1" "s2");
}
node x51
{
    states = ("s0" "s1" "s2");
}
node x52
{
    states = ("s0" "s1" "s2");
}
node x53
{
    states = ("s0" "s1" "s2");
}
node x54
{
    states = ("s0" "s1" "s2");
}
node x55
{
    states = ("s0" "s1" "s2");
}
node x56
{
    states = ("s0" "s1" "s2");
}
node x57
{
    states = ("s0" "s1" "s2");
}
node x58
{
    states = ("s0" "s1" "s2");
}
node x59
{
    states = ("s0" "s1" "s2");
}
node x60
{
    states = ("s0" "s1" "s2");
}
node x61
{
    states = ("s0" "s1" "s2");
}
node x62
{
    states = ("s0" "s1" "s2");
}
node x63
{
    states = ("s0" "s1" "s2");
}
node x64
{
    states = ("s0" "s1" "s2");
}

potential ( x0 |  )
{
    data = (0.289471 0.363262 0.347267);
}
potential ( x1 | x0 )
{
    data = (0.545170 0.231159 0.223671 0.449936 0.107729 0.442335 0.005505 0.504520 0.489975);
}
potential ( x2 | x1 )
{
    data = (0.336617 0.003585 0.659799 0.135244 0.634031 0.230726 0.489188 0.296512 0.214300);
}
potential ( x3 | x2 )
{
    data = (0.041479 0.187111 0.771410 0.525021 0.250430 0.224549 0.121722 0.627118 0.251159);
}
potential ( x4 | x3 )
{
    data = (0.263933 0.275764 0.460303 0.171697 0.449464 0.378839 0.090935 0.143163 0.765902);
}
potential ( x5 | x4 )
{
    data = (0.218823 0.737154 0.044023 0.310841 0.207521 0.481639 0.083117 0.005582 0.911301);
}
potential ( x6 | x5 )
{
    data = (0.280193 0.151657 0.568150 0.180423 0.606957 0.212621 0.154703 0.655183 0.190114);
}
potential ( x7 | x6 )
{
    data = (0.006287 0.328302 0.665411 0.422419 0.170201 0.407380 0.144114 0.135826 0.720060);
}
potential ( x8 | x7 )
{
    data = (0.803323 0.028134 0.168543 0.028880 0.427669 0.543450 0.200873 0.619777 0.179350);
}
potential ( x9 | x8 )
{
    data = (0.441546 0.494805 0.063650 0.022876 0.361570 0.615554 0.345277 0.230149 0.424574);
}
potential ( x10 | x9 )
{
    data = (0.666133 0.060208 0.273659 0.346621 0.416963 0.236417 0.815303 0.147211 0.037486);
}
potential ( x11 | x10 )
{
    data = (0.063155 0.519536 0.417309 0.467006 0.164879 0.368115 0.420532 0.281433 0.298035);
}
potential ( x12 | x11 )
{
    data = (0.788658 0.156366 0.054976 0.448951 0.319843 0.231206 0.003224 0.211682 0.785094);
}
potential ( x13 | x12 )
{
    data = (0.440440 0.524160 0.035400 0.605326 0.285524 0.109150 0.133556 0.048532 0.817912);
}
potential ( x14 | x13 )
{
    data = (0.378665 0.280074 0.341261 0.335431 0.575518 0.089051 0.547468 0.232843 0.219688);
}
potential ( x15 | x14 )
{
    data = (0.261656 0.012233 0.726110 0.225178 0.561531 0.213290 0.431900 0.423141 0.144959);
}
potential ( x16 | x15 )
{
    data = (0.341162 0.087077 0.571761 0.389093 0.590528 0.020379 0.177144 0.098165 0.724691);
}
potential ( x17 | x16 )
{
    data = (0.055250 0.681579 0.263172 0.798166 0.068747 0.133087 0.486615 0.426543 0.086841);
}
potential ( x18 | x17 )
{
    data = (0.065006 0.362406 0.572588 0.036629 0.453275 0.510096 0.448431 0.535509 0.016061);
}
potential ( x19 | x18 )
{
    data = (0.088449 0.267792 0.643759 0.053045 0.029955 0.917000 0.170675 0.656334 0.172990);
}
potential ( x20 | x19 )
{
    data = (0.443674 0.529299 0.027028 0.314946 0.040824 0.644230 0.707130 0.272637 0.020233);
}
potential ( x21 | x20 )
{
    data = (0.654432 0.341060 0.004507 0.160642 0.684597 0.154760 0.028002 0.183284 0.788714);
}
potential ( x22 | x21 )
{
    data = (0.287303 0.036043 0.676654 0.176403 0.809247 0.014350 0.075740 0.661203 0.263056);
}
potential ( x23 | x22 )
{
    data = (0.288422 0.453396 0.258183 0.246553 0.348592 0.404854 0.358638 0.450015 0.191347);
}
potential ( x24 | x23 )
{
    data = (0.135895 0.511825 0.352279 0.087921 0.755806 0.156273 0.836358 0.023223 0.140419);
}
potential ( x25 | x24 )
{
    data = (0.085545 0.501830 0.412625 0.277051 0.493051 0.229898 0.079339 0.234931 0.685731);
}
potential ( x26 | x25 )
{
    data = (0.132147 0.803612 0.064241 0.529853 0.441727 0.028420 0.542943 0.156879 0.300178);
}
potential ( x27 | x26 )
{
    data = (0.114857 0.582875 0.302267 0.599750 0.038384 0.361866 0.056846 0.773914 0.169240);
}
potential ( x28 | x27 )
{
    data = (0.541846 0.010430 0.447724 0.146353 0.652386 0.201261 0.444062 0.162634 0.393304);
}
potential ( x29 | x28 )
{
    data = (0.274527 0.571784 0.153689 0.060164 0.829824 0.110012 0.053324 0.808040 0.138636);
}
potential ( x30 | x29 )
{
    data = (0.208595 0.680415 0.110990 0.483224 0.115120 0.401656 0.316515 0.348622 0.334863);
}
potential ( x31 | x30 )
{
    data = (0.151158 0.288521 0.560321 0.229762 0.687200 0.083038 0.199331 0.506427 0.294242);
}
potential ( x32 | x31 )
{
    data = (0.072207 0.426640 0.501152 0.504219 0.469220 0.026561 0.028163 0.363577 0.608260);
}
potential ( x33 | x32 )
{
    data = (0.941411 0.039863 0.018726 0.608256 0.127446 0.264298 0.137230 0.461719 0.401051);
}
potential ( x34 | x33 )
{
    data = (0.038035 0.626397 0.335567 0.579350 0.171538 0.249112 0.543647 0.189802 0.266551);
}
potential ( x35 | x34 )
{
    data = (0.358757 0.002028 0.639215 0.034584 0.306991 0.658425 0.108566 0.197048 0.694385);
}
potential ( x36 | x35 )
{
    data = (0.463377 0.124110 0.412514 0.432409 0.267625 0.299967 0.893016 0.053889 0.053095);
}
potential ( x37 | x36 )
{
    data = (0.666153 0.206856 0.126990 0.435190 0.424168 0.140641 0.094444 0.075175 0.830381);
}
potential ( x38 | x37 )
{
    data = (0.021694 0.301320 0.676986 0.279008 0.051202 0.669790 0.282261 0.181926 0.535814);
}
potential ( x39 | x38 )
{
    data = (0.587472 0.013035 0.399493 0.055420 0.385700 0.558880 0.498732 0.337919 0.163349);
}
potential ( x40 | x39 )
{
    data = (0.018525 0.548299 0.433176 0.007760 0.890070 0.102170 0.330232 0.343691 0.326076);
}
potential ( x41 | x40 )
{
    data = (0.413953 0.478998 0.107049 0.539213 0.036165 0.424622 0.081644 0.440765 0.477591);
}
potential ( x42 | x41 )
{
    data = (0.093068 0.544016 0.362917 0.211387 0.096262 0.692351 0.498126 0.493935 0.007940);
}
potential ( x43 | x42 )
{
    data = (0.069512 0.586563 0.343924 0.525910 0.401189 0.072901 0.509127 0.441745 0.049128);
}
potential ( x44 | x43 )
{
    data = (0.252860 0.030212 0.716928 0.563722 0.148756 0.287521 0.447296 0.278031 0.274673);
}
potential ( x45 | x44 )
{
    data = (0.259623 0.117210 0.623167 0.170475 0.528623 0.300902 0.615309 0.213038 0.171653);
}
potential ( x46 | x45 )
{
    data = (0.266278 0.377384 0.356337 0.164248 0.307153 0.528598 0.514217 0.025428 0.460355);
}
potential ( x47 | x46 )
{
    data = (0.318394 0.533234 0.148372 0.044422 0.843788 0.111790 0.458147 0.381563 0.160290);
}
potential ( x48 | x47 )
{
    data = (0.509598 0.455450 0.034952 0.398924 0.359150 0.241925 0.177189 0.139069 0.683743);
}
potential ( x49 | x48 )
{
    data = (0.157294 0.265377 0.577329 0.442886 0.113804 0.443310 0.523569 0.018124 0.458307);
}
potential ( x50 | x49 )
{
    data = (0.679688 0.122625 0.197687 0.008357 0.205641 0.786002 0.383723 0.171738 0.444539);
}
potential ( x51 | x50 )
{
    data = (0.405412 0.389907 0.204680 0.286054 0.078008 0.635938 0.680513 0.079796 0.239690);
}
potential ( x52 | x51 )
{
    data = (0.726677 0.173048 0.100274 0.022026 0.389244 0.588729 0.322323 0.052855 0.624822);
}
potential ( x53 | x52 )
{
    data = (0.197947 0.321416 0.480637 0.206216 0.163057 0.630727 0.623727 0.319623 0.056649);
}
potential ( x54 | x53 )
{
    data = (0.494935 0.224452 0.280613 0.278271 0.447618 0.274111 0.742164 0.116345 0.141491);
}
potential ( x55 | x54 )
{
    data = (0.028292 0.417432 0.554276 0.002297 0.294822 0.702881 0.011438 0.968137 0.020425);
}
potential ( x56 | x55 )
{
    data = (0.198199 0.390667 0.411133 0.531470 0.424503 0.044028 0.787438 0.139389 0.073173);
}
potential ( x57 | x56 )
{
    data = (0.082322 0.832650 0.085029 0.535149 0.429270 0.035580 0.106894 0.355060 0.538045);
}
potential ( x58 | x57 )
{
    data = (0.051458 0.900159 0.048383 0.436862 0.239813 0.323325 0.190655 0.001618 0.807727);
}
potential ( x59 | x58 )
{
    data = (0.266692 0.046774 0.686534 0.310444 0.301249 0.388307 0.637033 0.280942 0.082025);
}
potential ( x60 | x59 )
{
    data = (0.193471 0.557115 0.249414 0.238479 0.639623 0.121898 0.324147 0.438175 0.237678);
}
potential ( x61 | x60 )
{
    data = (0.077323 0.023511 0.899166 0.179166 0.435823 0.385011 0.391907 0.512540 0.095553);
}
potential ( x62 | x61 )
{
    data = (0.130790 0.501494 0.367717 0.009881 0.926057 0.064062 0.242399 0.557723 0.199878);
}
potential ( x63 | x62 )
{
    data = (0.070088 0.219906 0.710006 0.135658 0.395860 0.468482 0.085893 0.412967 0.501140);
}
potential ( x64 | x63 )
{
    data = (0.101361 0.477682 0.420957 0.265692 0.483795 0.250513 0.251907 0.430797 0.317295);
}
