net
{
}
node node0
{
states = ( "state0" "state1" );
}
node node1
{
states = ( "state0" "state1" );
}
node node2
{
states = ( "state0" "state1" );
}
node node3
{
states = ( "state0" "state1" );
}
node node4
{
states = ( "state0" "state1" );
}
node node5
{
states = ( "state0" "state1" );
}
node node6
{
states = ( "state0" "state1" );
}
node node7
{
states = ( "state0" "state1" );
}
node node8
{
states = ( "state0" "state1" );
}
node node9
{
states = ( "state0" "state1" );
}
node node10
{
states = ( "state0" "state1" );
}
node node11
{
states = ( "state0" "state1" );
}
node node12
{
states = ( "state0" "state1" );
}
node node13
{
states = ( "state0" "state1" );
}
node node14
{
states = ( "state0" "state1" );
}
node node15
{
states = ( "state0" "state1" );
}
node node16
{
states = ( "state0" "state1" );
}
node node17
{
states = ( "state0" "state1" );
}
node node18
{
states = ( "state0" "state1" );
}
node node19
{
states = ( "state0" "state1" );
}
node node20
{
states = ( "state0" "state1" );
}
node node21
{
states = ( "state0" "state1" );
}
node node22
{
states = ( "state0" "state1" );
}
node node23
{
states = ( "state0" "state1" );
}
node node24
{
states = ( "state0" "state1" );
}
node node25
{
states = ( "state0" "state1" );
}
node node26
{
states = ( "state0" "state1" );
}
node node27
{
states = ( "state0" "state1" );
}
node node28
{
states = ( "state0" "state1" );
}
node node29
{
states = ( "state0" "state1" );
}
node node30
{
states = ( "state0" "state1" );
}
node node31
{
states = ( "state0" "state1" );
}
node node32
{
states = ( "state0" "state1" );
}
node node33
{
states = ( "state0" "state1" );
}
node node34
{
states = ( "state0" "state1" );
}
node node35
{
states = ( "state0" "state1" );
}
node node36
{
states = ( "state0" "state1" );
}
node node37
{
states = ( "state0" "state1" );
}
node node38
{
states = ( "state0" "state1" );
}
node node39
{
states = ( "state0" "state1" );
}
node node40
{
states = ( "state0" "state1" );
}
node node41
{
states = ( "state0" "state1" );
}
node node42
{
states = ( "state0" "state1" );
}
node node43
{
states = ( "state0" "state1" );
}
node node44
{
states = ( "state0" "state1" );
}
node node45
{
states = ( "state0" "state1" );
}
node node46
{
states = ( "state0" "state1" );
}
node node47
{
states = ( "state0" "state1" );
}
node node48
{
states = ( "state0" "state1" );
}
node node49
{
states = ( "state0" "state1" );
}
potential ( node0 )
{
data = ( 0.0 1.0 );
}
potential ( node1 )
{
data = ( 1.2120036844912008E-5 2.4240073689824016E-5 );
}
potential ( node2 )
{
data = ( 3.6360110534736025E-5 4.848014737964803E-5 );
}
potential ( node3 )
{
data = ( 6.060018422456004E-5 7.272022106947205E-5 );
}
potential ( node4 | node0 node3 )
{
data = ((( 0.0 1.0 )( 0.0 1.0 ))(( 0.0 1.0 )( 0.0 1.0 )));
}
potential ( node5 | node0 node1 )
{
data = ((( 1.0 0.0 )( 1.0 0.0 ))(( 1.0 0.0 )( 1.0 0.0 )));
}
potential ( node6 | node5 )
{
data = (( 8.484025791438406E-5 9.696029475929607E-5 )( 1.0908033160420807E-4 1.2120036844912008E-4 ));
}
potential ( node7 )
{
data = ( 1.0 0.0 );
}
potential ( node8 | node0 node2 node5 )
{
data = (((( 0.0 1.0 )( 0.0 1.0 ))(( 0.0 1.0 )( 1.0 0.0 )))((( 1.0 0.0 )( 1.0 0.0 ))(( 1.0 0.0 )( 0.0 1.0 ))));
}
potential ( node9 | node8 )
{
data = (( 1.333204052940321E-4 1.454404421389441E-4 )( 1.575604789838561E-4 1.6968051582876812E-4 ));
}
potential ( node10 | node5 node6 node7 )
{
data = (((( 1.8180055267368012E-4 1.9392058951859213E-4 )( 2.0604062636350414E-4 2.1816066320841615E-4 ))(( 2.3028070005332816E-4 2.4240073689824016E-4 )( 2.545207737431522E-4 2.666408105880642E-4 )))((( 2.787608474329762E-4 2.908808842778882E-4 )( 3.030009211228002E-4 3.151209579677122E-4 ))(( 3.272409948126242E-4 3.3936103165753623E-4 )( 3.5148106850244824E-4 3.6360110534736025E-4 ))));
}
potential ( node11 | node7 )
{
data = (( 3.7572114219227226E-4 3.8784117903718426E-4 )( 3.9996121588209627E-4 4.120812527270083E-4 ));
}
potential ( node12 | node3 node8 node9 node10 )
{
data = ((((( 4.242012895719203E-4 4.363213264168323E-4 )( 4.484413632617443E-4 4.605614001066563E-4 ))(( 4.726814369515683E-4 4.8480147379648033E-4 )( 4.969215106413923E-4 5.090415474863043E-4 )))((( 5.211615843312164E-4 5.332816211761284E-4 )( 5.454016580210404E-4 5.575216948659524E-4 ))(( 5.696417317108644E-4 5.817617685557764E-4 )( 5.938818054006884E-4 6.060018422456004E-4 ))))(((( 6.181218790905124E-4 6.302419159354244E-4 )( 6.423619527803364E-4 6.544819896252484E-4 ))(( 6.666020264701605E-4 6.787220633150725E-4 )( 6.908421001599845E-4 7.029621370048965E-4 )))((( 7.150821738498085E-4 7.272022106947205E-4 )( 7.393222475396325E-4 7.514422843845445E-4 ))(( 7.635623212294565E-4 7.756823580743685E-4 )( 7.878023949192805E-4 7.999224317641925E-4 )))));
}
potential ( node13 | node0 node2 node3 )
{
data = (((( 0.0 1.0 )( 1.0 0.0 ))(( 1.0 0.0 )( 0.0 1.0 )))((( 1.0 0.0 )( 1.0 0.0 ))(( 0.0 1.0 )( 0.0 1.0 ))));
}
potential ( node14 | node2 node8 node11 node12 )
{
data = ((((( 0.0 1.0 )( 0.0 1.0 ))(( 1.0 0.0 )( 1.0 0.0 )))((( 1.0 0.0 )( 0.0 1.0 ))(( 0.0 1.0 )( 1.0 0.0 ))))(((( 0.0 1.0 )( 1.0 0.0 ))(( 0.0 1.0 )( 1.0 0.0 )))((( 1.0 0.0 )( 0.0 1.0 ))(( 0.0 1.0 )( 0.0 1.0 )))));
}
potential ( node15 | node1 node4 node8 node11 node12 node13 node14 )
{
data = (((((((( 1.0 0.0 )( 1.0 0.0 ))(( 1.0 0.0 )( 0.0 1.0 )))((( 0.0 1.0 )( 0.0 1.0 ))(( 1.0 0.0 )( 0.0 1.0 ))))(((( 0.0 1.0 )( 0.0 1.0 ))(( 0.0 1.0 )( 1.0 0.0 )))((( 1.0 0.0 )( 0.0 1.0 ))(( 0.0 1.0 )( 1.0 0.0 )))))((((( 1.0 0.0 )( 0.0 1.0 ))(( 1.0 0.0 )( 1.0 0.0 )))((( 1.0 0.0 )( 1.0 0.0 ))(( 0.0 1.0 )( 0.0 1.0 ))))(((( 0.0 1.0 )( 0.0 1.0 ))(( 0.0 1.0 )( 1.0 0.0 )))((( 1.0 0.0 )( 0.0 1.0 ))(( 1.0 0.0 )( 0.0 1.0 ))))))(((((( 0.0 1.0 )( 1.0 0.0 ))(( 0.0 1.0 )( 1.0 0.0 )))((( 0.0 1.0 )( 1.0 0.0 ))(( 1.0 0.0 )( 0.0 1.0 ))))(((( 1.0 0.0 )( 0.0 1.0 ))(( 1.0 0.0 )( 1.0 0.0 )))((( 0.0 1.0 )( 1.0 0.0 ))(( 0.0 1.0 )( 0.0 1.0 )))))((((( 1.0 0.0 )( 1.0 0.0 ))(( 0.0 1.0 )( 0.0 1.0 )))((( 0.0 1.0 )( 0.0 1.0 ))(( 1.0 0.0 )( 0.0 1.0 ))))(((( 1.0 0.0 )( 1.0 0.0 ))(( 0.0 1.0 )( 1.0 0.0 )))((( 0.0 1.0 )( 0.0 1.0 ))(( 1.0 0.0 )( 0.0 1.0 )))))))((((((( 0.0 1.0 )( 1.0 0.0 ))(( 1.0 0.0 )( 1.0 0.0 )))((( 1.0 0.0 )( 1.0 0.0 ))(( 1.0 0.0 )( 1.0 0.0 ))))(((( 1.0 0.0 )( 0.0 1.0 ))(( 1.0 0.0 )( 1.0 0.0 )))((( 0.0 1.0 )( 0.0 1.0 ))(( 0.0 1.0 )( 0.0 1.0 )))))((((( 0.0 1.0 )( 0.0 1.0 ))(( 0.0 1.0 )( 0.0 1.0 )))((( 0.0 1.0 )( 1.0 0.0 ))(( 0.0 1.0 )( 1.0 0.0 ))))(((( 1.0 0.0 )( 0.0 1.0 ))(( 1.0 0.0 )( 0.0 1.0 )))((( 0.0 1.0 )( 0.0 1.0 ))(( 1.0 0.0 )( 1.0 0.0 ))))))(((((( 1.0 0.0 )( 1.0 0.0 ))(( 1.0 0.0 )( 1.0 0.0 )))((( 1.0 0.0 )( 1.0 0.0 ))(( 1.0 0.0 )( 1.0 0.0 ))))(((( 1.0 0.0 )( 1.0 0.0 ))(( 1.0 0.0 )( 1.0 0.0 )))((( 0.0 1.0 )( 0.0 1.0 ))(( 1.0 0.0 )( 0.0 1.0 )))))((((( 0.0 1.0 )( 0.0 1.0 ))(( 1.0 0.0 )( 0.0 1.0 )))((( 0.0 1.0 )( 0.0 1.0 ))(( 0.0 1.0 )( 0.0 1.0 ))))(((( 0.0 1.0 )( 0.0 1.0 ))(( 0.0 1.0 )( 0.0 1.0 )))((( 1.0 0.0 )( 0.0 1.0 ))(( 0.0 1.0 )( 1.0 0.0 ))))))));
}
potential ( node16 | node4 node12 node13 node14 )
{
data = ((((( 8.120424686091046E-4 8.241625054540166E-4 )( 8.362825422989286E-4 8.484025791438406E-4 ))(( 8.605226159887526E-4 8.726426528336646E-4 )( 8.847626896785766E-4 8.968827265234886E-4 )))((( 9.090027633684006E-4 9.211228002133126E-4 )( 9.332428370582246E-4 9.453628739031366E-4 ))(( 9.574829107480487E-4 9.696029475929607E-4 )( 9.817229844378728E-4 9.93843021282785E-4 ))))(((( 0.001005963058127697 0.0010180830949726091 )( 0.0010302031318175212 0.0010423231686624334 ))(( 0.0010544432055073455 0.0010665632423522576 )( 0.0010786832791971697 0.0010908033160420818 )))((( 0.001102923352886994 0.001115043389731906 )( 0.0011271634265768182 0.0011392834634217303 ))(( 0.0011514035002666424 0.0011635235371115545 )( 0.0011756435739564666 0.0011877636108013788 )))));
}
potential ( node17 | node4 node6 node7 node10 node14 )
{
data = (((((( 0.0011998836476462909 0.001212003684491203 )( 0.0012241237213361151 0.0012362437581810272 ))(( 0.0012483637950259393 0.0012604838318708515 )( 0.0012726038687157636 0.0012847239055606757 )))((( 0.0012968439424055878 0.0013089639792505 )( 0.001321084016095412 0.0013332040529403242 ))(( 0.0013453240897852363 0.0013574441266301484 )( 0.0013695641634750605 0.0013816842003199726 ))))(((( 0.0013938042371648847 0.0014059242740097969 )( 0.001418044310854709 0.001430164347699621 ))(( 0.0014422843845445332 0.0014544044213894453 )( 0.0014665244582343574 0.0014786444950792696 )))((( 0.0014907645319241817 0.0015028845687690938 )( 0.001515004605614006 0.001527124642458918 ))(( 0.0015392446793038301 0.0015513647161487423 )( 0.0015634847529936544 0.0015756047898385665 )))))((((( 0.0015877248266834786 0.0015998448635283907 )( 0.0016119649003733028 0.001624084937218215 ))(( 0.001636204974063127 0.0016483250109080392 )( 0.0016604450477529513 0.0016725650845978634 )))((( 0.0016846851214427755 0.0016968051582876877 )( 0.0017089251951325998 0.001721045231977512 ))(( 0.001733165268822424 0.0017452853056673361 )( 0.0017574053425122482 0.0017695253793571604 ))))(((( 0.0017816454162020725 0.0017937654530469846 )( 0.0018058854898918967 0.0018180055267368088 ))(( 0.001830125563581721 0.001842245600426633 )( 0.0018543656372715452 0.0018664856741164573 )))((( 0.0018786057109613694 0.0018907257478062815 )( 0.0019028457846511936 0.0019149658214961058 ))(( 0.0019270858583410179 0.00193920589518593 )( 0.0019513259320308421 0.0019634459688757542 ))))));
}
potential ( node18 | node2 node6 node12 )
{
data = (((( 0.0019755660057206663 0.0019876860425655785 )( 0.0019998060794104906 0.0020119261162554027 ))(( 0.002024046153100315 0.002036166189945227 )( 0.002048286226790139 0.002060406263635051 )))((( 0.0020725263004799633 0.0020846463373248754 )( 0.0020967663741697875 0.0021088864110146996 ))(( 0.0021210064478596117 0.002133126484704524 )( 0.002145246521549436 0.002157366558394348 ))));
}
potential ( node19 | node0 node2 node5 node8 node14 )
{
data = (((((( 1.0 0.0 )( 0.0 1.0 ))(( 1.0 0.0 )( 0.0 1.0 )))((( 1.0 0.0 )( 1.0 0.0 ))(( 1.0 0.0 )( 1.0 0.0 ))))(((( 0.0 1.0 )( 1.0 0.0 ))(( 1.0 0.0 )( 0.0 1.0 )))((( 1.0 0.0 )( 0.0 1.0 ))(( 1.0 0.0 )( 1.0 0.0 )))))((((( 0.0 1.0 )( 1.0 0.0 ))(( 0.0 1.0 )( 1.0 0.0 )))((( 0.0 1.0 )( 1.0 0.0 ))(( 0.0 1.0 )( 0.0 1.0 ))))(((( 1.0 0.0 )( 1.0 0.0 ))(( 1.0 0.0 )( 1.0 0.0 )))((( 0.0 1.0 )( 0.0 1.0 ))(( 0.0 1.0 )( 0.0 1.0 ))))));
}
potential ( node20 | node2 node7 node11 node12 node13 node19 )
{
data = ((((((( 0.00216948659523926 0.0021816066320841723 )( 0.0021937266689290844 0.0022058467057739966 ))(( 0.0022179667426189087 0.002230086779463821 )( 0.002242206816308733 0.002254326853153645 )))((( 0.002266446889998557 0.0022785669268434693 )( 0.0022906869636883814 0.0023028070005332935 ))(( 0.0023149270373782056 0.0023270470742231177 )( 0.00233916711106803 0.002351287147912942 ))))(((( 0.002363407184757854 0.002375527221602766 )( 0.0023876472584476783 0.0023997672952925904 ))(( 0.0024118873321375025 0.0024240073689824147 )( 0.0024361274058273268 0.002448247442672239 )))((( 0.002460367479517151 0.002472487516362063 )( 0.0024846075532069752 0.0024967275900518874 ))(( 0.0025088476268967995 0.0025209676637417116 )( 0.0025330877005866237 0.002545207737431536 )))))((((( 0.002557327774276448 0.00256944781112136 )( 0.002581567847966272 0.0025936878848111843 ))(( 0.0026058079216560964 0.0026179279585010085 )( 0.0026300479953459206 0.0026421680321908328 )))((( 0.002654288069035745 0.002666408105880657 )( 0.002678528142725569 0.0026906481795704812 ))(( 0.0027027682164153933 0.0027148882532603055 )( 0.0027270082901052176 0.0027391283269501297 ))))(((( 0.002751248363795042 0.002763368400639954 )( 0.002775488437484866 0.002787608474329778 ))(( 0.0027997285111746903 0.0028118485480196024 )( 0.0028239685848645145 0.0028360886217094266 )))((( 0.0028482086585543387 0.002860328695399251 )( 0.002872448732244163 0.002884568769089075 ))(( 0.002896688805933987 0.0029088088427788993 )( 0.0029209288796238114 0.0029330489164687236 ))))))(((((( 0.0029451689533136357 0.002957288990158548 )( 0.00296940902700346 0.002981529063848372 ))(( 0.002993649100693284 0.0030057691375381963 )( 0.0030178891743831084 0.0030300092112280205 )))((( 0.0030421292480729326 0.0030542492849178447 )( 0.003066369321762757 0.003078489358607669 ))(( 0.003090609395452581 0.003102729432297493 )( 0.0031148494691424053 0.0031269695059873174 ))))(((( 0.0031390895428322295 0.0031512095796771417 )( 0.0031633296165220538 0.003175449653366966 ))(( 0.003187569690211878 0.00319968972705679 )( 0.0032118097639017022 0.0032239298007466144 )))((( 0.0032360498375915265 0.0032481698744364386 )( 0.0032602899112813507 0.003272409948126263 ))(( 0.003284529984971175 0.003296650021816087 )( 0.003308770058660999 0.0033208900955059113 )))))((((( 0.0033330101323508234 0.0033451301691957355 )( 0.0033572502060406476 0.0033693702428855598 ))(( 0.003381490279730472 0.003393610316575384 )( 0.003405730353420296 0.0034178503902652082 )))((( 0.0034299704271101203 0.0034420904639550325 )( 0.0034542105007999446 0.0034663305376448567 ))(( 0.003478450574489769 0.003490570611334681 )( 0.003502690648179593 0.003514810685024505 ))))(((( 0.0035269307218694173 0.0035390507587143294 )( 0.0035511707955592415 0.0035632908324041536 ))(( 0.0035754108692490657 0.003587530906093978 )( 0.00359965094293889 0.003611770979783802 )))((( 0.003623891016628714 0.0036360110534736263 )( 0.0036481310903185384 0.0036602511271634506 ))(( 0.0036723711640083627 0.003684491200853275 )( 0.003696611237698187 0.003708731274543099 )))))));
}
potential ( node21 | node9 node12 node15 node18 )
{
data = ((((( 0.003720851311388011 0.0037329713482329233 )( 0.0037450913850778354 0.0037572114219227475 ))(( 0.0037693314587676596 0.0037814514956125717 )( 0.003793571532457484 0.003805691569302396 )))((( 0.003817811606147308 0.00382993164299222 )( 0.0038420516798371323 0.0038541717166820444 ))(( 0.0038662917535269565 0.0038784117903718687 )( 0.0038905318272167808 0.003902651864061693 ))))(((( 0.003914771900906605 0.003926891937751516 )( 0.003939011974596428 0.00395113201144134 ))(( 0.003963252048286251 0.003975372085131163 )( 0.003987492121976075 0.003999612158820986 )))((( 0.004011732195665898 0.00402385223251081 )( 0.004035972269355721 0.004048092306200633 ))(( 0.004060212343045545 0.0040723323798904565 )( 0.004084452416735368 0.00409657245358028 )))));
}
potential ( node22 | node0 node6 node14 node15 node18 node20 )
{
data = ((((((( 0.0 1.0 )( 1.0 0.0 ))(( 1.0 0.0 )( 0.0 1.0 )))((( 1.0 0.0 )( 0.0 1.0 ))(( 0.0 1.0 )( 1.0 0.0 ))))(((( 1.0 0.0 )( 1.0 0.0 ))(( 1.0 0.0 )( 1.0 0.0 )))((( 0.0 1.0 )( 0.0 1.0 ))(( 1.0 0.0 )( 1.0 0.0 )))))((((( 1.0 0.0 )( 0.0 1.0 ))(( 0.0 1.0 )( 1.0 0.0 )))((( 1.0 0.0 )( 1.0 0.0 ))(( 0.0 1.0 )( 1.0 0.0 ))))(((( 0.0 1.0 )( 1.0 0.0 ))(( 0.0 1.0 )( 1.0 0.0 )))((( 0.0 1.0 )( 1.0 0.0 ))(( 0.0 1.0 )( 0.0 1.0 ))))))(((((( 0.0 1.0 )( 0.0 1.0 ))(( 1.0 0.0 )( 0.0 1.0 )))((( 1.0 0.0 )( 0.0 1.0 ))(( 0.0 1.0 )( 1.0 0.0 ))))(((( 0.0 1.0 )( 1.0 0.0 ))(( 1.0 0.0 )( 1.0 0.0 )))((( 0.0 1.0 )( 1.0 0.0 ))(( 1.0 0.0 )( 0.0 1.0 )))))((((( 0.0 1.0 )( 1.0 0.0 ))(( 1.0 0.0 )( 1.0 0.0 )))((( 1.0 0.0 )( 1.0 0.0 ))(( 0.0 1.0 )( 1.0 0.0 ))))(((( 0.0 1.0 )( 0.0 1.0 ))(( 0.0 1.0 )( 1.0 0.0 )))((( 1.0 0.0 )( 0.0 1.0 ))(( 0.0 1.0 )( 0.0 1.0 )))))));
}
potential ( node23 | node0 node1 node8 node9 node12 node13 node16 node20 node21 node22 )
{
data = ((((((((((( 0.0041086924904251915 0.004120812527270103 )( 0.004132932564115015 0.0041450526009599266 ))(( 0.004157172637804838 0.00416929267464975 )( 0.004181412711494662 0.004193532748339573 )))((( 0.004205652785184485 0.004217772822029397 )( 0.004229892858874308 0.00424201289571922 ))(( 0.004254132932564132 0.004266252969409043 )( 0.004278373006253955 0.004290493043098867 ))))(((( 0.004302613079943778 0.00431473311678869 )( 0.004326853153633602 0.0043389731904785135 ))(( 0.004351093227323425 0.004363213264168337 )( 0.0043753333010132485 0.00438745333785816 )))((( 0.004399573374703072 0.004411693411547984 )( 0.004423813448392895 0.004435933485237807 ))(( 0.004448053522082719 0.00446017355892763 )( 0.004472293595772542 0.004484413632617454 )))))((((( 0.004496533669462365 0.004508653706307277 )( 0.004520773743152189 0.0045328937799971 ))(( 0.004545013816842012 0.004557133853686924 )( 0.0045692538905318355 0.004581373927376747 )))((( 0.004593493964221659 0.0046056140010665705 )( 0.004617734037911482 0.004629854074756394 ))(( 0.0046419741116013056 0.004654094148446217 )( 0.004666214185291129 0.004678334222136041 ))))(((( 0.004690454258980952 0.004702574295825864 )( 0.004714694332670776 0.004726814369515687 ))(( 0.004738934406360599 0.004751054443205511 )( 0.004763174480050422 0.004775294516895334 )))((( 0.004787414553740246 0.004799534590585157 )( 0.004811654627430069 0.004823774664274981 ))(( 0.0048358947011198925 0.004848014737964804 )( 0.004860134774809716 0.0048722548116546275 ))))))(((((( 0.004884374848499539 0.004896494885344451 )( 0.004908614922189363 0.004920734959034274 ))(( 0.004932854995879186 0.004944975032724098 )( 0.004957095069569009 0.004969215106413921 )))((( 0.004981335143258833 0.004993455180103744 )( 0.005005575216948656 0.005017695253793568 ))(( 0.005029815290638479 0.005041935327483391 )( 0.005054055364328303 0.0050661754011732145 ))))(((( 0.005078295438018126 0.005090415474863038 )( 0.0051025355117079495 0.005114655548552861 ))(( 0.005126775585397773 0.0051388956222426846 )( 0.005151015659087596 0.005163135695932508 )))((( 0.00517525573277742 0.005187375769622331 )( 0.005199495806467243 0.005211615843312155 ))(( 0.005223735880157066 0.005235855917001978 )( 0.00524797595384689 0.005260095990691801 )))))((((( 0.005272216027536713 0.005284336064381625 )( 0.0052964561012265364 0.005308576138071448 ))(( 0.00532069617491636 0.0053328162117612715 )( 0.005344936248606183 0.005357056285451095 )))((( 0.0053691763222960065 0.005381296359140918 )( 0.00539341639598583 0.005405536432830742 ))(( 0.005417656469675653 0.005429776506520565 )( 0.005441896543365477 0.005454016580210388 ))))(((( 0.0054661366170553 0.005478256653900212 )( 0.005490376690745123 0.005502496727590035 ))(( 0.005514616764434947 0.005526736801279858 )( 0.00553885683812477 0.005550976874969682 )))((( 0.0055630969118145935 0.005575216948659505 )( 0.005587336985504417 0.0055994570223493285 ))(( 0.00561157705919424 0.005623697096039152 )( 0.0056358171328840636 0.005647937169728975 )))))))((((((( 0.005660057206573887 0.005672177243418799 )( 0.00568429728026371 0.005696417317108622 ))(( 0.005708537353953534 0.005720657390798445 )( 0.005732777427643357 0.005744897464488269 )))((( 0.00575701750133318 0.005769137538178092 )( 0.005781257575023004 0.0057933776118679154 ))(( 0.005805497648712827 0.005817617685557739 )( 0.0058297377224026505 0.005841857759247562 ))))(((( 0.005853977796092474 0.0058660978329373855 )( 0.005878217869782297 0.005890337906627209 ))(( 0.005902457943472121 0.005914577980317032 )( 0.005926698017161944 0.005938818054006856 )))((( 0.005950938090851767 0.005963058127696679 )( 0.005975178164541591 0.005987298201386502 ))(( 0.005999418238231414 0.006011538275076326 )( 0.006023658311921237 0.006035778348766149 )))))((((( 0.006047898385611061 0.0060600184224559725 )( 0.006072138459300884 0.006084258496145796 ))(( 0.0060963785329907075 0.006108498569835619 )( 0.006120618606680531 0.0061327386435254426 )))((( 0.006144858680370354 0.006156978717215266 )( 0.006169098754060178 0.006181218790905089 ))(( 0.006193338827750001 0.006205458864594913 )( 0.006217578901439824 0.006229698938284736 ))))(((( 0.006241818975129648 0.006253939011974559 )( 0.006266059048819471 0.006278179085664383 ))(( 0.0062902991225092944 0.006302419159354206 )( 0.006314539196199118 0.0063266592330440295 )))((( 0.006338779269888941 0.006350899306733853 )( 0.0063630193435787645 0.006375139380423676 ))(( 0.006387259417268588 0.0063993794541135 )( 0.006411499490958411 0.006423619527803323 ))))))(((((( 0.006435739564648235 0.006447859601493146 )( 0.006459979638338058 0.00647209967518297 ))(( 0.006484219712027881 0.006496339748872793 )( 0.006508459785717705 0.006520579822562616 )))((( 0.006532699859407528 0.00654481989625244 )( 0.0065569399330973515 0.006569059969942263 ))(( 0.006581180006787175 0.0065933000436320865 )( 0.006605420080476998 0.00661754011732191 ))))(((( 0.0066296601541668216 0.006641780191011733 )( 0.006653900227856645 0.006666020264701557 ))(( 0.006678140301546468 0.00669026033839138 )( 0.006702380375236292 0.006714500412081203 )))((( 0.006726620448926115 0.006738740485771027 )( 0.006750860522615938 0.00676298055946085 ))(( 0.006775100596305762 0.0067872206331506734 )( 0.006799340669995585 0.006811460706840497 )))))((((( 0.0068235807436854085 0.00683570078053032 )( 0.006847820817375232 0.0068599408542201435 ))(( 0.006872060891065055 0.006884180927909967 )( 0.006896300964754879 0.00690842100159979 )))((( 0.006920541038444702 0.006932661075289614 )( 0.006944781112134525 0.006956901148979437 ))(( 0.006969021185824349 0.00698114122266926 )( 0.006993261259514172 0.007005381296359084 ))))(((( 0.007017501333203995 0.007029621370048907 )( 0.007041741406893819 0.0070538614437387305 ))(( 0.007065981480583642 0.007078101517428554 )( 0.0070902215542734655 0.007102341591118377 )))((( 0.007114461627963289 0.0071265816648082006 )( 0.007138701701653112 0.007150821738498024 ))(( 0.007162941775342936 0.007175061812187847 )( 0.007187181849032759 0.007199301885877671 ))))))))(((((((( 0.007211421922722582 0.007223541959567494 )( 0.007235661996412406 0.007247782033257317 ))(( 0.007259902070102229 0.007272022106947141 )( 0.0072841421437920524 0.007296262180636964 )))((( 0.007308382217481876 0.0073205022543267875 )( 0.007332622291171699 0.007344742328016611 ))(( 0.0073568623648615225 0.007368982401706434 )( 0.007381102438551346 0.007393222475396258 ))))(((( 0.007405342512241169 0.007417462549086081 )( 0.007429582585930993 0.007441702622775904 ))(( 0.007453822659620816 0.007465942696465728 )( 0.007478062733310639 0.007490182770155551 )))((( 0.007502302807000463 0.007514422843845374 )( 0.007526542880690286 0.007538662917535198 ))(( 0.0075507829543801095 0.007562902991225021 )( 0.007575023028069933 0.0075871430649148445 )))))((((( 0.007599263101759756 0.007611383138604668 )( 0.00762350317544958 0.007635623212294491 ))(( 0.007647743249139403 0.007659863285984315 )( 0.007671983322829226 0.007684103359674138 )))((( 0.00769622339651905 0.007708343433363961 )( 0.007720463470208873 0.007732583507053785 ))(( 0.007744703543898696 0.007756823580743608 )( 0.00776894361758852 0.0077810636544334314 ))))(((( 0.007793183691278343 0.007805303728123255 )( 0.007817423764968167 0.007829543801813079 ))(( 0.00784166383865799 0.007853783875502902 )( 0.007865903912347814 0.007878023949192726 )))((( 0.007890143986037637 0.00790226402288255 )( 0.00791438405972746 0.007926504096572373 ))(( 0.007938624133417284 0.007950744170262196 )( 0.007962864207107108 0.00797498424395202 ))))))(((((( 0.007987104280796931 0.007999224317641843 )( 0.008011344354486754 0.008023464391331666 ))(( 0.008035584428176578 0.00804770446502149 )( 0.008059824501866401 0.008071944538711313 )))((( 0.008084064575556224 0.008096184612401136 )( 0.008108304649246048 0.00812042468609096 ))(( 0.008132544722935871 0.008144664759780783 )( 0.008156784796625694 0.008168904833470606 ))))(((( 0.008181024870315518 0.00819314490716043 )( 0.008205264944005341 0.008217384980850253 ))(( 0.008229505017695165 0.008241625054540076 )( 0.008253745091384988 0.0082658651282299 )))((( 0.008277985165074811 0.008290105201919723 )( 0.008302225238764635 0.008314345275609546 ))(( 0.008326465312454458 0.00833858534929937 )( 0.008350705386144281 0.008362825422989193 )))))((((( 0.008374945459834105 0.008387065496679016 )( 0.008399185533523928 0.00841130557036884 ))(( 0.008423425607213752 0.008435545644058663 )( 0.008447665680903575 0.008459785717748487 )))((( 0.008471905754593398 0.00848402579143831 )( 0.008496145828283222 0.008508265865128133 ))(( 0.008520385901973045 0.008532505938817957 )( 0.008544625975662868 0.00855674601250778 ))))(((( 0.008568866049352692 0.008580986086197603 )( 0.008593106123042515 0.008605226159887427 ))(( 0.008617346196732338 0.00862946623357725 )( 0.008641586270422162 0.008653706307267073 )))((( 0.008665826344111985 0.008677946380956897 )( 0.008690066417801809 0.00870218645464672 ))(( 0.008714306491491632 0.008726426528336544 )( 0.008738546565181455 0.008750666602026367 )))))))((((((( 0.008762786638871279 0.00877490667571619 )( 0.008787026712561102 0.008799146749406014 ))(( 0.008811266786250925 0.008823386823095837 )( 0.008835506859940749 0.00884762689678566 )))((( 0.008859746933630572 0.008871866970475484 )( 0.008883987007320395 0.008896107044165307 ))(( 0.008908227081010219 0.00892034711785513 )( 0.008932467154700042 0.008944587191544954 ))))(((( 0.008956707228389866 0.008968827265234777 )( 0.008980947302079689 0.0089930673389246 ))(( 0.009005187375769512 0.009017307412614424 )( 0.009029427449459336 0.009041547486304247 )))((( 0.009053667523149159 0.00906578755999407 )( 0.009077907596838982 0.009090027633683894 ))(( 0.009102147670528806 0.009114267707373717 )( 0.009126387744218629 0.00913850778106354 )))))((((( 0.009150627817908452 0.009162747854753364 )( 0.009174867891598276 0.009186987928443188 ))(( 0.0091991079652881 0.009211228002133011 )( 0.009223348038977923 0.009235468075822834 )))((( 0.009247588112667746 0.009259708149512658 )( 0.00927182818635757 0.009283948223202481 ))(( 0.009296068260047393 0.009308188296892304 )( 0.009320308333737216 0.009332428370582128 ))))(((( 0.00934454840742704 0.009356668444271951 )( 0.009368788481116863 0.009380908517961774 ))(( 0.009393028554806686 0.009405148591651598 )( 0.00941726862849651 0.009429388665341421 )))((( 0.009441508702186333 0.009453628739031245 )( 0.009465748775876156 0.009477868812721068 ))(( 0.00948998884956598 0.009502108886410891 )( 0.009514228923255803 0.009526348960100715 ))))))(((((( 0.009538468996945626 0.009550589033790538 )( 0.00956270907063545 0.009574829107480361 ))(( 0.009586949144325273 0.009599069181170185 )( 0.009611189218015096 0.009623309254860008 )))((( 0.00963542929170492 0.009647549328549831 )( 0.009659669365394743 0.009671789402239655 ))(( 0.009683909439084567 0.009696029475929478 )( 0.00970814951277439 0.009720269549619302 ))))(((( 0.009732389586464213 0.009744509623309125 )( 0.009756629660154037 0.009768749696998948 ))(( 0.00978086973384386 0.009792989770688772 )( 0.009805109807533683 0.009817229844378595 )))((( 0.009829349881223507 0.009841469918068418 )( 0.00985358995491333 0.009865709991758242 ))(( 0.009877830028603153 0.009889950065448065 )( 0.009902070102292977 0.009914190139137889 )))))((((( 0.0099263101759828 0.009938430212827712 )( 0.009950550249672624 0.009962670286517535 ))(( 0.009974790323362447 0.009986910360207359 )( 0.00999903039705227 0.010011150433897182 )))((( 0.010023270470742094 0.010035390507587005 )( 0.010047510544431917 0.010059630581276829 ))(( 0.01007175061812174 0.010083870654966652 )( 0.010095990691811564 0.010108110728656475 ))))(((( 0.010120230765501387 0.010132350802346299 )( 0.01014447083919121 0.010156590876036122 ))(( 0.010168710912881034 0.010180830949725946 )( 0.010192950986570857 0.010205071023415769 )))((( 0.01021719106026068 0.010229311097105592 )( 0.010241431133950504 0.010253551170795416 ))(( 0.010265671207640327 0.010277791244485239 )( 0.01028991128133015 0.010302031318175062 )))))))))((((((((( 0.010314151355019974 0.010326271391864886 )( 0.010338391428709797 0.010350511465554709 ))(( 0.01036263150239962 0.010374751539244532 )( 0.010386871576089444 0.010398991612934356 )))((( 0.010411111649779268 0.01042323168662418 )( 0.010435351723469091 0.010447471760314003 ))(( 0.010459591797158914 0.010471711834003826 )( 0.010483831870848738 0.01049595190769365 ))))(((( 0.010508071944538561 0.010520191981383473 )( 0.010532312018228384 0.010544432055073296 ))(( 0.010556552091918208 0.01056867212876312 )( 0.010580792165608031 0.010592912202452943 )))((( 0.010605032239297854 0.010617152276142766 )( 0.010629272312987678 0.01064139234983259 ))(( 0.010653512386677501 0.010665632423522413 )( 0.010677752460367325 0.010689872497212236 )))))((((( 0.010701992534057148 0.01071411257090206 )( 0.010726232607746971 0.010738352644591883 ))(( 0.010750472681436795 0.010762592718281706 )( 0.010774712755126618 0.01078683279197153 )))((( 0.010798952828816441 0.010811072865661353 )( 0.010823192902506265 0.010835312939351176 ))(( 0.010847432976196088 0.010859553013041 )( 0.010871673049885911 0.010883793086730823 ))))(((( 0.010895913123575735 0.010908033160420647 )( 0.010920153197265558 0.01093227323411047 ))(( 0.010944393270955382 0.010956513307800293 )( 0.010968633344645205 0.010980753381490117 )))((( 0.010992873418335028 0.01100499345517994 )( 0.011017113492024852 0.011029233528869763 ))(( 0.011041353565714675 0.011053473602559587 )( 0.011065593639404498 0.01107771367624941 ))))))(((((( 0.011089833713094322 0.011101953749939233 )( 0.011114073786784145 0.011126193823629057 ))(( 0.011138313860473969 0.01115043389731888 )( 0.011162553934163792 0.011174673971008704 )))((( 0.011186794007853615 0.011198914044698527 )( 0.011211034081543439 0.01122315411838835 ))(( 0.011235274155233262 0.011247394192078174 )( 0.011259514228923085 0.011271634265767997 ))))(((( 0.011283754302612909 0.01129587433945782 )( 0.011307994376302732 0.011320114413147644 ))(( 0.011332234449992555 0.011344354486837467 )( 0.011356474523682379 0.01136859456052729 )))((( 0.011380714597372202 0.011392834634217114 )( 0.011404954671062026 0.011417074707906937 ))(( 0.011429194744751849 0.01144131478159676 )( 0.011453434818441672 0.011465554855286584 )))))((((( 0.011477674892131496 0.011489794928976407 )( 0.011501914965821319 0.01151403500266623 ))(( 0.011526155039511142 0.011538275076356054 )( 0.011550395113200966 0.011562515150045877 )))((( 0.011574635186890789 0.0115867552237357 )( 0.011598875260580612 0.011610995297425524 ))(( 0.011623115334270436 0.011635235371115348 )( 0.01164735540796026 0.011659475444805171 ))))(((( 0.011671595481650083 0.011683715518494994 )( 0.011695835555339906 0.011707955592184818 ))(( 0.01172007562902973 0.011732195665874641 )( 0.011744315702719553 0.011756435739564464 )))((( 0.011768555776409376 0.011780675813254288 )( 0.0117927958500992 0.011804915886944111 ))(( 0.011817035923789023 0.011829155960633934 )( 0.011841275997478846 0.011853396034323758 )))))))((((((( 0.01186551607116867 0.011877636108013581 )( 0.011889756144858493 0.011901876181703405 ))(( 0.011913996218548316 0.011926116255393228 )( 0.01193823629223814 0.011950356329083051 )))((( 0.011962476365927963 0.011974596402772875 )( 0.011986716439617786 0.011998836476462698 ))(( 0.01201095651330761 0.012023076550152521 )( 0.012035196586997433 0.012047316623842345 ))))(((( 0.012059436660687256 0.012071556697532168 )( 0.01208367673437708 0.012095796771221991 ))(( 0.012107916808066903 0.012120036844911815 )( 0.012132156881756727 0.012144276918601638 )))((( 0.01215639695544655 0.012168516992291462 )( 0.012180637029136373 0.012192757065981285 ))(( 0.012204877102826197 0.012216997139671108 )( 0.01222911717651602 0.012241237213360932 )))))((((( 0.012253357250205843 0.012265477287050755 )( 0.012277597323895667 0.012289717360740578 ))(( 0.01230183739758549 0.012313957434430402 )( 0.012326077471275313 0.012338197508120225 )))((( 0.012350317544965137 0.012362437581810048 )( 0.01237455761865496 0.012386677655499872 ))(( 0.012398797692344784 0.012410917729189695 )( 0.012423037766034607 0.012435157802879519 ))))(((( 0.01244727783972443 0.012459397876569342 )( 0.012471517913414254 0.012483637950259165 ))(( 0.012495757987104077 0.012507878023948989 )( 0.0125199980607939 0.012532118097638812 )))((( 0.012544238134483724 0.012556358171328635 )( 0.012568478208173547 0.012580598245018459 ))(( 0.01259271828186337 0.012604838318708282 )( 0.012616958355553194 0.012629078392398106 ))))))(((((( 0.012641198429243017 0.012653318466087929 )( 0.01266543850293284 0.012677558539777752 ))(( 0.012689678576622664 0.012701798613467576 )( 0.012713918650312487 0.012726038687157399 )))((( 0.01273815872400231 0.012750278760847222 )( 0.012762398797692134 0.012774518834537046 ))(( 0.012786638871381957 0.012798758908226869 )( 0.01281087894507178 0.012822998981916692 ))))(((( 0.012835119018761604 0.012847239055606516 )( 0.012859359092451427 0.01287147912929634 ))(( 0.01288359916614125 0.012895719202986163 )( 0.012907839239831074 0.012919959276675986 )))((( 0.012932079313520898 0.01294419935036581 )( 0.012956319387210721 0.012968439424055633 ))(( 0.012980559460900544 0.012992679497745456 )( 0.013004799534590368 0.01301691957143528 )))))((((( 0.013029039608280191 0.013041159645125103 )( 0.013053279681970014 0.013065399718814926 ))(( 0.013077519755659838 0.01308963979250475 )( 0.013101759829349661 0.013113879866194573 )))((( 0.013125999903039485 0.013138119939884396 )( 0.013150239976729308 0.01316236001357422 ))(( 0.013174480050419131 0.013186600087264043 )( 0.013198720124108955 0.013210840160953866 ))))(((( 0.013222960197798778 0.01323508023464369 )( 0.013247200271488601 0.013259320308333513 ))(( 0.013271440345178425 0.013283560382023336 )( 0.013295680418868248 0.01330780045571316 )))((( 0.013319920492558071 0.013332040529402983 )( 0.013344160566247895 0.013356280603092806 ))(( 0.013368400639937718 0.01338052067678263 )( 0.013392640713627542 0.013404760750472453 ))))))))(((((((( 0.013416880787317365 0.013429000824162277 )( 0.013441120861007188 0.0134532408978521 ))(( 0.013465360934697012 0.013477480971541923 )( 0.013489601008386835 0.013501721045231747 )))((( 0.013513841082076658 0.01352596111892157 )( 0.013538081155766482 0.013550201192611393 ))(( 0.013562321229456305 0.013574441266301217 )( 0.013586561303146128 0.01359868133999104 ))))(((( 0.013610801376835952 0.013622921413680864 )( 0.013635041450525775 0.013647161487370687 ))(( 0.013659281524215599 0.01367140156106051 )( 0.013683521597905422 0.013695641634750334 )))((( 0.013707761671595245 0.013719881708440157 )( 0.013732001745285069 0.01374412178212998 ))(( 0.013756241818974892 0.013768361855819804 )( 0.013780481892664715 0.013792601929509627 )))))((((( 0.013804721966354539 0.01381684200319945 )( 0.013828962040044362 0.013841082076889274 ))(( 0.013853202113734185 0.013865322150579097 )( 0.013877442187424009 0.01388956222426892 )))((( 0.013901682261113832 0.013913802297958744 )( 0.013925922334803656 0.013938042371648567 ))(( 0.013950162408493479 0.01396228244533839 )( 0.013974402482183302 0.013986522519028214 ))))(((( 0.013998642555873126 0.014010762592718037 )( 0.014022882629562949 0.01403500266640786 ))(( 0.014047122703252772 0.014059242740097684 )( 0.014071362776942596 0.014083482813787507 )))((( 0.01409560285063242 0.01410772288747733 )( 0.014119842924322243 0.014131962961167154 ))(( 0.014144082998012066 0.014156203034856978 )( 0.01416832307170189 0.014180443108546801 ))))))(((((( 0.014192563145391713 0.014204683182236624 )( 0.014216803219081536 0.014228923255926448 ))(( 0.01424104329277136 0.014253163329616271 )( 0.014265283366461183 0.014277403403306094 )))((( 0.014289523440151006 0.014301643476995918 )( 0.01431376351384083 0.014325883550685741 ))(( 0.014338003587530653 0.014350123624375564 )( 0.014362243661220476 0.014374363698065388 ))))(((( 0.0143864837349103 0.014398603771755211 )( 0.014410723808600123 0.014422843845445035 ))(( 0.014434963882289946 0.014447083919134858 )( 0.01445920395597977 0.014471323992824681 )))((( 0.014483444029669593 0.014495564066514505 )( 0.014507684103359416 0.014519804140204328 ))(( 0.01453192417704924 0.014544044213894151 )( 0.014556164250739063 0.014568284287583975 )))))((((( 0.014580404324428886 0.014592524361273798 )( 0.01460464439811871 0.014616764434963622 ))(( 0.014628884471808533 0.014641004508653445 )( 0.014653124545498357 0.014665244582343268 )))((( 0.01467736461918818 0.014689484656033092 )( 0.014701604692878003 0.014713724729722915 ))(( 0.014725844766567827 0.014737964803412738 )( 0.01475008484025765 0.014762204877102562 ))))(((( 0.014774324913947473 0.014786444950792385 )( 0.014798564987637297 0.014810685024482208 ))(( 0.01482280506132712 0.014834925098172032 )( 0.014847045135016943 0.014859165171861855 )))((( 0.014871285208706767 0.014883405245551679 )( 0.01489552528239659 0.014907645319241502 ))(( 0.014919765356086414 0.014931885392931325 )( 0.014944005429776237 0.014956125466621149 )))))))((((((( 0.01496824550346606 0.014980365540310972 )( 0.014992485577155884 0.015004605614000795 ))(( 0.015016725650845707 0.015028845687690619 )( 0.01504096572453553 0.015053085761380442 )))((( 0.015065205798225354 0.015077325835070265 )( 0.015089445871915177 0.015101565908760089 ))(( 0.015113685945605 0.015125805982449912 )( 0.015137926019294824 0.015150046056139736 ))))(((( 0.015162166092984647 0.015174286129829559 )( 0.01518640616667447 0.015198526203519382 ))(( 0.015210646240364294 0.015222766277209206 )( 0.015234886314054117 0.015247006350899029 )))((( 0.01525912638774394 0.015271246424588852 )( 0.015283366461433764 0.015295486498278676 ))(( 0.015307606535123587 0.015319726571968499 )( 0.01533184660881341 0.015343966645658322 )))))((((( 0.015356086682503234 0.015368206719348146 )( 0.015380326756193058 0.01539244679303797 ))(( 0.015404566829882881 0.015416686866727793 )( 0.015428806903572704 0.015440926940417616 )))((( 0.015453046977262528 0.01546516701410744 )( 0.015477287050952351 0.015489407087797263 ))(( 0.015501527124642174 0.015513647161487086 )( 0.015525767198331998 0.01553788723517691 ))))(((( 0.015550007272021821 0.015562127308866733 )( 0.015574247345711644 0.015586367382556556 ))(( 0.015598487419401468 0.01561060745624638 )( 0.015622727493091291 0.015634847529936203 )))((( 0.015646967566781116 0.01565908760362603 )( 0.015671207640470943 0.015683327677315857 ))(( 0.01569544771416077 0.015707567751005683 )( 0.015719687787850597 0.01573180782469551 ))))))(((((( 0.015743927861540424 0.015756047898385337 )( 0.01576816793523025 0.015780287972075164 ))(( 0.015792408008920077 0.01580452804576499 )( 0.015816648082609904 0.015828768119454818 )))((( 0.01584088815629973 0.015853008193144644 )( 0.015865128229989558 0.01587724826683447 ))(( 0.015889368303679385 0.015901488340524298 )( 0.01591360837736921 0.015925728414214125 ))))(((( 0.01593784845105904 0.015949968487903952 )( 0.015962088524748865 0.01597420856159378 ))(( 0.015986328598438692 0.015998448635283605 )( 0.01601056867212852 0.016022688708973432 )))((( 0.016034808745818346 0.01604692878266326 )( 0.016059048819508173 0.016071168856353086 ))(( 0.016083288893198 0.016095408930042913 )( 0.016107528966887826 0.01611964900373274 )))))((((( 0.016131769040577653 0.016143889077422566 )( 0.01615600911426748 0.016168129151112393 ))(( 0.016180249187957307 0.01619236922480222 )( 0.016204489261647134 0.016216609298492047 )))((( 0.01622872933533696 0.016240849372181874 )( 0.016252969409026787 0.0162650894458717 ))(( 0.016277209482716614 0.016289329519561527 )( 0.01630144955640644 0.016313569593251354 ))))(((( 0.016325689630096268 0.01633780966694118 )( 0.016349929703786095 0.016362049740631008 ))(( 0.01637416977747592 0.016386289814320835 )( 0.016398409851165748 0.01641052988801066 )))((( 0.016422649924855575 0.01643476996170049 )( 0.016446889998545402 0.016459010035390315 ))(( 0.01647113007223523 0.016483250109080142 )( 0.016495370145925056 0.01650749018276997 ))))))))))(((((((((( 0.016519610219614882 0.016531730256459796 )( 0.01654385029330471 0.016555970330149623 ))(( 0.016568090366994536 0.01658021040383945 )( 0.016592330440684363 0.016604450477529276 )))((( 0.01661657051437419 0.016628690551219103 )( 0.016640810588064017 0.01665293062490893 ))(( 0.016665050661753843 0.016677170698598757 )( 0.01668929073544367 0.016701410772288584 ))))(((( 0.016713530809133497 0.01672565084597841 )( 0.016737770882823324 0.016749890919668237 ))(( 0.01676201095651315 0.016774130993358064 )( 0.016786251030202978 0.01679837106704789 )))((( 0.016810491103892804 0.016822611140737718 )( 0.01683473117758263 0.016846851214427545 ))(( 0.016858971251272458 0.01687109128811737 )( 0.016883211324962285 0.0168953313618072 )))))((((( 0.016907451398652112 0.016919571435497025 )( 0.01693169147234194 0.016943811509186852 ))(( 0.016955931546031765 0.01696805158287668 )( 0.016980171619721592 0.016992291656566506 )))((( 0.01700441169341142 0.017016531730256333 )( 0.017028651767101246 0.01704077180394616 ))(( 0.017052891840791073 0.017065011877635986 )( 0.0170771319144809 0.017089251951325813 ))))(((( 0.017101371988170726 0.01711349202501564 )( 0.017125612061860553 0.017137732098705467 ))(( 0.01714985213555038 0.017161972172395294 )( 0.017174092209240207 0.01718621224608512 )))((( 0.017198332282930034 0.017210452319774947 )( 0.01722257235661986 0.017234692393464774 ))(( 0.017246812430309687 0.0172589324671546 )( 0.017271052503999514 0.017283172540844428 ))))))(((((( 0.01729529257768934 0.017307412614534255 )( 0.017319532651379168 0.01733165268822408 ))(( 0.017343772725068995 0.017355892761913908 )( 0.01736801279875882 0.017380132835603735 )))((( 0.01739225287244865 0.017404372909293562 )( 0.017416492946138475 0.01742861298298339 ))(( 0.017440733019828302 0.017452853056673216 )( 0.01746497309351813 0.017477093130363042 ))))(((( 0.017489213167207956 0.01750133320405287 )( 0.017513453240897783 0.017525573277742696 ))(( 0.01753769331458761 0.017549813351432523 )( 0.017561933388277436 0.01757405342512235 )))((( 0.017586173461967263 0.017598293498812177 )( 0.01761041353565709 0.017622533572502003 ))(( 0.017634653609346917 0.01764677364619183 )( 0.017658893683036744 0.017671013719881657 )))))((((( 0.01768313375672657 0.017695253793571484 )( 0.017707373830416397 0.01771949386726131 ))(( 0.017731613904106224 0.017743733940951138 )( 0.01775585397779605 0.017767974014640964 )))((( 0.017780094051485878 0.01779221408833079 )( 0.017804334125175705 0.017816454162020618 ))(( 0.01782857419886553 0.017840694235710445 )( 0.01785281427255536 0.017864934309400272 ))))(((( 0.017877054346245185 0.0178891743830901 )( 0.017901294419935012 0.017913414456779925 ))(( 0.01792553449362484 0.017937654530469752 )( 0.017949774567314666 0.01796189460415958 )))((( 0.017974014641004493 0.017986134677849406 )( 0.01799825471469432 0.018010374751539233 ))(( 0.018022494788384146 0.01803461482522906 )( 0.018046734862073973 0.018058854898918886 )))))))((((((( 0.0180709749357638 0.018083094972608713 )( 0.018095215009453627 0.01810733504629854 ))(( 0.018119455083143454 0.018131575119988367 )( 0.01814369515683328 0.018155815193678194 )))((( 0.018167935230523107 0.01818005526736802 )( 0.018192175304212934 0.018204295341057847 ))(( 0.01821641537790276 0.018228535414747674 )( 0.018240655451592588 0.0182527754884375 ))))(((( 0.018264895525282415 0.018277015562127328 )( 0.01828913559897224 0.018301255635817155 ))(( 0.018313375672662068 0.01832549570950698 )( 0.018337615746351895 0.01834973578319681 )))((( 0.018361855820041722 0.018373975856886635 )( 0.01838609589373155 0.018398215930576462 ))(( 0.018410335967421376 0.01842245600426629 )( 0.018434576041111202 0.018446696077956116 )))))((((( 0.01845881611480103 0.018470936151645943 )( 0.018483056188490856 0.01849517622533577 ))(( 0.018507296262180683 0.018519416299025596 )( 0.01853153633587051 0.018543656372715423 )))((( 0.018555776409560337 0.01856789644640525 )( 0.018580016483250163 0.018592136520095077 ))(( 0.01860425655693999 0.018616376593784904 )( 0.018628496630629817 0.01864061666747473 ))))(((( 0.018652736704319644 0.018664856741164557 )( 0.01867697677800947 0.018689096814854384 ))(( 0.018701216851699298 0.01871333688854421 )( 0.018725456925389124 0.018737576962234038 )))((( 0.01874969699907895 0.018761817035923865 )( 0.018773937072768778 0.01878605710961369 ))(( 0.018798177146458605 0.01881029718330352 )( 0.018822417220148432 0.018834537256993345 ))))))(((((( 0.01884665729383826 0.018858777330683172 )( 0.018870897367528085 0.018883017404373 ))(( 0.018895137441217912 0.018907257478062826 )( 0.01891937751490774 0.018931497551752653 )))((( 0.018943617588597566 0.01895573762544248 )( 0.018967857662287393 0.018979977699132306 ))(( 0.01899209773597722 0.019004217772822133 )( 0.019016337809667046 0.01902845784651196 ))))(((( 0.019040577883356873 0.019052697920201787 )( 0.0190648179570467 0.019076937993891614 ))(( 0.019089058030736527 0.01910117806758144 )( 0.019113298104426354 0.019125418141271267 )))((( 0.01913753817811618 0.019149658214961094 )( 0.019161778251806007 0.01917389828865092 ))(( 0.019186018325495834 0.019198138362340748 )( 0.01921025839918566 0.019222378436030575 )))))((((( 0.019234498472875488 0.0192466185097204 )( 0.019258738546565315 0.019270858583410228 ))(( 0.01928297862025514 0.019295098657100055 )( 0.01930721869394497 0.019319338730789882 )))((( 0.019331458767634795 0.01934357880447971 )( 0.019355698841324622 0.019367818878169536 ))(( 0.01937993891501445 0.019392058951859362 )( 0.019404178988704276 0.01941629902554919 ))))(((( 0.019428419062394103 0.019440539099239016 )( 0.01945265913608393 0.019464779172928843 ))(( 0.019476899209773756 0.01948901924661867 )( 0.019501139283463583 0.019513259320308497 )))((( 0.01952537935715341 0.019537499393998323 )( 0.019549619430843237 0.01956173946768815 ))(( 0.019573859504533064 0.019585979541377977 )( 0.01959809957822289 0.019610219615067804 ))))))))(((((((( 0.019622339651912717 0.01963445968875763 )( 0.019646579725602544 0.019658699762447458 ))(( 0.01967081979929237 0.019682939836137284 )( 0.019695059872982198 0.01970717990982711 )))((( 0.019719299946672025 0.019731419983516938 )( 0.01974354002036185 0.019755660057206765 ))(( 0.01976778009405168 0.019779900130896592 )( 0.019792020167741505 0.01980414020458642 ))))(((( 0.019816260241431332 0.019828380278276245 )( 0.01984050031512116 0.019852620351966072 ))(( 0.019864740388810986 0.0198768604256559 )( 0.019888980462500813 0.019901100499345726 )))((( 0.01991322053619064 0.019925340573035553 )( 0.019937460609880466 0.01994958064672538 ))(( 0.019961700683570293 0.019973820720415206 )( 0.01998594075726012 0.019998060794105033 )))))((((( 0.020010180830949947 0.02002230086779486 )( 0.020034420904639774 0.020046540941484687 ))(( 0.0200586609783296 0.020070781015174514 )( 0.020082901052019427 0.02009502108886434 )))((( 0.020107141125709254 0.020119261162554167 )( 0.02013138119939908 0.020143501236243994 ))(( 0.020155621273088908 0.02016774130993382 )( 0.020179861346778735 0.020191981383623648 ))))(((( 0.02020410142046856 0.020216221457313475 )( 0.020228341494158388 0.0202404615310033 ))(( 0.020252581567848215 0.02026470160469313 )( 0.020276821641538042 0.020288941678382955 )))((( 0.02030106171522787 0.020313181752072782 )( 0.020325301788917696 0.02033742182576261 ))(( 0.020349541862607522 0.020361661899452436 )( 0.02037378193629735 0.020385901973142263 ))))))(((((( 0.020398022009987176 0.02041014204683209 )( 0.020422262083677003 0.020434382120521916 ))(( 0.02044650215736683 0.020458622194211743 )( 0.020470742231056657 0.02048286226790157 )))((( 0.020494982304746483 0.020507102341591397 )( 0.02051922237843631 0.020531342415281224 ))(( 0.020543462452126137 0.02055558248897105 )( 0.020567702525815964 0.020579822562660877 ))))(((( 0.02059194259950579 0.020604062636350704 )( 0.020616182673195618 0.02062830271004053 ))(( 0.020640422746885444 0.020652542783730358 )( 0.02066466282057527 0.020676782857420185 )))((( 0.020688902894265098 0.02070102293111001 )( 0.020713142967954925 0.02072526300479984 ))(( 0.020737383041644752 0.020749503078489665 )( 0.02076162311533458 0.020773743152179492 )))))((((( 0.020785863189024405 0.02079798322586932 )( 0.020810103262714232 0.020822223299559146 ))(( 0.02083434333640406 0.020846463373248973 )( 0.020858583410093886 0.0208707034469388 )))((( 0.020882823483783713 0.020894943520628626 )( 0.02090706355747354 0.020919183594318453 ))(( 0.020931303631163366 0.02094342366800828 )( 0.020955543704853193 0.020967663741698107 ))))(((( 0.02097978377854302 0.020991903815387934 )( 0.021004023852232847 0.02101614388907776 ))(( 0.021028263925922674 0.021040383962767587 )( 0.0210525039996125 0.021064624036457414 )))((( 0.021076744073302327 0.02108886411014724 )( 0.021100984146992154 0.021113104183837068 ))(( 0.02112522422068198 0.021137344257526895 )( 0.021149464294371808 0.02116158433121672 )))))))((((((( 0.021173704368061635 0.021185824404906548 )( 0.02119794444175146 0.021210064478596375 ))(( 0.02122218451544129 0.021234304552286202 )( 0.021246424589131115 0.02125854462597603 )))((( 0.021270664662820942 0.021282784699665856 )( 0.02129490473651077 0.021307024773355682 ))(( 0.021319144810200596 0.02133126484704551 )( 0.021343384883890423 0.021355504920735336 ))))(((( 0.02136762495758025 0.021379744994425163 )( 0.021391865031270076 0.02140398506811499 ))(( 0.021416105104959903 0.021428225141804817 )( 0.02144034517864973 0.021452465215494643 )))((( 0.021464585252339557 0.02147670528918447 )( 0.021488825326029384 0.021500945362874297 ))(( 0.02151306539971921 0.021525185436564124 )( 0.021537305473409037 0.02154942551025395 )))))((((( 0.021561545547098864 0.021573665583943778 )( 0.02158578562078869 0.021597905657633604 ))(( 0.021610025694478518 0.02162214573132343 )( 0.021634265768168345 0.021646385805013258 )))((( 0.02165850584185817 0.021670625878703085 )( 0.021682745915548 0.021694865952392912 ))(( 0.021706985989237825 0.02171910602608274 )( 0.021731226062927652 0.021743346099772565 ))))(((( 0.02175546613661748 0.021767586173462392 )( 0.021779706210307306 0.02179182624715222 ))(( 0.021803946283997132 0.021816066320842046 )( 0.02182818635768696 0.021840306394531873 )))((( 0.021852426431376786 0.0218645464682217 )( 0.021876666505066613 0.021888786541911526 ))(( 0.02190090657875644 0.021913026615601353 )( 0.021925146652446267 0.02193726668929118 ))))))(((((( 0.021949386726136094 0.021961506762981007 )( 0.02197362679982592 0.021985746836670834 ))(( 0.021997866873515747 0.02200998691036066 )( 0.022022106947205574 0.022034226984050487 )))((( 0.0220463470208954 0.022058467057740314 )( 0.022070587094585228 0.02208270713143014 ))(( 0.022094827168275055 0.022106947205119968 )( 0.02211906724196488 0.022131187278809795 ))))(((( 0.022143307315654708 0.02215542735249962 )( 0.022167547389344535 0.02217966742618945 ))(( 0.022191787463034362 0.022203907499879275 )( 0.02221602753672419 0.022228147573569102 )))((( 0.022240267610414016 0.02225238764725893 )( 0.022264507684103842 0.022276627720948756 ))(( 0.02228874775779367 0.022300867794638583 )( 0.022312987831483496 0.02232510786832841 )))))((((( 0.022337227905173323 0.022349347942018236 )( 0.02236146797886315 0.022373588015708063 ))(( 0.022385708052552977 0.02239782808939789 )( 0.022409948126242803 0.022422068163087717 )))((( 0.02243418819993263 0.022446308236777544 )( 0.022458428273622457 0.02247054831046737 ))(( 0.022482668347312284 0.022494788384157197 )( 0.02250690842100211 0.022519028457847024 ))))(((( 0.022531148494691938 0.02254326853153685 )( 0.022555388568381764 0.022567508605226678 ))(( 0.02257962864207159 0.022591748678916505 )( 0.022603868715761418 0.02261598875260633 )))((( 0.022628108789451245 0.02264022882629616 )( 0.022652348863141072 0.022664468899985985 ))(( 0.0226765889368309 0.022688708973675812 )( 0.022700829010520725 0.02271294904736564 )))))))))((((((((( 0.022725069084210552 0.022737189121055466 )( 0.02274930915790038 0.022761429194745292 ))(( 0.022773549231590206 0.02278566926843512 )( 0.022797789305280033 0.022809909342124946 )))((( 0.02282202937896986 0.022834149415814773 )( 0.022846269452659686 0.0228583894895046 ))(( 0.022870509526349513 0.022882629563194427 )( 0.02289474960003934 0.022906869636884254 ))))(((( 0.022918989673729167 0.02293110971057408 )( 0.022943229747418994 0.022955349784263907 ))(( 0.02296746982110882 0.022979589857953734 )( 0.022991709894798647 0.02300382993164356 )))((( 0.023015949968488474 0.023028070005333388 )( 0.0230401900421783 0.023052310079023215 ))(( 0.023064430115868128 0.02307655015271304 )( 0.023088670189557955 0.023100790226402868 )))))((((( 0.02311291026324778 0.023125030300092695 )( 0.02313715033693761 0.023149270373782522 ))(( 0.023161390410627435 0.02317351044747235 )( 0.023185630484317262 0.023197750521162176 )))((( 0.02320987055800709 0.023221990594852002 )( 0.023234110631696916 0.02324623066854183 ))(( 0.023258350705386743 0.023270470742231656 )( 0.02328259077907657 0.023294710815921483 ))))(((( 0.023306830852766396 0.02331895088961131 )( 0.023331070926456223 0.023343190963301137 ))(( 0.02335531100014605 0.023367431036990963 )( 0.023379551073835877 0.02339167111068079 )))((( 0.023403791147525704 0.023415911184370617 )( 0.02342803122121553 0.023440151258060444 ))(( 0.023452271294905357 0.02346439133175027 )( 0.023476511368595184 0.023488631405440098 ))))))(((((( 0.02350075144228501 0.023512871479129924 )( 0.023524991515974838 0.02353711155281975 ))(( 0.023549231589664665 0.023561351626509578 )( 0.02357347166335449 0.023585591700199405 )))((( 0.02359771173704432 0.023609831773889232 )( 0.023621951810734145 0.02363407184757906 ))(( 0.023646191884423972 0.023658311921268885 )( 0.0236704319581138 0.023682551994958712 ))))(((( 0.023694672031803626 0.02370679206864854 )( 0.023718912105493452 0.023731032142338366 ))(( 0.02374315217918328 0.023755272216028193 )( 0.023767392252873106 0.02377951228971802 )))((( 0.023791632326562933 0.023803752363407846 )( 0.02381587240025276 0.023827992437097673 ))(( 0.023840112473942587 0.0238522325107875 )( 0.023864352547632414 0.023876472584477327 )))))((((( 0.02388859262132224 0.023900712658167154 )( 0.023912832695012067 0.02392495273185698 ))(( 0.023937072768701894 0.023949192805546807 )( 0.02396131284239172 0.023973432879236634 )))((( 0.023985552916081548 0.02399767295292646 )( 0.024009792989771375 0.024021913026616288 ))(( 0.0240340330634612 0.024046153100306115 )( 0.024058273137151028 0.02407039317399594 ))))(((( 0.024082513210840855 0.02409463324768577 )( 0.024106753284530682 0.024118873321375595 ))(( 0.02413099335822051 0.024143113395065422 )( 0.024155233431910336 0.02416735346875525 )))((( 0.024179473505600162 0.024191593542445076 )( 0.02420371357928999 0.024215833616134903 ))(( 0.024227953652979816 0.02424007368982473 )( 0.024252193726669643 0.024264313763514556 )))))))((((((( 0.02427643380035947 0.024288553837204383 )( 0.024300673874049297 0.02431279391089421 ))(( 0.024324913947739123 0.024337033984584037 )( 0.02434915402142895 0.024361274058273864 )))((( 0.024373394095118777 0.02438551413196369 )( 0.024397634168808604 0.024409754205653517 ))(( 0.02442187424249843 0.024433994279343344 )( 0.024446114316188258 0.02445823435303317 ))))(((( 0.024470354389878084 0.024482474426722998 )( 0.02449459446356791 0.024506714500412825 ))(( 0.024518834537257738 0.02453095457410265 )( 0.024543074610947565 0.02455519464779248 )))((( 0.024567314684637392 0.024579434721482305 )( 0.02459155475832722 0.024603674795172132 ))(( 0.024615794832017045 0.02462791486886196 )( 0.024640034905706872 0.024652154942551786 )))))((((( 0.0246642749793967 0.024676395016241612 )( 0.024688515053086526 0.02470063508993144 ))(( 0.024712755126776353 0.024724875163621266 )( 0.02473699520046618 0.024749115237311093 )))((( 0.024761235274156006 0.02477335531100092 )( 0.024785475347845833 0.024797595384690747 ))(( 0.02480971542153566 0.024821835458380574 )( 0.024833955495225487 0.0248460755320704 ))))(((( 0.024858195568915314 0.024870315605760227 )( 0.02488243564260514 0.024894555679450054 ))(( 0.024906675716294967 0.02491879575313988 )( 0.024930915789984794 0.024943035826829708 )))((( 0.02495515586367462 0.024967275900519535 )( 0.024979395937364448 0.02499151597420936 ))(( 0.025003636011054275 0.025015756047899188 )( 0.0250278760847441 0.025039996121589015 ))))))(((((( 0.02505211615843393 0.025064236195278842 )( 0.025076356232123755 0.02508847626896867 ))(( 0.025100596305813582 0.025112716342658496 )( 0.02512483637950341 0.025136956416348322 )))((( 0.025149076453193236 0.02516119649003815 )( 0.025173316526883063 0.025185436563727976 ))(( 0.02519755660057289 0.025209676637417803 )( 0.025221796674262716 0.02523391671110763 ))))(((( 0.025246036747952543 0.025258156784797457 )( 0.02527027682164237 0.025282396858487283 ))(( 0.025294516895332197 0.02530663693217711 )( 0.025318756969022024 0.025330877005866937 )))((( 0.02534299704271185 0.025355117079556764 )( 0.025367237116401677 0.02537935715324659 ))(( 0.025391477190091504 0.025403597226936418 )( 0.02541571726378133 0.025427837300626244 )))))((((( 0.025439957337471158 0.02545207737431607 )( 0.025464197411160985 0.025476317448005898 ))(( 0.02548843748485081 0.025500557521695725 )( 0.02551267755854064 0.025524797595385552 )))((( 0.025536917632230465 0.02554903766907538 )( 0.025561157705920292 0.025573277742765205 ))(( 0.02558539777961012 0.025597517816455032 )( 0.025609637853299946 0.02562175789014486 ))))(((( 0.025633877926989772 0.025645997963834686 )( 0.0256581180006796 0.025670238037524513 ))(( 0.025682358074369426 0.02569447811121434 )( 0.025706598148059253 0.025718718184904166 )))((( 0.02573083822174908 0.025742958258593993 )( 0.025755078295438907 0.02576719833228382 ))(( 0.025779318369128734 0.025791438405973647 )( 0.02580355844281856 0.025815678479663474 ))))))))(((((((( 0.025827798516508387 0.0258399185533533 )( 0.025852038590198214 0.025864158627043127 ))(( 0.02587627866388804 0.025888398700732954 )( 0.025900518737577868 0.02591263877442278 )))((( 0.025924758811267695 0.025936878848112608 )( 0.02594899888495752 0.025961118921802435 ))(( 0.025973238958647348 0.02598535899549226 )( 0.025997479032337175 0.02600959906918209 ))))(((( 0.026021719106027002 0.026033839142871915 )( 0.02604595917971683 0.026058079216561742 ))(( 0.026070199253406656 0.02608231929025157 )( 0.026094439327096482 0.026106559363941396 )))((( 0.02611867940078631 0.026130799437631223 )( 0.026142919474476136 0.02615503951132105 ))(( 0.026167159548165963 0.026179279585010876 )( 0.02619139962185579 0.026203519658700703 )))))((((( 0.026215639695545617 0.02622775973239053 )( 0.026239879769235443 0.026251999806080357 ))(( 0.02626411984292527 0.026276239879770184 )( 0.026288359916615097 0.02630047995346001 )))((( 0.026312599990304924 0.026324720027149837 )( 0.02633684006399475 0.026348960100839664 ))(( 0.026361080137684578 0.02637320017452949 )( 0.026385320211374404 0.026397440248219318 ))))(((( 0.02640956028506423 0.026421680321909145 )( 0.026433800358754058 0.02644592039559897 ))(( 0.026458040432443885 0.0264701604692888 )( 0.02648228050613371 0.026494400542978625 )))((( 0.02650652057982354 0.026518640616668452 )( 0.026530760653513365 0.02654288069035828 ))(( 0.026555000727203192 0.026567120764048106 )( 0.02657924080089302 0.026591360837737932 ))))))(((((( 0.026603480874582846 0.02661560091142776 )( 0.026627720948272673 0.026639840985117586 ))(( 0.0266519610219625 0.026664081058807413 )( 0.026676201095652326 0.02668832113249724 )))((( 0.026700441169342153 0.026712561206187067 )( 0.02672468124303198 0.026736801279876894 ))(( 0.026748921316721807 0.02676104135356672 )( 0.026773161390411634 0.026785281427256547 ))))(((( 0.02679740146410146 0.026809521500946374 )( 0.026821641537791287 0.0268337615746362 ))(( 0.026845881611481114 0.026858001648326028 )( 0.02687012168517094 0.026882241722015855 )))((( 0.026894361758860768 0.02690648179570568 )( 0.026918601832550595 0.026930721869395508 ))(( 0.02694284190624042 0.026954961943085335 )( 0.02696708197993025 0.026979202016775162 )))))((((( 0.026991322053620075 0.02700344209046499 )( 0.027015562127309902 0.027027682164154816 ))(( 0.02703980220099973 0.027051922237844642 )( 0.027064042274689556 0.02707616231153447 )))((( 0.027088282348379383 0.027100402385224296 )( 0.02711252242206921 0.027124642458914123 ))(( 0.027136762495759036 0.02714888253260395 )( 0.027161002569448863 0.027173122606293777 ))))(((( 0.02718524264313869 0.027197362679983603 )( 0.027209482716828517 0.02722160275367343 ))(( 0.027233722790518344 0.027245842827363257 )( 0.02725796286420817 0.027270082901053084 )))((( 0.027282202937897997 0.02729432297474291 )( 0.027306443011587824 0.027318563048432738 ))(( 0.02733068308527765 0.027342803122122564 )( 0.027354923158967478 0.02736704319581239 )))))))((((((( 0.027379163232657305 0.027391283269502218 )( 0.02740340330634713 0.027415523343192045 ))(( 0.02742764338003696 0.02743976341688187 )( 0.027451883453726785 0.0274640034905717 )))((( 0.027476123527416612 0.027488243564261525 )( 0.02750036360110644 0.027512483637951352 ))(( 0.027524603674796266 0.02753672371164118 )( 0.027548843748486092 0.027560963785331006 ))))(((( 0.02757308382217592 0.027585203859020833 )( 0.027597323895865746 0.02760944393271066 ))(( 0.027621563969555573 0.027633684006400486 )( 0.0276458040432454 0.027657924080090313 )))((( 0.027670044116935227 0.02768216415378014 )( 0.027694284190625054 0.027706404227469967 ))(( 0.02771852426431488 0.027730644301159794 )( 0.027742764338004707 0.02775488437484962 )))))((((( 0.027767004411694534 0.027779124448539447 )( 0.02779124448538436 0.027803364522229274 ))(( 0.027815484559074188 0.0278276045959191 )( 0.027839724632764015 0.027851844669608928 )))((( 0.02786396470645384 0.027876084743298755 )( 0.027888204780143668 0.02790032481698858 ))(( 0.027912444853833495 0.02792456489067841 )( 0.027936684927523322 0.027948804964368235 ))))(((( 0.02796092500121315 0.027973045038058062 )( 0.027985165074902976 0.02799728511174789 ))(( 0.028009405148592802 0.028021525185437716 )( 0.02803364522228263 0.028045765259127543 )))((( 0.028057885295972456 0.02807000533281737 )( 0.028082125369662283 0.028094245406507196 ))(( 0.02810636544335211 0.028118485480197023 )( 0.028130605517041937 0.02814272555388685 ))))))(((((( 0.028154845590731763 0.028166965627576677 )( 0.02817908566442159 0.028191205701266504 ))(( 0.028203325738111417 0.02821544577495633 )( 0.028227565811801244 0.028239685848646157 )))((( 0.02825180588549107 0.028263925922335984 )( 0.028276045959180898 0.02828816599602581 ))(( 0.028300286032870724 0.028312406069715638 )( 0.02832452610656055 0.028336646143405465 ))))(((( 0.028348766180250378 0.02836088621709529 )( 0.028373006253940205 0.02838512629078512 ))(( 0.02839724632763003 0.028409366364474945 )( 0.02842148640131986 0.028433606438164772 )))((( 0.028445726475009685 0.0284578465118546 )( 0.028469966548699512 0.028482086585544426 ))(( 0.02849420662238934 0.028506326659234252 )( 0.028518446696079166 0.02853056673292408 )))))((((( 0.028542686769768993 0.028554806806613906 )( 0.02856692684345882 0.028579046880303733 ))(( 0.028591166917148646 0.02860328695399356 )( 0.028615406990838473 0.028627527027683387 )))((( 0.0286396470645283 0.028651767101373214 )( 0.028663887138218127 0.02867600717506304 ))(( 0.028688127211907954 0.028700247248752867 )( 0.02871236728559778 0.028724487322442694 ))))(((( 0.028736607359287607 0.02874872739613252 )( 0.028760847432977434 0.028772967469822348 ))(( 0.02878508750666726 0.028797207543512175 )( 0.028809327580357088 0.028821447617202 )))((( 0.028833567654046915 0.028845687690891828 )( 0.02885780772773674 0.028869927764581655 ))(( 0.02888204780142657 0.028894167838271482 )( 0.028906287875116395 0.02891840791196131 )))))))))));
}
potential ( node24 | node4 node5 node7 node9 node11 node16 node18 node20 node21 node22 )
{
data = ((((((((((( 0.028930527948806222 0.028942647985651136 )( 0.02895476802249605 0.028966888059340962 ))(( 0.028979008096185876 0.02899112813303079 )( 0.029003248169875703 0.029015368206720616 )))((( 0.02902748824356553 0.029039608280410443 )( 0.029051728317255356 0.02906384835410027 ))(( 0.029075968390945183 0.029088088427790097 )( 0.02910020846463501 0.029112328501479923 ))))(((( 0.029124448538324837 0.02913656857516975 )( 0.029148688612014664 0.029160808648859577 ))(( 0.02917292868570449 0.029185048722549404 )( 0.029197168759394317 0.02920928879623923 )))((( 0.029221408833084144 0.029233528869929058 )( 0.02924564890677397 0.029257768943618884 ))(( 0.029269888980463798 0.02928200901730871 )( 0.029294129054153625 0.029306249090998538 )))))((((( 0.02931836912784345 0.029330489164688365 )( 0.02934260920153328 0.02935472923837819 ))(( 0.029366849275223105 0.02937896931206802 )( 0.029391089348912932 0.029403209385757845 )))((( 0.02941532942260276 0.029427449459447672 )( 0.029439569496292586 0.0294516895331375 ))(( 0.029463809569982412 0.029475929606827326 )( 0.02948804964367224 0.029500169680517153 ))))(((( 0.029512289717362066 0.02952440975420698 )( 0.029536529791051893 0.029548649827896806 ))(( 0.02956076986474172 0.029572889901586633 )( 0.029585009938431547 0.02959712997527646 )))((( 0.029609250012121374 0.029621370048966287 )( 0.0296334900858112 0.029645610122656114 ))(( 0.029657730159501027 0.02966985019634594 )( 0.029681970233190854 0.029694090270035767 ))))))(((((( 0.02970621030688068 0.029718330343725594 )( 0.029730450380570508 0.02974257041741542 ))(( 0.029754690454260335 0.029766810491105248 )( 0.02977893052795016 0.029791050564795075 )))((( 0.029803170601639988 0.0298152906384849 )( 0.029827410675329815 0.02983953071217473 ))(( 0.029851650749019642 0.029863770785864555 )( 0.02987589082270947 0.029888010859554382 ))))(((( 0.029900130896399296 0.02991225093324421 )( 0.029924370970089122 0.029936491006934036 ))(( 0.02994861104377895 0.029960731080623863 )( 0.029972851117468776 0.02998497115431369 )))((( 0.029997091191158603 0.030009211228003516 )( 0.03002133126484843 0.030033451301693343 ))(( 0.030045571338538257 0.03005769137538317 )( 0.030069811412228083 0.030081931449072997 )))))((((( 0.03009405148591791 0.030106171522762824 )( 0.030118291559607737 0.03013041159645265 ))(( 0.030142531633297564 0.030154651670142477 )( 0.03016677170698739 0.030178891743832304 )))((( 0.030191011780677218 0.03020313181752213 )( 0.030215251854367044 0.030227371891211958 ))(( 0.03023949192805687 0.030251611964901785 )( 0.030263732001746698 0.03027585203859161 ))))(((( 0.030287972075436525 0.03030009211228144 )( 0.03031221214912635 0.030324332185971265 ))(( 0.03033645222281618 0.030348572259661092 )( 0.030360692296506005 0.03037281233335092 )))((( 0.030384932370195832 0.030397052407040746 )( 0.03040917244388566 0.030421292480730572 ))(( 0.030433412517575486 0.0304455325544204 )( 0.030457652591265313 0.030469772628110226 )))))))((((((( 0.03048189266495514 0.030494012701800053 )( 0.030506132738644966 0.03051825277548988 ))(( 0.030530372812334793 0.030542492849179707 )( 0.03055461288602462 0.030566732922869534 )))((( 0.030578852959714447 0.03059097299655936 )( 0.030603093033404274 0.030615213070249187 ))(( 0.0306273331070941 0.030639453143939014 )( 0.030651573180783927 0.03066369321762884 ))))(((( 0.030675813254473754 0.030687933291318668 )( 0.03070005332816358 0.030712173365008495 ))(( 0.030724293401853408 0.03073641343869832 )( 0.030748533475543235 0.030760653512388148 )))((( 0.03077277354923306 0.030784893586077975 )( 0.03079701362292289 0.030809133659767802 ))(( 0.030821253696612715 0.03083337373345763 )( 0.030845493770302542 0.030857613807147456 )))))((((( 0.03086973384399237 0.030881853880837282 )( 0.030893973917682196 0.03090609395452711 ))(( 0.030918213991372023 0.030930334028216936 )( 0.03094245406506185 0.030954574101906763 )))((( 0.030966694138751676 0.03097881417559659 )( 0.030990934212441503 0.031003054249286417 ))(( 0.03101517428613133 0.031027294322976243 )( 0.031039414359821157 0.03105153439666607 ))))(((( 0.031063654433510984 0.031075774470355897 )( 0.03108789450720081 0.031100014544045724 ))(( 0.031112134580890637 0.03112425461773555 )( 0.031136374654580464 0.031148494691425378 )))((( 0.03116061472827029 0.031172734765115204 )( 0.031184854801960118 0.03119697483880503 ))(( 0.031209094875649945 0.031221214912494858 )( 0.03123333494933977 0.031245454986184685 ))))))(((((( 0.031257575023029595 0.03126969505987451 )( 0.03128181509671942 0.031293935133564335 ))(( 0.03130605517040925 0.03131817520725416 )( 0.031330295244099075 0.03134241528094399 )))((( 0.0313545353177889 0.031366655354633816 )( 0.03137877539147873 0.03139089542832364 ))(( 0.031403015465168556 0.03141513550201347 )( 0.03142725553885838 0.031439375575703296 ))))(((( 0.03145149561254821 0.03146361564939312 )( 0.031475735686238036 0.03148785572308295 ))(( 0.03149997575992786 0.03151209579677278 )( 0.03152421583361769 0.0315363358704626 )))((( 0.03154845590730752 0.03156057594415243 )( 0.031572695980997344 0.03158481601784226 ))(( 0.03159693605468717 0.031609056091532084 )( 0.031621176128377 0.03163329616522191 )))))((((( 0.031645416202066824 0.03165753623891174 )( 0.03166965627575665 0.031681776312601564 ))(( 0.03169389634944648 0.03170601638629139 )( 0.031718136423136305 0.03173025645998122 )))((( 0.03174237649682613 0.031754496533671045 )( 0.03176661657051596 0.03177873660736087 ))(( 0.031790856644205785 0.0318029766810507 )( 0.03181509671789561 0.031827216754740525 ))))(((( 0.03183933679158544 0.03185145682843035 )( 0.031863576865275266 0.03187569690212018 ))(( 0.03188781693896509 0.031899936975810006 )( 0.03191205701265492 0.03192417704949983 )))((( 0.031936297086344746 0.03194841712318966 )( 0.03196053716003457 0.031972657196879486 ))(( 0.0319847772337244 0.03199689727056931 )( 0.03200901730741423 0.03202113734425914 ))))))))(((((((( 0.032033257381104054 0.03204537741794897 )( 0.03205749745479388 0.032069617491638794 ))(( 0.03208173752848371 0.03209385756532862 )( 0.032105977602173534 0.03211809763901845 )))((( 0.03213021767586336 0.032142337712708274 )( 0.03215445774955319 0.0321665777863981 ))(( 0.032178697823243015 0.03219081786008793 )( 0.03220293789693284 0.032215057933777755 ))))(((( 0.03222717797062267 0.03223929800746758 )( 0.032251418044312495 0.03226353808115741 ))(( 0.03227565811800232 0.032287778154847235 )( 0.03229989819169215 0.03231201822853706 )))((( 0.032324138265381976 0.03233625830222689 )( 0.0323483783390718 0.032360498375916716 ))(( 0.03237261841276163 0.03238473844960654 )( 0.032396858486451456 0.03240897852329637 )))))((((( 0.03242109856014128 0.032433218596986196 )( 0.03244533863383111 0.03245745867067602 ))(( 0.03246957870752094 0.03248169874436585 )( 0.03249381878121076 0.03250593881805568 )))((( 0.03251805885490059 0.032530178891745504 )( 0.03254229892859042 0.03255441896543533 ))(( 0.032566539002280244 0.03257865903912516 )( 0.03259077907597007 0.032602899112814984 ))))(((( 0.0326150191496599 0.03262713918650481 )( 0.032639259223349724 0.03265137926019464 ))(( 0.03266349929703955 0.032675619333884465 )( 0.03268773937072938 0.03269985940757429 )))((( 0.032711979444419205 0.03272409948126412 )( 0.03273621951810903 0.032748339554953945 ))(( 0.03276045959179886 0.03277257962864377 )( 0.032784699665488685 0.0327968197023336 ))))))(((((( 0.03280893973917851 0.032821059776023426 )( 0.03283317981286834 0.03284529984971325 ))(( 0.032857419886558166 0.03286953992340308 )( 0.03288165996024799 0.032893779997092906 )))((( 0.03290590003393782 0.03291802007078273 )( 0.032930140107627646 0.03294226014447256 ))(( 0.03295438018131747 0.03296650021816239 )( 0.0329786202550073 0.032990740291852214 ))))(((( 0.03300286032869713 0.03301498036554204 )( 0.033027100402386954 0.03303922043923187 ))(( 0.03305134047607678 0.033063460512921694 )( 0.03307558054976661 0.03308770058661152 )))((( 0.033099820623456434 0.03311194066030135 )( 0.03312406069714626 0.033136180733991175 ))(( 0.03314830077083609 0.033160420807681 )( 0.033172540844525915 0.03318466088137083 )))))((((( 0.03319678091821574 0.033208900955060655 )( 0.03322102099190557 0.03323314102875048 ))(( 0.033245261065595395 0.03325738110244031 )( 0.03326950113928522 0.033281621176130136 )))((( 0.03329374121297505 0.03330586124981996 )( 0.033317981286664876 0.03333010132350979 ))(( 0.0333422213603547 0.033354341397199616 )( 0.03336646143404453 0.03337858147088944 ))))(((( 0.033390701507734356 0.03340282154457927 )( 0.03341494158142418 0.0334270616182691 ))(( 0.03343918165511401 0.03345130169195892 )( 0.03346342172880384 0.03347554176564875 )))((( 0.033487661802493664 0.03349978183933858 )( 0.03351190187618349 0.033524021913028404 ))(( 0.03353614194987332 0.03354826198671823 )( 0.033560382023563144 0.03357250206040806 )))))))((((((( 0.03358462209725297 0.033596742134097884 )( 0.0336088621709428 0.03362098220778771 ))(( 0.033633102244632625 0.03364522228147754 )( 0.03365734231832245 0.033669462355167365 )))((( 0.03368158239201228 0.03369370242885719 )( 0.033705822465702105 0.03371794250254702 ))(( 0.03373006253939193 0.033742182576236845 )( 0.03375430261308176 0.03376642264992667 ))))(((( 0.033778542686771586 0.0337906627236165 )( 0.03380278276046141 0.033814902797306326 ))(( 0.03382702283415124 0.03383914287099615 )( 0.033851262907841066 0.03386338294468598 )))((( 0.03387550298153089 0.033887623018375806 )( 0.03389974305522072 0.03391186309206563 ))(( 0.03392398312891055 0.03393610316575546 )( 0.033948223202600374 0.03396034323944529 )))))((((( 0.0339724632762902 0.033984583313135114 )( 0.03399670334998003 0.03400882338682494 ))(( 0.034020943423669854 0.03403306346051477 )( 0.03404518349735968 0.034057303534204594 )))((( 0.03406942357104951 0.03408154360789442 )( 0.034093663644739335 0.03410578368158425 ))(( 0.03411790371842916 0.034130023755274075 )( 0.03414214379211899 0.0341542638289639 ))))(((( 0.034166383865808815 0.03417850390265373 )( 0.03419062393949864 0.034202743976343555 ))(( 0.03421486401318847 0.03422698405003338 )( 0.034239104086878296 0.03425122412372321 )))((( 0.03426334416056812 0.034275464197413036 )( 0.03428758423425795 0.03429970427110286 ))(( 0.034311824307947776 0.03432394434479269 )( 0.0343360643816376 0.034348184418482516 ))))))(((((( 0.03436030445532743 0.03437242449217234 )( 0.03438454452901726 0.03439666456586217 ))(( 0.03440878460270708 0.034420904639552 )( 0.03443302467639691 0.034445144713241824 )))((( 0.03445726475008674 0.03446938478693165 )( 0.034481504823776564 0.03449362486062148 ))(( 0.03450574489746639 0.034517864934311304 )( 0.03452998497115622 0.03454210500800113 ))))(((( 0.034554225044846044 0.03456634508169096 )( 0.03457846511853587 0.034590585155380785 ))(( 0.0346027051922257 0.03461482522907061 )( 0.034626945265915525 0.03463906530276044 )))((( 0.03465118533960535 0.034663305376450265 )( 0.03467542541329518 0.03468754545014009 ))(( 0.034699665486985005 0.03471178552382992 )( 0.03472390556067483 0.034736025597519746 )))))((((( 0.03474814563436466 0.03476026567120957 )( 0.034772385708054486 0.0347845057448994 ))(( 0.03479662578174431 0.034808745818589226 )( 0.03482086585543414 0.03483298589227905 )))((( 0.034845105929123966 0.03485722596596888 )( 0.03486934600281379 0.03488146603965871 ))(( 0.03489358607650362 0.034905706113348534 )( 0.03491782615019345 0.03492994618703836 ))))(((( 0.034942066223883274 0.03495418626072819 )( 0.0349663062975731 0.034978426334418014 ))(( 0.03499054637126293 0.03500266640810784 )( 0.035014786444952754 0.03502690648179767 )))((( 0.03503902651864258 0.035051146555487495 )( 0.03506326659233241 0.03507538662917732 ))(( 0.035087506666022235 0.03509962670286715 )( 0.03511174673971206 0.035123866776556975 )))))))))((((((((( 0.03513598681340189 0.0351481068502468 )( 0.035160226887091715 0.03517234692393663 ))(( 0.03518446696078154 0.035196586997626456 )( 0.03520870703447137 0.03522082707131628 )))((( 0.035232947108161196 0.03524506714500611 )( 0.03525718718185102 0.035269307218695936 ))(( 0.03528142725554085 0.03529354729238576 )( 0.035305667329230676 0.03531778736607559 ))))(((( 0.0353299074029205 0.03534202743976542 )( 0.03535414747661033 0.03536626751345524 ))(( 0.03537838755030016 0.03539050758714507 )( 0.035402627623989984 0.0354147476608349 )))((( 0.03542686769767981 0.035438987734524724 )( 0.03545110777136964 0.03546322780821455 ))(( 0.035475347845059464 0.03548746788190438 )( 0.03549958791874929 0.035511707955594204 )))))((((( 0.03552382799243912 0.03553594802928403 )( 0.035548068066128945 0.03556018810297386 ))(( 0.03557230813981877 0.035584428176663685 )( 0.0355965482135086 0.03560866825035351 )))((( 0.035620788287198425 0.03563290832404334 )( 0.03564502836088825 0.035657148397733165 ))(( 0.03566926843457808 0.03568138847142299 )( 0.035693508508267906 0.03570562854511282 ))))(((( 0.03571774858195773 0.035729868618802646 )( 0.03574198865564756 0.03575410869249247 ))(( 0.035766228729337386 0.0357783487661823 )( 0.03579046880302721 0.035802588839872126 )))((( 0.03581470887671704 0.03582682891356195 )( 0.03583894895040687 0.03585106898725178 ))(( 0.035863189024096694 0.03587530906094161 )( 0.03588742909778652 0.035899549134631434 ))))))(((((( 0.03591166917147635 0.03592378920832126 )( 0.035935909245166174 0.03594802928201109 ))(( 0.035960149318856 0.035972269355700914 )( 0.03598438939254583 0.03599650942939074 )))((( 0.036008629466235655 0.03602074950308057 )( 0.03603286953992548 0.036044989576770395 ))(( 0.03605710961361531 0.03606922965046022 )( 0.036081349687305135 0.03609346972415005 ))))(((( 0.03610558976099496 0.036117709797839875 )( 0.03612982983468479 0.0361419498715297 ))(( 0.036154069908374616 0.03616618994521953 )( 0.03617830998206444 0.036190430018909356 )))((( 0.03620255005575427 0.03621467009259918 )( 0.036226790129444096 0.03623891016628901 ))(( 0.03625103020313392 0.036263150239978836 )( 0.03627527027682375 0.03628739031366866 )))))((((( 0.03629951035051358 0.03631163038735849 )( 0.0363237504242034 0.03633587046104832 ))(( 0.03634799049789323 0.036360110534738144 )( 0.03637223057158306 0.03638435060842797 )))((( 0.036396470645272884 0.0364085906821178 )( 0.03642071071896271 0.036432830755807624 ))(( 0.03644495079265254 0.03645707082949745 )( 0.036469190866342364 0.03648131090318728 ))))(((( 0.03649343094003219 0.036505550976877105 )( 0.03651767101372202 0.03652979105056693 ))(( 0.036541911087411845 0.03655403112425676 )( 0.03656615116110167 0.036578271197946585 )))((( 0.0365903912347915 0.03660251127163641 )( 0.036614631308481325 0.03662675134532624 ))(( 0.03663887138217115 0.036650991419016066 )( 0.03666311145586098 0.03667523149270589 )))))))((((((( 0.036687351529550806 0.03669947156639572 )( 0.03671159160324063 0.036723711640085546 ))(( 0.03673583167693046 0.03674795171377537 )( 0.036760071750620286 0.0367721917874652 )))((( 0.03678431182431011 0.03679643186115503 )( 0.03680855189799994 0.036820671934844854 ))(( 0.03683279197168977 0.03684491200853468 )( 0.036857032045379594 0.03686915208222451 ))))(((( 0.03688127211906942 0.036893392155914334 )( 0.03690551219275925 0.03691763222960416 ))(( 0.036929752266449074 0.03694187230329399 )( 0.0369539923401389 0.036966112376983815 )))((( 0.03697823241382873 0.03699035245067364 )( 0.037002472487518555 0.03701459252436347 ))(( 0.03702671256120838 0.037038832598053295 )( 0.03705095263489821 0.03706307267174312 )))))((((( 0.037075192708588035 0.03708731274543295 )( 0.03709943278227786 0.037111552819122776 ))(( 0.03712367285596769 0.0371357928928126 )( 0.037147912929657516 0.03716003296650243 )))((( 0.03717215300334734 0.037184273040192256 )( 0.03719639307703717 0.03720851311388208 ))(( 0.037220633150726996 0.03723275318757191 )( 0.03724487322441682 0.03725699326126174 ))))(((( 0.03726911329810665 0.03728123333495156 )( 0.03729335337179648 0.03730547340864139 ))(( 0.037317593445486304 0.03732971348233122 )( 0.03734183351917613 0.037353953556021044 )))((( 0.03736607359286596 0.03737819362971087 )( 0.037390313666555784 0.0374024337034007 ))(( 0.03741455374024561 0.037426673777090524 )( 0.03743879381393544 0.03745091385078035 ))))))(((((( 0.037463033887625265 0.03747515392447018 )( 0.03748727396131509 0.037499393998160005 ))(( 0.03751151403500492 0.03752363407184983 )( 0.037535754108694745 0.03754787414553966 )))((( 0.03755999418238457 0.037572114219229485 )( 0.0375842342560744 0.03759635429291931 ))(( 0.037608474329764226 0.03762059436660914 )( 0.03763271440345405 0.037644834440298966 ))))(((( 0.03765695447714388 0.03766907451398879 )( 0.037681194550833706 0.03769331458767862 ))(( 0.03770543462452353 0.037717554661368446 )( 0.03772967469821336 0.03774179473505827 )))((( 0.03775391477190319 0.0377660348087481 )( 0.037778154845593014 0.03779027488243793 ))(( 0.03780239491928284 0.037814514956127754 )( 0.03782663499297267 0.03783875502981758 )))))((((( 0.037850875066662494 0.03786299510350741 )( 0.03787511514035232 0.037887235177197234 ))(( 0.03789935521404215 0.03791147525088706 )( 0.037923595287731975 0.03793571532457689 )))((( 0.0379478353614218 0.037959955398266715 )( 0.03797207543511163 0.03798419547195654 ))(( 0.037996315508801455 0.03800843554564637 )( 0.03802055558249128 0.038032675619336195 ))))(((( 0.03804479565618111 0.03805691569302602 )( 0.038069035729870936 0.03808115576671585 ))(( 0.03809327580356076 0.038105395840405676 )( 0.03811751587725059 0.0381296359140955 )))((( 0.038141755950940416 0.03815387598778533 )( 0.03816599602463024 0.038178116061475156 ))(( 0.03819023609832007 0.03820235613516498 )( 0.0382144761720099 0.03822659620885481 ))))))))(((((((( 0.03823871624569972 0.03825083628254464 )( 0.03826295631938955 0.038275076356234464 ))(( 0.03828719639307938 0.03829931642992429 )( 0.038311436466769204 0.03832355650361412 )))((( 0.03833567654045903 0.038347796577303944 )( 0.03835991661414886 0.03837203665099377 ))(( 0.038384156687838684 0.0383962767246836 )( 0.03840839676152851 0.038420516798373425 ))))(((( 0.03843263683521834 0.03844475687206325 )( 0.038456876908908165 0.03846899694575308 ))(( 0.03848111698259799 0.038493237019442905 )( 0.03850535705628782 0.03851747709313273 )))((( 0.038529597129977645 0.03854171716682256 )( 0.03855383720366747 0.038565957240512386 ))(( 0.0385780772773573 0.03859019731420221 )( 0.038602317351047126 0.03861443738789204 )))))((((( 0.03862655742473695 0.038638677461581866 )( 0.03865079749842678 0.03866291753527169 ))(( 0.038675037572116606 0.03868715760896152 )( 0.03869927764580643 0.03871139768265135 )))((( 0.03872351771949626 0.038735637756341174 )( 0.03874775779318609 0.038759877830031 ))(( 0.038771997866875914 0.03878411790372083 )( 0.03879623794056574 0.038808357977410654 ))))(((( 0.03882047801425557 0.03883259805110048 )( 0.038844718087945394 0.03885683812479031 ))(( 0.03886895816163522 0.038881078198480135 )( 0.03889319823532505 0.03890531827216996 )))((( 0.038917438309014875 0.03892955834585979 )( 0.0389416783827047 0.038953798419549615 ))(( 0.03896591845639453 0.03897803849323944 )( 0.038990158530084355 0.03900227856692927 ))))))(((((( 0.03901439860377418 0.039026518640619096 )( 0.03903863867746401 0.03905075871430892 ))(( 0.039062878751153836 0.03907499878799875 )( 0.03908711882484366 0.039099238861688576 )))((( 0.03911135889853349 0.0391234789353784 )( 0.039135598972223316 0.03914771900906823 ))(( 0.03915983904591314 0.03917195908275806 )( 0.03918407911960297 0.03919619915644788 ))))(((( 0.0392083191932928 0.03922043923013771 )( 0.039232559266982624 0.03924467930382754 ))(( 0.03925679934067245 0.039268919377517364 )( 0.03928103941436228 0.03929315945120719 )))((( 0.039305279488052104 0.03931739952489702 )( 0.03932951956174193 0.039341639598586844 ))(( 0.03935375963543176 0.03936587967227667 )( 0.039377999709121585 0.0393901197459665 )))))((((( 0.03940223978281141 0.039414359819656325 )( 0.03942647985650124 0.03943859989334615 ))(( 0.039450719930191065 0.03946283996703598 )( 0.03947496000388089 0.039487080040725805 )))((( 0.03949920007757072 0.03951132011441563 )( 0.039523440151260546 0.03953556018810546 ))(( 0.03954768022495037 0.039559800261795286 )( 0.0395719202986402 0.03958404033548511 ))))(((( 0.039596160372330026 0.03960828040917494 )( 0.03962040044601985 0.039632520482864766 ))(( 0.03964464051970968 0.03965676055655459 )( 0.03966888059339951 0.03968100063024442 )))((( 0.039693120667089334 0.03970524070393425 )( 0.03971736074077916 0.039729480777624074 ))(( 0.03974160081446899 0.0397537208513139 )( 0.039765840888158814 0.03977796092500373 )))))))((((((( 0.03979008096184864 0.039802200998693554 )( 0.03981432103553847 0.03982644107238338 ))(( 0.039838561109228295 0.03985068114607321 )( 0.03986280118291812 0.039874921219763035 )))((( 0.03988704125660795 0.03989916129345286 )( 0.039911281330297775 0.03992340136714269 ))(( 0.0399355214039876 0.039947641440832515 )( 0.03995976147767743 0.03997188151452234 ))))(((( 0.039984001551367256 0.03999612158821217 )( 0.04000824162505708 0.040020361661901996 ))(( 0.04003248169874691 0.04004460173559182 )( 0.040056721772436736 0.04006884180928165 )))((( 0.04008096184612656 0.040093081882971476 )( 0.04010520191981639 0.0401173219566613 ))(( 0.04012944199350622 0.04014156203035113 )( 0.04015368206719604 0.04016580210404096 )))))((((( 0.04017792214088587 0.040190042177730784 )( 0.0402021622145757 0.04021428225142061 ))(( 0.040226402288265524 0.04023852232511044 )( 0.04025064236195535 0.040262762398800264 )))((( 0.04027488243564518 0.04028700247249009 )( 0.040299122509335004 0.04031124254617992 ))(( 0.04032336258302483 0.040335482619869745 )( 0.04034760265671466 0.04035972269355957 ))))(((( 0.040371842730404485 0.0403839627672494 )( 0.04039608280409431 0.040408202840939225 ))(( 0.04042032287778414 0.04043244291462905 )( 0.040444562951473965 0.04045668298831888 )))((( 0.04046880302516379 0.040480923062008706 )( 0.04049304309885362 0.04050516313569853 ))(( 0.040517283172543446 0.04052940320938836 )( 0.04054152324623327 0.040553643283078186 ))))))(((((( 0.0405657633199231 0.04057788335676801 )( 0.040590003393612926 0.04060212343045784 ))(( 0.04061424346730275 0.04062636350414767 )( 0.04063848354099258 0.040650603577837494 )))((( 0.04066272361468241 0.04067484365152732 )( 0.040686963688372234 0.04069908372521715 ))(( 0.04071120376206206 0.040723323798906974 )( 0.04073544383575189 0.0407475638725968 ))))(((( 0.040759683909441714 0.04077180394628663 )( 0.04078392398313154 0.040796044019976455 ))(( 0.04080816405682137 0.04082028409366628 )( 0.040832404130511195 0.04084452416735611 )))((( 0.04085664420420102 0.040868764241045935 )( 0.04088088427789085 0.04089300431473576 ))(( 0.040905124351580675 0.04091724438842559 )( 0.0409293644252705 0.040941484462115416 )))))((((( 0.04095360449896033 0.04096572453580524 )( 0.040977844572650156 0.04098996460949507 ))(( 0.04100208464633998 0.041014204683184896 )( 0.04102632472002981 0.04103844475687472 )))((( 0.041050564793719636 0.04106268483056455 )( 0.04107480486740946 0.04108692490425438 ))(( 0.04109904494109929 0.0411111649779442 )( 0.04112328501478912 0.04113540505163403 ))))(((( 0.041147525088478944 0.04115964512532386 )( 0.04117176516216877 0.041183885199013684 ))(( 0.0411960052358586 0.04120812527270351 )( 0.041220245309548424 0.04123236534639334 )))((( 0.04124448538323825 0.041256605420083164 )( 0.04126872545692808 0.04128084549377299 ))(( 0.041292965530617905 0.04130508556746282 )( 0.04131720560430773 0.041329325641152645 ))))))))))(((((((((( 0.04134144567799756 0.04135356571484247 )( 0.041365685751687385 0.0413778057885323 ))(( 0.04138992582537721 0.041402045862222125 )( 0.04141416589906704 0.04142628593591195 )))((( 0.041438405972756866 0.04145052600960178 )( 0.04146264604644669 0.041474766083291606 ))(( 0.04148688612013652 0.04149900615698143 )( 0.041511126193826346 0.04152324623067126 ))))(((( 0.04153536626751617 0.041547486304361086 )( 0.041559606341206 0.04157172637805091 ))(( 0.04158384641489583 0.04159596645174074 )( 0.041608086488585654 0.04162020652543057 )))((( 0.04163232656227548 0.041644446599120394 )( 0.04165656663596531 0.04166868667281022 ))(( 0.041680806709655134 0.04169292674650005 )( 0.04170504678334496 0.041717166820189874 )))))((((( 0.04172928685703479 0.0417414068938797 )( 0.041753526930724615 0.04176564696756953 ))(( 0.04177776700441444 0.041789887041259355 )( 0.04180200707810427 0.04181412711494918 )))((( 0.041826247151794095 0.04183836718863901 )( 0.04185048722548392 0.041862607262328835 ))(( 0.04187472729917375 0.04188684733601866 )( 0.041898967372863576 0.04191108740970849 ))))(((( 0.0419232074465534 0.041935327483398316 )( 0.04194744752024323 0.04195956755708814 ))(( 0.041971687593933056 0.04198380763077797 )( 0.04199592766762288 0.042008047704467796 )))((( 0.04202016774131271 0.04203228777815762 )( 0.04204440781500254 0.04205652785184745 ))(( 0.04206864788869236 0.04208076792553728 )( 0.04209288796238219 0.042105007999227104 ))))))(((((( 0.04211712803607202 0.04212924807291693 )( 0.042141368109761844 0.04215348814660676 ))(( 0.04216560818345167 0.042177728220296584 )( 0.0421898482571415 0.04220196829398641 )))((( 0.042214088330831324 0.04222620836767624 )( 0.04223832840452115 0.042250448441366065 ))(( 0.04226256847821098 0.04227468851505589 )( 0.042286808551900805 0.04229892858874572 ))))(((( 0.04231104862559063 0.042323168662435545 )( 0.04233528869928046 0.04234740873612537 ))(( 0.042359528772970285 0.0423716488098152 )( 0.04238376884666011 0.042395888883505026 )))((( 0.04240800892034994 0.04242012895719485 )( 0.042432248994039766 0.04244436903088468 ))(( 0.04245648906772959 0.042468609104574506 )( 0.04248072914141942 0.04249284917826433 )))))((((( 0.042504969215109246 0.04251708925195416 )( 0.04252920928879907 0.04254132932564399 ))(( 0.0425534493624889 0.042565569399333814 )( 0.04257768943617873 0.04258980947302364 )))((( 0.042601929509868554 0.04261404954671347 )( 0.04262616958355838 0.042638289620403294 ))(( 0.04265040965724821 0.04266252969409312 )( 0.042674649730938034 0.04268676976778295 ))))(((( 0.04269888980462786 0.042711009841472775 )( 0.04272312987831769 0.0427352499151626 ))(( 0.042747369952007515 0.04275948998885243 )( 0.04277161002569734 0.042783730062542255 )))((( 0.04279585009938717 0.04280797013623208 )( 0.042820090173076995 0.04283221020992191 ))(( 0.04284433024676682 0.042856450283611736 )( 0.04286857032045665 0.04288069035730156 )))))))((((((( 0.042892810394146476 0.04290493043099139 )( 0.0429170504678363 0.042929170504681216 ))(( 0.04294129054152613 0.04295341057837104 )( 0.042965530615215956 0.04297765065206087 )))((( 0.04298977068890578 0.0430018907257507 )( 0.04301401076259561 0.04302613079944052 ))(( 0.04303825083628544 0.04305037087313035 )( 0.043062490909975264 0.04307461094682018 ))))(((( 0.04308673098366509 0.043098851020510004 )( 0.04311097105735492 0.04312309109419983 ))(( 0.043135211131044744 0.04314733116788966 )( 0.04315945120473457 0.043171571241579484 )))((( 0.0431836912784244 0.04319581131526931 )( 0.043207931352114225 0.04322005138895914 ))(( 0.04323217142580405 0.043244291462648965 )( 0.04325641149949388 0.04326853153633879 )))))((((( 0.043280651573183705 0.04329277161002862 )( 0.04330489164687353 0.043317011683718445 ))(( 0.04332913172056336 0.04334125175740827 )( 0.043353371794253186 0.0433654918310981 )))((( 0.04337761186794301 0.043389731904787926 )( 0.04340185194163284 0.04341397197847775 ))(( 0.043426092015322666 0.04343821205216758 )( 0.04345033208901249 0.043462452125857406 ))))(((( 0.04347457216270232 0.04348669219954723 )( 0.04349881223639215 0.04351093227323706 ))(( 0.043523052310081974 0.04353517234692689 )( 0.0435472923837718 0.043559412420616714 )))((( 0.04357153245746163 0.04358365249430654 )( 0.043595772531151454 0.04360789256799637 ))(( 0.04362001260484128 0.043632132641686194 )( 0.04364425267853111 0.04365637271537602 ))))))(((((( 0.043668492752220935 0.04368061278906585 )( 0.04369273282591076 0.043704852862755675 ))(( 0.04371697289960059 0.0437290929364455 )( 0.043741212973290415 0.04375333301013533 )))((( 0.04376545304698024 0.043777573083825155 )( 0.04378969312067007 0.04380181315751498 ))(( 0.043813933194359896 0.04382605323120481 )( 0.04383817326804972 0.043850293304894636 ))))(((( 0.04386241334173955 0.04387453337858446 )( 0.043886653415429376 0.04389877345227429 ))(( 0.0439108934891192 0.043923013525964116 )( 0.04393513356280903 0.04394725359965394 )))((( 0.04395937363649886 0.04397149367334377 )( 0.04398361371018868 0.0439957337470336 ))(( 0.04400785378387851 0.044019973820723424 )( 0.04403209385756834 0.04404421389441325 )))))((((( 0.044056333931258164 0.04406845396810308 )( 0.04408057400494799 0.044092694041792904 ))(( 0.04410481407863782 0.04411693411548273 )( 0.044129054152327644 0.04414117418917256 )))((( 0.04415329422601747 0.044165414262862385 )( 0.0441775342997073 0.04418965433655221 ))(( 0.044201774373397125 0.04421389441024204 )( 0.04422601444708695 0.044238134483931865 ))))(((( 0.04425025452077678 0.04426237455762169 )( 0.044274494594466605 0.04428661463131152 ))(( 0.04429873466815643 0.044310854705001346 )( 0.04432297474184626 0.04433509477869117 )))((( 0.044347214815536086 0.044359334852381 )( 0.04437145488922591 0.044383574926070826 ))(( 0.04439569496291574 0.04440781499976065 )( 0.044419935036605566 0.04443205507345048 ))))))))(((((((( 0.04444417511029539 0.04445629514714031 )( 0.04446841518398522 0.044480535220830134 ))(( 0.04449265525767505 0.04450477529451996 )( 0.044516895331364874 0.04452901536820979 )))((( 0.0445411354050547 0.044553255441899614 )( 0.04456537547874453 0.04457749551558944 ))(( 0.044589615552434354 0.04460173558927927 )( 0.04461385562612418 0.044625975662969095 ))))(((( 0.04463809569981401 0.04465021573665892 )( 0.044662335773503835 0.04467445581034875 ))(( 0.04468657584719366 0.044698695884038575 )( 0.04471081592088349 0.0447229359577284 )))((( 0.044735055994573315 0.04474717603141823 )( 0.04475929606826314 0.044771416105108056 ))(( 0.04478353614195297 0.04479565617879788 )( 0.044807776215642796 0.04481989625248771 )))))((((( 0.04483201628933262 0.044844136326177536 )( 0.04485625636302245 0.04486837639986736 ))(( 0.044880496436712276 0.04489261647355719 )( 0.0449047365104021 0.04491685654724702 )))((( 0.04492897658409193 0.04494109662093684 )( 0.04495321665778176 0.04496533669462667 ))(( 0.044977456731471584 0.0449895767683165 )( 0.04500169680516141 0.045013816842006324 ))))(((( 0.04502593687885124 0.04503805691569615 )( 0.045050176952541064 0.04506229698938598 ))(( 0.04507441702623089 0.045086537063075804 )( 0.04509865709992072 0.04511077713676563 )))((( 0.045122897173610545 0.04513501721045546 )( 0.04514713724730037 0.045159257284145285 ))(( 0.0451713773209902 0.04518349735783511 )( 0.045195617394680025 0.04520773743152494 ))))))(((((( 0.04521985746836985 0.045231977505214765 )( 0.04524409754205968 0.04525621757890459 ))(( 0.045268337615749506 0.04528045765259442 )( 0.04529257768943933 0.045304697726284246 )))((( 0.04531681776312916 0.04532893779997407 )( 0.045341057836818986 0.0453531778736639 ))(( 0.04536529791050881 0.045377417947353726 )( 0.04538953798419864 0.04540165802104355 ))))(((( 0.04541377805788847 0.04542589809473338 )( 0.045438018131578294 0.04545013816842321 ))(( 0.04546225820526812 0.045474378242113034 )( 0.04548649827895795 0.04549861831580286 )))((( 0.045510738352647774 0.04552285838949269 )( 0.0455349784263376 0.045547098463182514 ))(( 0.04555921850002743 0.04557133853687234 )( 0.045583458573717255 0.04559557861056217 )))))((((( 0.04560769864740708 0.045619818684251995 )( 0.04563193872109691 0.04564405875794182 ))(( 0.045656178794786735 0.04566829883163165 )( 0.04568041886847656 0.045692538905321475 )))((( 0.04570465894216639 0.0457167789790113 )( 0.045728899015856216 0.04574101905270113 ))(( 0.04575313908954604 0.045765259126390956 )( 0.04577737916323587 0.04578949920008078 ))))(((( 0.045801619236925696 0.04581373927377061 )( 0.04582585931061552 0.045837979347460436 ))(( 0.04585009938430535 0.04586221942115026 )( 0.04587433945799518 0.04588645949484009 )))((( 0.045898579531685 0.04591069956852992 )( 0.04592281960537483 0.045934939642219744 ))(( 0.04594705967906466 0.04595917971590957 )( 0.045971299752754484 0.0459834197895994 )))))))((((((( 0.04599553982644431 0.046007659863289224 )( 0.04601977990013414 0.04603189993697905 ))(( 0.046044019973823964 0.04605614001066888 )( 0.04606826004751379 0.046080380084358705 )))((( 0.04609250012120362 0.04610462015804853 )( 0.046116740194893445 0.04612886023173836 ))(( 0.04614098026858327 0.046153100305428185 )( 0.0461652203422731 0.04617734037911801 ))))(((( 0.046189460415962925 0.04620158045280784 )( 0.04621370048965275 0.046225820526497666 ))(( 0.04623794056334258 0.04625006060018749 )( 0.046262180637032406 0.04627430067387732 )))((( 0.04628642071072223 0.046298540747567146 )( 0.04631066078441206 0.04632278082125697 ))(( 0.046334900858101886 0.0463470208949468 )( 0.04635914093179171 0.04637126096863663 )))))((((( 0.04638338100548154 0.046395501042326454 )( 0.04640762107917137 0.04641974111601628 ))(( 0.046431861152861194 0.04644398118970611 )( 0.04645610122655102 0.046468221263395934 )))((( 0.04648034130024085 0.04649246133708576 )( 0.046504581373930674 0.04651670141077559 ))(( 0.0465288214476205 0.046540941484465415 )( 0.04655306152131033 0.04656518155815524 ))))(((( 0.046577301595000155 0.04658942163184507 )( 0.04660154166868998 0.046613661705534895 ))(( 0.04662578174237981 0.04663790177922472 )( 0.046650021816069635 0.04666214185291455 )))((( 0.04667426188975946 0.046686381926604376 )( 0.04669850196344929 0.0467106220002942 ))(( 0.046722742037139116 0.04673486207398403 )( 0.04674698211082894 0.046759102147673856 ))))))(((((( 0.04677122218451877 0.04678334222136368 )( 0.046795462258208596 0.04680758229505351 ))(( 0.04681970233189842 0.04683182236874334 )( 0.04684394240558825 0.04685606244243316 )))((( 0.04686818247927808 0.04688030251612299 )( 0.046892422552967904 0.04690454258981282 ))(( 0.04691666262665773 0.046928782663502644 )( 0.04694090270034756 0.04695302273719247 ))))(((( 0.046965142774037384 0.0469772628108823 )( 0.04698938284772721 0.047001502884572124 ))(( 0.04701362292141704 0.04702574295826195 )( 0.047037862995106865 0.04704998303195178 )))((( 0.04706210306879669 0.047074223105641605 )( 0.04708634314248652 0.04709846317933143 ))(( 0.047110583216176345 0.04712270325302126 )( 0.04713482328986617 0.047146943326711085 )))))((((( 0.047159063363556 0.04717118340040091 )( 0.047183303437245826 0.04719542347409074 ))(( 0.04720754351093565 0.047219663547780566 )( 0.04723178358462548 0.04724390362147039 )))((( 0.047256023658315306 0.04726814369516022 )( 0.04728026373200513 0.047292383768850046 ))(( 0.04730450380569496 0.04731662384253987 )( 0.04732874387938479 0.0473408639162297 ))))(((( 0.047352983953074614 0.04736510398991953 )( 0.04737722402676444 0.047389344063609354 ))(( 0.04740146410045427 0.04741358413729918 )( 0.047425704174144094 0.04743782421098901 )))((( 0.04744994424783392 0.047462064284678834 )( 0.04747418432152375 0.04748630435836866 ))(( 0.047498424395213575 0.04751054443205849 )( 0.0475226644689034 0.047534784505748315 )))))))))((((((((( 0.04754690454259323 0.04755902457943814 )( 0.047571144616283055 0.04758326465312797 ))(( 0.04759538468997288 0.047607504726817795 )( 0.04761962476366271 0.04763174480050762 )))((( 0.047643864837352536 0.04765598487419745 )( 0.04766810491104236 0.047680224947887276 ))(( 0.04769234498473219 0.0477044650215771 )( 0.047716585058422016 0.04772870509526693 ))))(((( 0.04774082513211184 0.047752945168956756 )( 0.04776506520580167 0.04777718524264658 ))(( 0.0477893052794915 0.04780142531633641 )( 0.04781354535318132 0.04782566539002624 )))((( 0.04783778542687115 0.047849905463716064 )( 0.04786202550056098 0.04787414553740589 ))(( 0.047886265574250804 0.04789838561109572 )( 0.04791050564794063 0.047922625684785544 )))))((((( 0.04793474572163046 0.04794686575847537 )( 0.047958985795320284 0.0479711058321652 ))(( 0.04798322586901011 0.047995345905855025 )( 0.04800746594269994 0.04801958597954485 )))((( 0.048031706016389765 0.04804382605323468 )( 0.04805594609007959 0.048068066126924505 ))(( 0.04808018616376942 0.04809230620061433 )( 0.048104426237459245 0.04811654627430416 ))))(((( 0.04812866631114907 0.048140786347993986 )( 0.0481529063848389 0.04816502642168381 ))(( 0.048177146458528726 0.04818926649537364 )( 0.04820138653221855 0.048213506569063466 )))((( 0.04822562660590838 0.04823774664275329 )( 0.048249866679598206 0.04826198671644312 ))(( 0.04827410675328803 0.04828622679013295 )( 0.04829834682697786 0.048310466863822774 ))))))(((((( 0.04832258690066769 0.0483347069375126 )( 0.048346826974357514 0.04835894701120243 ))(( 0.04837106704804734 0.048383187084892254 )( 0.04839530712173717 0.04840742715858208 )))((( 0.048419547195426994 0.04843166723227191 )( 0.04844378726911682 0.048455907305961735 ))(( 0.04846802734280665 0.04848014737965156 )( 0.048492267416496475 0.04850438745334139 ))))(((( 0.0485165074901863 0.048528627527031215 )( 0.04854074756387613 0.04855286760072104 ))(( 0.048564987637565955 0.04857710767441087 )( 0.04858922771125578 0.048601347748100696 )))((( 0.04861346778494561 0.04862558782179052 )( 0.048637707858635436 0.04864982789548035 ))(( 