net 
{
    node_size = (100 30);
}

node C_NI_12_00
{
    label = "C/NI-12.00";
    position = (65 402);
    states = ("x3"  "x4"  "x5"  "x6");
}

node CKNI_12_00
{
    label = "CKNI-12.00";
    position = (65 345);
    states = ("x20_MG_L"  "x30_MG_L"  "x40_MG_L");
}

node CBODD_12_00
{
    label = "CBODD-12.00";
    position = (65 289);
    states = ("x15_MG_L"  "x20_MG_L"  "x25_MG_L"  "x30_MG_L");
}

node CKND_12_00
{
    label = "CKND-12.00";
    position = (65 222);
    states = ("x2_MG_L"  "x4_MG_L"  "x6_MG_L");
}

node CNOD_12_00
{
    label = "CNOD-12.00";
    position = (65 165);
    states = ("x0_5_MG_L"  "x1_MG_L"  "x2_MG_L"  "x4_MG_L");
}

node CBODN_12_00
{
    label = "CBODN-12.00";
    position = (65 108);
    states = ("x5_MG_L"  "x10_MG_L"  "x15_MG_L"  "x20_MG_L");
}

node CKNN_12_00
{
    label = "CKNN-12.00";
    position = (65 42);
    states = ("x0_5_MG_L"  "x1_MG_L"  "x2_MG_L");
}

node CNON_12_00
{
    label = "CNON-12.00";
    position = (65 -15);
    states = ("x2_MG_L"  "x4_MG_L"  "x6_MG_L"  "x10_MG_L");
}

node C_NI_12_15
{
    label = "C/NI-12.15";
    position = (216 402);
    states = ("x3"  "x4"  "x5"  "x6");
}

node CKNI_12_15
{
    label = "CKNI-12.15";
    position = (216 345);
    states = ("x20_MG_L"  "x30_MG_L"  "x40_MG_L");
}

node CBODD_12_15
{
    label = "CBODD-12.15";
    position = (216 289);
    states = ("x15_MG_L"  "x20_MG_L"  "x25_MG_L"  "x30_MG_L");
}

node CKND_12_15
{
    label = "CKND-12.15";
    position = (216 222);
    states = ("x2_MG_L"  "x4_MG_L"  "x6_MG_L");
}

node CNOD_12_15
{
    label = "CNOD-12.15";
    position = (216 165);
    states = ("x0_5_MG_L"  "x1_MG_L"  "x2_MG_L"  "x4_MG_L");
}

node CBODN_12_15
{
    label = "CBODN-12.15";
    position = (216 108);
    states = ("x5_MG_L"  "x10_MG_L"  "x15_MG_L"  "x20_MG_L");
}

node CKNN_12_15
{
    label = "CKNN-12.15";
    position = (216 42);
    states = ("x0_5_MG_L"  "x1_MG_L"  "x2_MG_L");
}

node CNON_12_15
{
    label = "CNON-12.15";
    position = (216 -15);
    states = ("x2_MG_L"  "x4_MG_L"  "x6_MG_L"  "x10_MG_L");
}

node C_NI_12_30
{
    label = "C/NI-12.30";
    position = (368 402);
    states = ("x3"  "x4"  "x5"  "x6");
}

node CKNI_12_30
{
    label = "CKNI-12.30";
    position = (368 345);
    states = ("x20_MG_L"  "x30_MG_L"  "x40_MG_L");
}

node CBODD_12_30
{
    label = "CBODD-12.30";
    position = (368 289);
    states = ("x15_MG_L"  "x20_MG_L"  "x25_MG_L"  "x30_MG_L");
}

node CKND_12_30
{
    label = "CKND-12.30";
    position = (368 222);
    states = ("x2_MG_L"  "x4_MG_L"  "x6_MG_L");
}

node CNOD_12_30
{
    label = "CNOD-12.30";
    position = (368 165);
    states = ("x0_5_MG_L"  "x1_MG_L"  "x2_MG_L"  "x4_MG_L");
}

node CBODN_12_30
{
    label = "CBODN-12.30";
    position = (368 108);
    states = ("x5_MG_L"  "x10_MG_L"  "x15_MG_L"  "x20_MG_L");
}

node CKNN_12_30
{
    label = "CKNN-12.30";
    position = (368 42);
    states = ("x0_5_MG_L"  "x1_MG_L"  "x2_MG_L");
}

node CNON_12_30
{
    label = "CNON-12.30";
    position = (368 -15);
    states = ("x2_MG_L"  "x4_MG_L"  "x6_MG_L"  "x10_MG_L");
}

node C_NI_12_45
{
    label = "C/NI-12.45";
    position = (520 402);
    states = ("x3"  "x4"  "x5"  "x6");
}

node CKNI_12_45
{
    label = "CKNI-12.45";
    position = (520 345);
    states = ("x20_MG_L"  "x30_MG_L"  "x40_MG_L");
}

node CBODD_12_45
{
    label = "CBODD-12.45";
    position = (520 289);
    states = ("x15_MG_L"  "x20_MG_L"  "x25_MG_L"  "x30_MG_L");
}

node CKND_12_45
{
    label = "CKND-12.45";
    position = (520 222);
    states = ("x2_MG_L"  "x4_MG_L"  "x6_MG_L");
}

node CNOD_12_45
{
    label = "CNOD-12.45";
    position = (520 165);
    states = ("x0_5_MG_L"  "x1_MG_L"  "x2_MG_L"  "x4_MG_L");
}

node CBODN_12_45
{
    label = "CBODN-12.45";
    position = (520 108);
    states = ("x5_MG_L"  "x10_MG_L"  "x15_MG_L"  "x20_MG_L");
}

node CKNN_12_45
{
    label = "CKNN-12.45";
    position = (520 42);
    states = ("x0_5_MG_L"  "x1_MG_L"  "x2_MG_L");
}

node CNON_12_45
{
    label = "CNON-12.45";
    position = (520 -15);
    states = ("x2_MG_L"  "x4_MG_L"  "x6_MG_L"  "x10_MG_L");
}

potential (C_NI_12_00 |)
{
    data = (0.25000000 0.25000000 0.25000000 0.25000000);
}

potential (CKNI_12_00 |)
{
    data = (0.33333333 0.33333333 0.33333333);
}

potential (CBODD_12_00 |)
{
    data = (0.00000000 1.00000000 0.00000000 0.00000000);
}

potential (CKND_12_00 |)
{
    data = (0.00000000 1.00000000 0.00000000);
}

potential (CNOD_12_00 |)
{
    data = (0.00000000 1.00000000 0.00000000 0.00000000);
}

potential (CBODN_12_00 |)
{
    data = (0.00000000 1.00000000 0.00000000 0.00000000);
}

potential (CKNN_12_00 |)
{
    data = (0.00000000 1.00000000 0.00000000);
}

potential (CNON_12_00 |)
{
    data = (0.00000000 1.00000000 0.00000000 0.00000000);
}

potential (C_NI_12_15 | C_NI_12_00)
{
    data = ((0.50000000 0.40000000 0.10000000 0.00000000)
        (0.20000000 0.55000000 0.20000000 0.05000000)
        (0.10000000 0.30000000 0.50000000 0.10000000)
        (0.00000000 0.15000000 0.25000000 0.60000000));
}

potential (CKNI_12_15 | CKNI_12_00)
{
    data = ((0.48000000 0.48000000 0.04000000)
        (0.20000000 0.60000000 0.20000000)
        (0.04000000 0.48000000 0.48000000));
}

potential (CBODD_12_15 | C_NI_12_00 CKNI_12_00 CBODD_12_00 CNOD_12_00 CBODN_12_00)
{
    data = ((((((1.00000000 0.00000000 0.00000000 0.00000000)
        (1.00000000 0.00000000 0.00000000 0.00000000)
        (0.97910000 0.02090000 0.00000000 0.00000000)
        (0.94730000 0.05270000 0.00000000 0.00000000))
        ((1.00000000 0.00000000 0.00000000 0.00000000)
        (1.00000000 0.00000000 0.00000000 0.00000000)
        (0.99510000 0.00490000 0.00000000 0.00000000)
        (0.96340000 0.03660000 0.00000000 0.00000000))
        ((1.00000000 0.00000000 0.00000000 0.00000000)
        (1.00000000 0.00000000 0.00000000 0.00000000)
        (1.00000000 0.00000000 0.00000000 0.00000000)
        (0.97620000 0.02380000 0.00000000 0.00000000))
        ((1.00000000 0.00000000 0.00000000 0.00000000)
        (1.00000000 0.00000000 0.00000000 0.00000000)
        (1.00000000 0.00000000 0.00000000 0.00000000)
        (0.98480000 0.01520000 0.00000000 0.00000000)))
        (((0.09030000 0.90970000 0.00000000 0.00000000)
        (0.05850000 0.94150000 0.00000000 0.00000000)
        (0.02680000 0.97320000 0.00000000 0.00000000)
        (0.00000000 0.99500000 0.00500000 0.00000000))
        ((0.10900000 0.89100000 0.00000000 0.00000000)
        (0.07730000 0.92270000 0.00000000 0.00000000)
        (0.04550000 0.95450000 0.00000000 0.00000000)
        (0.01380000 0.98620000 0.00000000 0.00000000))
        ((0.12400000 0.87600000 0.00000000 0.00000000)
        (0.09230000 0.90770000 0.00000000 0.00000000)
        (0.06050000 0.93950000 0.00000000 0.00000000)
        (0.02880000 0.97120000 0.00000000 0.00000000))
        ((0.13400000 0.86600000 0.00000000 0.00000000)
        (0.10230000 0.89770000 0.00000000 0.00000000)
        (0.07050000 0.92950000 0.00000000 0.00000000)
        (0.03880000 0.96120000 0.00000000 0.00000000)))
        (((0.00000000 0.13620000 0.86380000 0.00000000)
        (0.00000000 0.10450000 0.89550000 0.00000000)
        (0.00000000 0.07270000 0.92730000 0.00000000)
        (0.00000000 0.04100000 0.95900000 0.00000000))
        ((0.00000000 0.15700000 0.84300000 0.00000000)
        (0.00000000 0.12530000 0.87470000 0.00000000)
        (0.00000000 0.09350000 0.90650000 0.00000000)
        (0.00000000 0.06180000 0.93820000 0.00000000))
        ((0.00000000 0.17370000 0.82630000 0.00000000)
        (0.00000000 0.14200000 0.85800000 0.00000000)
        (0.00000000 0.11020000 0.88980000 0.00000000)
        (0.00000000 0.07850000 0.92150000 0.00000000))
        ((0.00000000 0.18480000 0.81520000 0.00000000)
        (0.00000000 0.15310000 0.84690000 0.00000000)
        (0.00000000 0.12130000 0.87870000 0.00000000)
        (0.00000000 0.08960000 0.91040000 0.00000000)))
        (((0.00000000 0.00000000 0.18090000 0.81910000)
        (0.00000000 0.00000000 0.14910000 0.85090000)
        (0.00000000 0.00000000 0.11740000 0.88260000)
        (0.00000000 0.00000000 0.08560000 0.91440000))
        ((0.00000000 0.00000000 0.20340000 0.79660000)
        (0.00000000 0.00000000 0.17160000 0.82840000)
        (0.00000000 0.00000000 0.13990000 0.86010000)
        (0.00000000 0.00000000 0.10810000 0.89190000))
        ((0.00000000 0.00000000 0.22140000 0.77860000)
        (0.00000000 0.00000000 0.18960000 0.81040000)
        (0.00000000 0.00000000 0.15790000 0.84210000)
        (0.00000000 0.00000000 0.12610000 0.87390000))
        ((0.00000000 0.00000000 0.23340000 0.76660000)
        (0.00000000 0.00000000 0.20160000 0.79840000)
        (0.00000000 0.00000000 0.16990000 0.83010000)
        (0.00000000 0.00000000 0.13810000 0.86190000))))
        ((((0.99490000 0.00510000 0.00000000 0.00000000)
        (0.96320000 0.03680000 0.00000000 0.00000000)
        (0.93140000 0.06860000 0.00000000 0.00000000)
        (0.89970000 0.10030000 0.00000000 0.00000000))
        ((1.00000000 0.00000000 0.00000000 0.00000000)
        (0.97930000 0.02070000 0.00000000 0.00000000)
        (0.94750000 0.05250000 0.00000000 0.00000000)
        (0.91580000 0.08420000 0.00000000 0.00000000))
        ((1.00000000 0.00000000 0.00000000 0.00000000)
        (0.99210000 0.00790000 0.00000000 0.00000000)
        (0.96040000 0.03960000 0.00000000 0.00000000)
        (0.92860000 0.07140000 0.00000000 0.00000000))
        ((1.00000000 0.00000000 0.00000000 0.00000000)
        (1.00000000 0.00000000 0.00000000 0.00000000)
        (0.96890000 0.03110000 0.00000000 0.00000000)
        (0.93720000 0.06280000 0.00000000 0.00000000)))
        (((0.04260000 0.95740000 0.00000000 0.00000000)
        (0.01090000 0.98910000 0.00000000 0.00000000)
        (0.00000000 0.97920000 0.02080000 0.00000000)
        (0.00000000 0.94740000 0.05260000 0.00000000))
        ((0.06140000 0.93860000 0.00000000 0.00000000)
        (0.02960000 0.97040000 0.00000000 0.00000000)
        (0.00000000 0.99790000 0.00210000 0.00000000)
        (0.00000000 0.96620000 0.03380000 0.00000000))
        ((0.07640000 0.92360000 0.00000000 0.00000000)
        (0.04460000 0.95540000 0.00000000 0.00000000)
        (0.01290000 0.98710000 0.00000000 0.00000000)
        (0.00000000 0.98120000 0.01880000 0.00000000))
        ((0.08640000 0.91360000 0.00000000 0.00000000)
        (0.05460000 0.94540000 0.00000000 0.00000000)
        (0.02290000 0.97710000 0.00000000 0.00000000)
        (0.00000000 0.99120000 0.00880000 0.00000000)))
        (((0.00000000 0.08860000 0.91140000 0.00000000)
        (0.00000000 0.05680000 0.94320000 0.00000000)
        (0.00000000 0.02510000 0.97490000 0.00000000)
        (0.00000000 0.00000000 0.99330000 0.00670000))
        ((0.00000000 0.10940000 0.89060000 0.00000000)
        (0.00000000 0.07770000 0.92230000 0.00000000)
        (0.00000000 0.04590000 0.95410000 0.00000000)
        (0.00000000 0.01420000 0.98580000 0.00000000))
        ((0.00000000 0.12610000 0.87390000 0.00000000)
        (0.00000000 0.09430000 0.90570000 0.00000000)
        (0.00000000 0.06260000 0.93740000 0.00000000)
        (0.00000000 0.03080000 0.96920000 0.00000000))
        ((0.00000000 0.13720000 0.86280000 0.00000000)
        (0.00000000 0.10540000 0.89460000 0.00000000)
        (0.00000000 0.07370000 0.92630000 0.00000000)
        (0.00000000 0.04200000 0.95800000 0.00000000)))
        (((0.00000000 0.00000000 0.13330000 0.86670000)
        (0.00000000 0.00000000 0.10150000 0.89850000)
        (0.00000000 0.00000000 0.06980000 0.93020000)
        (0.00000000 0.00000000 0.03800000 0.96200000))
        ((0.00000000 0.00000000 0.15580000 0.84420000)
        (0.00000000 0.00000000 0.12400000 0.87600000)
        (0.00000000 0.00000000 0.09230000 0.90770000)
        (0.00000000 0.00000000 0.06050000 0.93950000))
        ((0.00000000 0.00000000 0.17380000 0.82620000)
        (0.00000000 0.00000000 0.14200000 0.85800000)
        (0.00000000 0.00000000 0.11030000 0.88970000)
        (0.00000000 0.00000000 0.07850000 0.92150000))
        ((0.00000000 0.00000000 0.18580000 0.81420000)
        (0.00000000 0.00000000 0.15400000 0.84600000)
        (0.00000000 0.00000000 0.12230000 0.87770000)
        (0.00000000 0.00000000 0.09050000 0.90950000))))
        ((((0.94730000 0.05270000 0.00000000 0.00000000)
        (0.91560000 0.08440000 0.00000000 0.00000000)
        (0.88380000 0.11620000 0.00000000 0.00000000)
        (0.85210000 0.14790000 0.00000000 0.00000000))
        ((0.96340000 0.03660000 0.00000000 0.00000000)
        (0.93160000 0.06840000 0.00000000 0.00000000)
        (0.89990000 0.10010000 0.00000000 0.00000000)
        (0.86810000 0.13190000 0.00000000 0.00000000))
        ((0.97620000 0.02380000 0.00000000 0.00000000)
        (0.94450000 0.05550000 0.00000000 0.00000000)
        (0.91270000 0.08730000 0.00000000 0.00000000)
        (0.88100000 0.11900000 0.00000000 0.00000000))
        ((0.98480000 0.01520000 0.00000000 0.00000000)
        (0.95310000 0.04690000 0.00000000 0.00000000)
        (0.92130000 0.07870000 0.00000000 0.00000000)
        (0.88960000 0.11040000 0.00000000 0.00000000)))
        (((0.00000000 0.99500000 0.00500000 0.00000000)
        (0.00000000 0.96330000 0.03670000 0.00000000)
        (0.00000000 0.93150000 0.06850000 0.00000000)
        (0.00000000 0.89980000 0.10020000 0.00000000))
        ((0.01380000 0.98620000 0.00000000 0.00000000)
        (0.00000000 0.98200000 0.01800000 0.00000000)
        (0.00000000 0.95030000 0.04970000 0.00000000)
        (0.00000000 0.91850000 0.08150000 0.00000000))
        ((0.02880000 0.97120000 0.00000000 0.00000000)
        (0.00000000 0.99700000 0.00300000 0.00000000)
        (0.00000000 0.96530000 0.03470000 0.00000000)
        (0.00000000 0.93350000 0.06650000 0.00000000))
        ((0.03880000 0.96120000 0.00000000 0.00000000)
        (0.00700000 0.99300000 0.00000000 0.00000000)
        (0.00000000 0.97530000 0.02470000 0.00000000)
        (0.00000000 0.94350000 0.05650000 0.00000000)))
        (((0.00000000 0.04100000 0.95900000 0.00000000)
        (0.00000000 0.00920000 0.99080000 0.00000000)
        (0.00000000 0.00000000 0.97750000 0.02250000)
        (0.00000000 0.00000000 0.94570000 0.05430000))
        ((0.00000000 0.06180000 0.93820000 0.00000000)
        (0.00000000 0.03000000 0.97000000 0.00000000)
        (0.00000000 0.00000000 0.99830000 0.00170000)
        (0.00000000 0.00000000 0.96660000 0.03340000))
        ((0.00000000 0.07850000 0.92150000 0.00000000)
        (0.00000000 0.04670000 0.95330000 0.00000000)
        (0.00000000 0.01500000 0.98500000 0.00000000)
        (0.00000000 0.00000000 0.98320000 0.01680000))
        ((0.00000000 0.08960000 0.91040000 0.00000000)
        (0.00000000 0.05780000 0.94220000 0.00000000)
        (0.00000000 0.02610000 0.97390000 0.00000000)
        (0.00000000 0.00000000 0.99430000 0.00570000)))
        (((0.00000000 0.00000000 0.08560000 0.91440000)
        (0.00000000 0.00000000 0.05390000 0.94610000)
        (0.00000000 0.00000000 0.02210000 0.97790000)
        (0.00000000 0.00000000 0.00000000 1.00000000))
        ((0.00000000 0.00000000 0.10810000 0.89190000)
        (0.00000000 0.00000000 0.07640000 0.92360000)
        (0.00000000 0.00000000 0.04460000 0.95540000)
        (0.00000000 0.00000000 0.01290000 0.98710000))
        ((0.00000000 0.00000000 0.12610000 0.87390000)
        (0.00000000 0.00000000 0.09440000 0.90560000)
        (0.00000000 0.00000000 0.06260000 0.93740000)
        (0.00000000 0.00000000 0.03090000 0.96910000))
        ((0.00000000 0.00000000 0.13810000 0.86190000)
        (0.00000000 0.00000000 0.10640000 0.89360000)
        (0.00000000 0.00000000 0.07460000 0.92540000)
        (0.00000000 0.00000000 0.04290000 0.95710000)))))
        (((((1.00000000 0.00000000 0.00000000 0.00000000)
        (0.97910000 0.02090000 0.00000000 0.00000000)
        (0.94730000 0.05270000 0.00000000 0.00000000)
        (0.91560000 0.08440000 0.00000000 0.00000000))
        ((1.00000000 0.00000000 0.00000000 0.00000000)
        (0.99510000 0.00490000 0.00000000 0.00000000)
        (0.96340000 0.03660000 0.00000000 0.00000000)
        (0.93160000 0.06840000 0.00000000 0.00000000))
        ((1.00000000 0.00000000 0.00000000 0.00000000)
        (1.00000000 0.00000000 0.00000000 0.00000000)
        (0.97620000 0.02380000 0.00000000 0.00000000)
        (0.94450000 0.05550000 0.00000000 0.00000000))
        ((1.00000000 0.00000000 0.00000000 0.00000000)
        (1.00000000 0.00000000 0.00000000 0.00000000)
        (0.98480000 0.01520000 0.00000000 0.00000000)
        (0.95310000 0.04690000 0.00000000 0.00000000)))
        (((0.05850000 0.94150000 0.00000000 0.00000000)
        (0.02680000 0.97320000 0.00000000 0.00000000)
        (0.00000000 0.99500000 0.00500000 0.00000000)
        (0.00000000 0.96330000 0.03670000 0.00000000))
        ((0.07730000 0.92270000 0.00000000 0.00000000)
        (0.04550000 0.95450000 0.00000000 0.00000000)
        (0.01380000 0.98620000 0.00000000 0.00000000)
        (0.00000000 0.98200000 0.01800000 0.00000000))
        ((0.09230000 0.90770000 0.00000000 0.00000000)
        (0.06050000 0.93950000 0.00000000 0.00000000)
        (0.02880000 0.97120000 0.00000000 0.00000000)
        (0.00000000 0.99700000 0.00300000 0.00000000))
        ((0.10230000 0.89770000 0.00000000 0.00000000)
        (0.07050000 0.92950000 0.00000000 0.00000000)
        (0.03880000 0.96120000 0.00000000 0.00000000)
        (0.00700000 0.99300000 0.00000000 0.00000000)))
        (((0.00000000 0.10450000 0.89550000 0.00000000)
        (0.00000000 0.07270000 0.92730000 0.00000000)
        (0.00000000 0.04100000 0.95900000 0.00000000)
        (0.00000000 0.00920000 0.99080000 0.00000000))
        ((0.00000000 0.12530000 0.87470000 0.00000000)
        (0.00000000 0.09350000 0.90650000 0.00000000)
        (0.00000000 0.06180000 0.93820000 0.00000000)
        (0.00000000 0.03000000 0.97000000 0.00000000))
        ((0.00000000 0.14200000 0.85800000 0.00000000)
        (0.00000000 0.11020000 0.88980000 0.00000000)
        (0.00000000 0.07850000 0.92150000 0.00000000)
        (0.00000000 0.04670000 0.95330000 0.00000000))
        ((0.00000000 0.15310000 0.84690000 0.00000000)
        (0.00000000 0.12130000 0.87870000 0.00000000)
        (0.00000000 0.08960000 0.91040000 0.00000000)
        (0.00000000 0.05780000 0.94220000 0.00000000)))
        (((0.00000000 0.00000000 0.14910000 0.85090000)
        (0.00000000 0.00000000 0.11740000 0.88260000)
        (0.00000000 0.00000000 0.08560000 0.91440000)
        (0.00000000 0.00000000 0.05390000 0.94610000))
        ((0.00000000 0.00000000 0.17160000 0.82840000)
        (0.00000000 0.00000000 0.13990000 0.86010000)
        (0.00000000 0.00000000 0.10810000 0.89190000)
        (0.00000000 0.00000000 0.07640000 0.92360000))
        ((0.00000000 0.00000000 0.18960000 0.81040000)
        (0.00000000 0.00000000 0.15790000 0.84210000)
        (0.00000000 0.00000000 0.12610000 0.87390000)
        (0.00000000 0.00000000 0.09440000 0.90560000))
        ((0.00000000 0.00000000 0.20160000 0.79840000)
        (0.00000000 0.00000000 0.16990000 0.83010000)
        (0.00000000 0.00000000 0.13810000 0.86190000)
        (0.00000000 0.00000000 0.10640000 0.89360000))))
        ((((0.94730000 0.05270000 0.00000000 0.00000000)
        (0.91560000 0.08440000 0.00000000 0.00000000)
        (0.88380000 0.11620000 0.00000000 0.00000000)
        (0.85210000 0.14790000 0.00000000 0.00000000))
        ((0.96340000 0.03660000 0.00000000 0.00000000)
        (0.93160000 0.06840000 0.00000000 0.00000000)
        (0.89990000 0.10010000 0.00000000 0.00000000)
        (0.86810000 0.13190000 0.00000000 0.00000000))
        ((0.97620000 0.02380000 0.00000000 0.00000000)
        (0.94450000 0.05550000 0.00000000 0.00000000)
        (0.91270000 0.08730000 0.00000000 0.00000000)
        (0.88100000 0.11900000 0.00000000 0.00000000))
        ((0.98480000 0.01520000 0.00000000 0.00000000)
        (0.95310000 0.04690000 0.00000000 0.00000000)
        (0.92130000 0.07870000 0.00000000 0.00000000)
        (0.88960000 0.11040000 0.00000000 0.00000000)))
        (((0.00000000 0.99500000 0.00500000 0.00000000)
        (0.00000000 0.96330000 0.03670000 0.00000000)
        (0.00000000 0.93150000 0.06850000 0.00000000)
        (0.00000000 0.89980000 0.10020000 0.00000000))
        ((0.01380000 0.98620000 0.00000000 0.00000000)
        (0.00000000 0.98200000 0.01800000 0.00000000)
        (0.00000000 0.95030000 0.04970000 0.00000000)
        (0.00000000 0.91850000 0.08150000 0.00000000))
        ((0.02880000 0.97120000 0.00000000 0.00000000)
        (0.00000000 0.99700000 0.00300000 0.00000000)
        (0.00000000 0.96530000 0.03470000 0.00000000)
        (0.00000000 0.93350000 0.06650000 0.00000000))
        ((0.03880000 0.96120000 0.00000000 0.00000000)
        (0.00700000 0.99300000 0.00000000 0.00000000)
        (0.00000000 0.97530000 0.02470000 0.00000000)
        (0.00000000 0.94350000 0.05650000 0.00000000)))
        (((0.00000000 0.04100000 0.95900000 0.00000000)
        (0.00000000 0.00920000 0.99080000 0.00000000)
        (0.00000000 0.00000000 0.97750000 0.02250000)
        (0.00000000 0.00000000 0.94570000 0.05430000))
        ((0.00000000 0.06180000 0.93820000 0.00000000)
        (0.00000000 0.03000000 0.97000000 0.00000000)
        (0.00000000 0.00000000 0.99830000 0.00170000)
        (0.00000000 0.00000000 0.96660000 0.03340000))
        ((0.00000000 0.07850000 0.92150000 0.00000000)
        (0.00000000 0.04670000 0.95330000 0.00000000)
        (0.00000000 0.01500000 0.98500000 0.00000000)
        (0.00000000 0.00000000 0.98320000 0.01680000))
        ((0.00000000 0.08960000 0.91040000 0.00000000)
        (0.00000000 0.05780000 0.94220000 0.00000000)
        (0.00000000 0.02610000 0.97390000 0.00000000)
        (0.00000000 0.00000000 0.99430000 0.00570000)))
        (((0.00000000 0.00000000 0.08560000 0.91440000)
        (0.00000000 0.00000000 0.05390000 0.94610000)
        (0.00000000 0.00000000 0.02210000 0.97790000)
        (0.00000000 0.00000000 0.00000000 1.00000000))
        ((0.00000000 0.00000000 0.10810000 0.89190000)
        (0.00000000 0.00000000 0.07640000 0.92360000)
        (0.00000000 0.00000000 0.04460000 0.95540000)
        (0.00000000 0.00000000 0.01290000 0.98710000))
        ((0.00000000 0.00000000 0.12610000 0.87390000)
        (0.00000000 0.00000000 0.09440000 0.90560000)
        (0.00000000 0.00000000 0.06260000 0.93740000)
        (0.00000000 0.00000000 0.03090000 0.96910000))
        ((0.00000000 0.00000000 0.13810000 0.86190000)
        (0.00000000 0.00000000 0.10640000 0.89360000)
        (0.00000000 0.00000000 0.07460000 0.92540000)
        (0.00000000 0.00000000 0.04290000 0.95710000))))
        ((((0.88380000 0.11620000 0.00000000 0.00000000)
        (0.85210000 0.14790000 0.00000000 0.00000000)
        (0.82030000 0.17970000 0.00000000 0.00000000)
        (0.78860000 0.21140000 0.00000000 0.00000000))
        ((0.89990000 0.10010000 0.00000000 0.00000000)
        (0.86810000 0.13190000 0.00000000 0.00000000)
        (0.83640000 0.16360000 0.00000000 0.00000000)
        (0.80460000 0.19540000 0.00000000 0.00000000))
        ((0.91270000 0.08730000 0.00000000 0.00000000)
        (0.88100000 0.11900000 0.00000000 0.00000000)
        (0.84930000 0.15070000 0.00000000 0.00000000)
        (0.81750000 0.18250000 0.00000000 0.00000000))
        ((0.92130000 0.07870000 0.00000000 0.00000000)
        (0.88960000 0.11040000 0.00000000 0.00000000)
        (0.85780000 0.14220000 0.00000000 0.00000000)
        (0.82610000 0.17390000 0.00000000 0.00000000)))
        (((0.00000000 0.93150000 0.06850000 0.00000000)
        (0.00000000 0.89980000 0.10020000 0.00000000)
        (0.00000000 0.86800000 0.13200000 0.00000000)
        (0.00000000 0.83630000 0.16370000 0.00000000))
        ((0.00000000 0.95030000 0.04970000 0.00000000)
        (0.00000000 0.91850000 0.08150000 0.00000000)
        (0.00000000 0.88680000 0.11320000 0.00000000)
        (0.00000000 0.85500000 0.14500000 0.00000000))
        ((0.00000000 0.96530000 0.03470000 0.00000000)
        (0.00000000 0.93350000 0.06650000 0.00000000)
        (0.00000000 0.90180000 0.09820000 0.00000000)
        (0.00000000 0.87000000 0.13000000 0.00000000))
        ((0.00000000 0.97530000 0.02470000 0.00000000)
        (0.00000000 0.94350000 0.05650000 0.00000000)
        (0.00000000 0.91180000 0.08820000 0.00000000)
        (0.00000000 0.88000000 0.12000000 0.00000000)))
        (((0.00000000 0.00000000 0.97750000 0.02250000)
        (0.00000000 0.00000000 0.94570000 0.05430000)
        (0.00000000 0.00000000 0.91400000 0.08600000)
        (0.00000000 0.00000000 0.88220000 0.11780000))
        ((0.00000000 0.00000000 0.99830000 0.00170000)
        (0.00000000 0.00000000 0.96660000 0.03340000)
        (0.00000000 0.00000000 0.93480000 0.06520000)
        (0.00000000 0.00000000 0.90310000 0.09690000))
        ((0.00000000 0.01500000 0.98500000 0.00000000)
        (0.00000000 0.00000000 0.98320000 0.01680000)
        (0.00000000 0.00000000 0.95150000 0.04850000)
        (0.00000000 0.00000000 0.91970000 0.08030000))
        ((0.00000000 0.02610000 0.97390000 0.00000000)
        (0.00000000 0.00000000 0.99430000 0.00570000)
        (0.00000000 0.00000000 0.96260000 0.03740000)
        (0.00000000 0.00000000 0.93080000 0.06920000)))
        (((0.00000000 0.00000000 0.02210000 0.97790000)
        (0.00000000 0.00000000 0.00000000 1.00000000)
        (0.00000000 0.00000000 0.00000000 1.00000000)
        (0.00000000 0.00000000 0.00000000 1.00000000))
        ((0.00000000 0.00000000 0.04460000 0.95540000)
        (0.00000000 0.00000000 0.01290000 0.98710000)
        (0.00000000 0.00000000 0.00000000 1.00000000)
        (0.00000000 0.00000000 0.00000000 1.00000000))
        ((0.00000000 0.00000000 0.06260000 0.93740000)
        (0.00000000 0.00000000 0.03090000 0.96910000)
        (0.00000000 0.00000000 0.00000000 1.00000000)
        (0.00000000 0.00000000 0.00000000 1.00000000))
        ((0.00000000 0.00000000 0.07460000 0.92540000)
        (0.00000000 0.00000000 0.04290000 0.95710000)
        (0.00000000 0.00000000 0.01120000 0.98880000)
        (0.00000000 0.00000000 0.00000000 1.00000000)))))
        (((((0.97910000 0.02090000 0.00000000 0.00000000)
        (0.94730000 0.05270000 0.00000000 0.00000000)
        (0.91560000 0.08440000 0.00000000 0.00000000)
        (0.88380000 0.11620000 0.00000000 0.00000000))
        ((0.99510000 0.00490000 0.00000000 0.00000000)
        (0.96340000 0.03660000 0.00000000 0.00000000)
        (0.93160000 0.06840000 0.00000000 0.00000000)
        (0.89990000 0.10010000 0.00000000 0.00000000))
        ((1.00000000 0.00000000 0.00000000 0.00000000)
        (0.97620000 0.02380000 0.00000000 0.00000000)
        (0.94450000 0.05550000 0.00000000 0.00000000)
        (0.91270000 0.08730000 0.00000000 0.00000000))
        ((1.00000000 0.00000000 0.00000000 0.00000000)
        (0.98480000 0.01520000 0.00000000 0.00000000)
        (0.95310000 0.04690000 0.00000000 0.00000000)
        (0.92130000 0.07870000 0.00000000 0.00000000)))
        (((0.02680000 0.97320000 0.00000000 0.00000000)
        (0.00000000 0.99500000 0.00500000 0.00000000)
        (0.00000000 0.96330000 0.03670000 0.00000000)
        (0.00000000 0.93150000 0.06850000 0.00000000))
        ((0.04550000 0.95450000 0.00000000 0.00000000)
        (0.01380000 0.98620000 0.00000000 0.00000000)
        (0.00000000 0.98200000 0.01800000 0.00000000)
        (0.00000000 0.95030000 0.04970000 0.00000000))
        ((0.06050000 0.93950000 0.00000000 0.00000000)
        (0.02880000 0.97120000 0.00000000 0.00000000)
        (0.00000000 0.99700000 0.00300000 0.00000000)
        (0.00000000 0.96530000 0.03470000 0.00000000))
        ((0.07050000 0.92950000 0.00000000 0.00000000)
        (0.03880000 0.96120000 0.00000000 0.00000000)
        (0.00700000 0.99300000 0.00000000 0.00000000)
        (0.00000000 0.97530000 0.02470000 0.00000000)))
        (((0.00000000 0.07270000 0.92730000 0.00000000)
        (0.00000000 0.04100000 0.95900000 0.00000000)
        (0.00000000 0.00920000 0.99080000 0.00000000)
        (0.00000000 0.00000000 0.97750000 0.02250000))
        ((0.00000000 0.09350000 0.90650000 0.00000000)
        (0.00000000 0.06180000 0.93820000 0.00000000)
        (0.00000000 0.03000000 0.97000000 0.00000000)
        (0.00000000 0.00000000 0.99830000 0.00170000))
        ((0.00000000 0.11020000 0.88980000 0.00000000)
        (0.00000000 0.07850000 0.92150000 0.00000000)
        (0.00000000 0.04670000 0.95330000 0.00000000)
        (0.00000000 0.01500000 0.98500000 0.00000000))
        ((0.00000000 0.12130000 0.87870000 0.00000000)
        (0.00000000 0.08960000 0.91040000 0.00000000)
        (0.00000000 0.05780000 0.94220000 0.00000000)
        (0.00000000 0.02610000 0.97390000 0.00000000)))
        (((0.00000000 0.00000000 0.11740000 0.88260000)
        (0.00000000 0.00000000 0.08560000 0.91440000)
        (0.00000000 0.00000000 0.05390000 0.94610000)
        (0.00000000 0.00000000 0.02210000 0.97790000))
        ((0.00000000 0.00000000 0.13990000 0.86010000)
        (0.00000000 0.00000000 0.10810000 0.89190000)
        (0.00000000 0.00000000 0.07640000 0.92360000)
        (0.00000000 0.00000000 0.04460000 0.95540000))
        ((0.00000000 0.00000000 0.15790000 0.84210000)
        (0.00000000 0.00000000 0.12610000 0.87390000)
        (0.00000000 0.00000000 0.09440000 0.90560000)
        (0.00000000 0.00000000 0.06260000 0.93740000))
        ((0.00000000 0.00000000 0.16990000 0.83010000)
        (0.00000000 0.00000000 0.13810000 0.86190000)
        (0.00000000 0.00000000 0.10640000 0.89360000)
        (0.00000000 0.00000000 0.07460000 0.92540000))))
        ((((0.89970000 0.10030000 0.00000000 0.00000000)
        (0.86790000 0.13210000 0.00000000 0.00000000)
        (0.83620000 0.16380000 0.00000000 0.00000000)
        (0.80450000 0.19550000 0.00000000 0.00000000))
        ((0.91580000 0.08420000 0.00000000 0.00000000)
        (0.88400000 0.11600000 0.00000000 0.00000000)
        (0.85230000 0.14770000 0.00000000 0.00000000)
        (0.82050000 0.17950000 0.00000000 0.00000000))
        ((0.92860000 0.07140000 0.00000000 0.00000000)
        (0.89690000 0.10310000 0.00000000 0.00000000)
        (0.86510000 0.13490000 0.00000000 0.00000000)
        (0.83340000 0.16660000 0.00000000 0.00000000))
        ((0.93720000 0.06280000 0.00000000 0.00000000)
        (0.90540000 0.09460000 0.00000000 0.00000000)
        (0.87370000 0.12630000 0.00000000 0.00000000)
        (0.84200000 0.15800000 0.00000000 0.00000000)))
        (((0.00000000 0.94740000 0.05260000 0.00000000)
        (0.00000000 0.91570000 0.08430000 0.00000000)
        (0.00000000 0.88390000 0.11610000 0.00000000)
        (0.00000000 0.85220000 0.14780000 0.00000000))
        ((0.00000000 0.96620000 0.03380000 0.00000000)
        (0.00000000 0.93440000 0.06560000 0.00000000)
        (0.00000000 0.90270000 0.09730000 0.00000000)
        (0.00000000 0.87090000 0.12910000 0.00000000))
        ((0.00000000 0.98120000 0.01880000 0.00000000)
        (0.00000000 0.94940000 0.05060000 0.00000000)
        (0.00000000 0.91770000 0.08230000 0.00000000)
        (0.00000000 0.88590000 0.11410000 0.00000000))
        ((0.00000000 0.99120000 0.00880000 0.00000000)
        (0.00000000 0.95940000 0.04060000 0.00000000)
        (0.00000000 0.92770000 0.07230000 0.00000000)
        (0.00000000 0.89590000 0.10410000 0.00000000)))
        (((0.00000000 0.00000000 0.99330000 0.00670000)
        (0.00000000 0.00000000 0.96160000 0.03840000)
        (0.00000000 0.00000000 0.92980000 0.07020000)
        (0.00000000 0.00000000 0.89810000 0.10190000))
        ((0.00000000 0.01420000 0.98580000 0.00000000)
        (0.00000000 0.00000000 0.98240000 0.01760000)
        (0.00000000 0.00000000 0.95070000 0.04930000)
        (0.00000000 0.00000000 0.91890000 0.08110000))
        ((0.00000000 0.03080000 0.96920000 0.00000000)
        (0.00000000 0.00000000 0.99910000 0.00090000)
        (0.00000000 0.00000000 0.96730000 0.03270000)
        (0.00000000 0.00000000 0.93560000 0.06440000))
        ((0.00000000 0.04200000 0.95800000 0.00000000)
        (0.00000000 0.01020000 0.98980000 0.00000000)
        (0.00000000 0.00000000 0.97850000 0.02150000)
        (0.00000000 0.00000000 0.94670000 0.05330000)))
        (((0.00000000 0.00000000 0.03800000 0.96200000)
        (0.00000000 0.00000000 0.00630000 0.99370000)
        (0.00000000 0.00000000 0.00000000 1.00000000)
        (0.00000000 0.00000000 0.00000000 1.00000000))
        ((0.00000000 0.00000000 0.06050000 0.93950000)
        (0.00000000 0.00000000 0.02880000 0.97120000)
        (0.00000000 0.00000000 0.00000000 1.00000000)
        (0.00000000 0.00000000 0.00000000 1.00000000))
        ((0.00000000 0.00000000 0.07850000 0.92150000)
        (0.00000000 0.00000000 0.04680000 0.95320000)
        (0.00000000 0.00000000 0.01500000 0.98500000)
        (0.00000000 0.00000000 0.00000000 1.00000000))
        ((0.00000000 0.00000000 0.09050000 0.90950000)
        (0.00000000 0.00000000 0.05880000 0.94120000)
        (0.00000000 0.00000000 0.02700000 0.97300000)
        (0.00000000 0.00000000 0.00000000 1.00000000))))
        ((((0.82030000 0.17970000 0.00000000 0.00000000)
        (0.78860000 0.21140000 0.00000000 0.00000000)
        (0.75680000 0.24320000 0.00000000 0.00000000)
        (0.72510000 0.27490000 0.00000000 0.00000000))
        ((0.83640000 0.16360000 0.00000000 0.00000000)
        (0.80460000 0.19540000 0.00000000 0.00000000)
        (0.77290000 0.22710000 0.00000000 0.00000000)
        (0.74120000 0.25880000 0.00000000 0.00000000))
        ((0.84930000 0.15070000 0.00000000 0.00000000)
        (0.81750000 0.18250000 0.00000000 0.00000000)
        (0.78580000 0.21420000 0.00000000 0.00000000)
        (0.75400000 0.24600000 0.00000000 0.00000000))
        ((0.85780000 0.14220000 0.00000000 0.00000000)
        (0.82610000 0.17390000 0.00000000 0.00000000)
        (0.79430000 0.20570000 0.00000000 0.00000000)
        (0.76260000 0.23740000 0.00000000 0.00000000)))
        (((0.00000000 0.86800000 0.13200000 0.00000000)
        (0.00000000 0.83630000 0.16370000 0.00000000)
        (0.00000000 0.80450000 0.19550000 0.00000000)
        (0.00000000 0.77280000 0.22720000 0.00000000))
        ((0.00000000 0.88680000 0.11320000 0.00000000)
        (0.00000000 0.85500000 0.14500000 0.00000000)
        (0.00000000 0.82330000 0.17670000 0.00000000)
        (0.00000000 0.79160000 0.20840000 0.00000000))
        ((0.00000000 0.90180000 0.09820000 0.00000000)
        (0.00000000 0.87000000 0.13000000 0.00000000)
        (0.00000000 0.83830000 0.16170000 0.00000000)
        (0.00000000 0.80660000 0.19340000 0.00000000))
        ((0.00000000 0.91180000 0.08820000 0.00000000)
        (0.00000000 0.88000000 0.12000000 0.00000000)
        (0.00000000 0.84830000 0.15170000 0.00000000)
        (0.00000000 0.81660000 0.18340000 0.00000000)))
        (((0.00000000 0.00000000 0.91400000 0.08600000)
        (0.00000000 0.00000000 0.88220000 0.11780000)
        (0.00000000 0.00000000 0.85050000 0.14950000)
        (0.00000000 0.00000000 0.81870000 0.18130000))
        ((0.00000000 0.00000000 0.93480000 0.06520000)
        (0.00000000 0.00000000 0.90310000 0.09690000)
        (0.00000000 0.00000000 0.87130000 0.12870000)
        (0.00000000 0.00000000 0.83960000 0.16040000))
        ((0.00000000 0.00000000 0.95150000 0.04850000)
        (0.00000000 0.00000000 0.91970000 0.08030000)
        (0.00000000 0.00000000 0.88800000 0.11200000)
        (0.00000000 0.00000000 0.85620000 0.14380000))
        ((0.00000000 0.00000000 0.96260000 0.03740000)
        (0.00000000 0.00000000 0.93080000 0.06920000)
        (0.00000000 0.00000000 0.89910000 0.10090000)
        (0.00000000 0.00000000 0.86730000 0.13270000)))
        (((0.00000000 0.00000000 0.00000000 1.00000000)
        (0.00000000 0.00000000 0.00000000 1.00000000)
        (0.00000000 0.00000000 0.00000000 1.00000000)
        (0.00000000 0.00000000 0.00000000 1.00000000))
        ((0.00000000 0.00000000 0.00000000 1.00000000)
        (0.00000000 0.00000000 0.00000000 1.00000000)
        (0.00000000 0.00000000 0.00000000 1.00000000)
        (0.00000000 0.00000000 0.00000000 1.00000000))
        ((0.00000000 0.00000000 0.00000000 1.00000000)
        (0.00000000 0.00000000 0.00000000 1.00000000)
        (0.00000000 0.00000000 0.00000000 1.00000000)
        (0.00000000 0.00000000 0.00000000 1.00000000))
        ((0.00000000 0.00000000 0.01120000 0.98880000)
        (0.00000000 0.00000000 0.00000000 1.00000000)
        (0.00000000 0.00000000 0.00000000 1.00000000)
        (0.00000000 0.00000000 0.00000000 1.00000000)))))
        (((((0.94730000 0.05270000 0.00000000 0.00000000)
        (0.91560000 0.08440000 0.00000000 0.00000000)
        (0.88380000 0.11620000 0.00000000 0.00000000)
        (0.85210000 0.14790000 0.00000000 0.00000000))
        ((0.96340000 0.03660000 0.00000000 0.00000000)
        (0.93160000 0.06840000 0.00000000 0.00000000)
        (0.89990000 0.10010000 0.00000000 0.00000000)
        (0.86810000 0.13190000 0.00000000 0.00000000))
        ((0.97620000 0.02380000 0.00000000 0.00000000)
        (0.94450000 0.05550000 0.00000000 0.00000000)
        (0.91270000 0.08730000 0.00000000 0.00000000)
        (0.88100000 0.11900000 0.00000000 0.00000000))
        ((0.98480000 0.01520000 0.00000000 0.00000000)
        (0.95310000 0.04690000 0.00000000 0.00000000)
        (0.92130000 0.07870000 0.00000000 0.00000000)
        (0.88960000 0.11040000 0.00000000 0.00000000)))
        (((0.00000000 0.99500000 0.00500000 0.00000000)
        (0.00000000 0.96330000 0.03670000 0.00000000)
        (0.00000000 0.93150000 0.06850000 0.00000000)
        (0.00000000 0.89980000 0.10020000 0.00000000))
        ((0.01380000 0.98620000 0.00000000 0.00000000)
        (0.00000000 0.98200000 0.01800000 0.00000000)
        (0.00000000 0.95030000 0.04970000 0.00000000)
        (0.00000000 0.91850000 0.08150000 0.00000000))
        ((0.02880000 0.97120000 0.00000000 0.00000000)
        (0.00000000 0.99700000 0.00300000 0.00000000)
        (0.00000000 0.96530000 0.03470000 0.00000000)
        (0.00000000 0.93350000 0.06650000 0.00000000))
        ((0.03880000 0.96120000 0.00000000 0.00000000)
        (0.00700000 0.99300000 0.00000000 0.00000000)
        (0.00000000 0.97530000 0.02470000 0.00000000)
        (0.00000000 0.94350000 0.05650000 0.00000000)))
        (((0.00000000 0.04100000 0.95900000 0.00000000)
        (0.00000000 0.00920000 0.99080000 0.00000000)
        (0.00000000 0.00000000 0.97750000 0.02250000)
        (0.00000000 0.00000000 0.94570000 0.05430000))
        ((0.00000000 0.06180000 0.93820000 0.00000000)
        (0.00000000 0.03000000 0.97000000 0.00000000)
        (0.00000000 0.00000000 0.99830000 0.00170000)
        (0.00000000 0.00000000 0.96660000 0.03340000))
        ((0.00000000 0.07850000 0.92150000 0.00000000)
        (0.00000000 0.04670000 0.95330000 0.00000000)
        (0.00000000 0.01500000 0.98500000 0.00000000)
        (0.00000000 0.00000000 0.98320000 0.01680000))
        ((0.00000000 0.08960000 0.91040000 0.00000000)
        (0.00000000 0.05780000 0.94220000 0.00000000)
        (0.00000000 0.02610000 0.97390000 0.00000000)
        (0.00000000 0.00000000 0.99430000 0.00570000)))
        (((0.00000000 0.00000000 0.08560000 0.91440000)
        (0.00000000 0.00000000 0.05390000 0.94610000)
        (0.00000000 0.00000000 0.02210000 0.97790000)
        (0.00000000 0.00000000 0.00000000 1.00000000))
        ((0.00000000 0.00000000 0.10810000 0.89190000)
        (0.00000000 0.00000000 0.07640000 0.92360000)
        (0.00000000 0.00000000 0.04460000 0.95540000)
        (0.00000000 0.00000000 0.01290000 0.98710000))
        ((0.00000000 0.00000000 0.12610000 0.87390000)
        (0.00000000 0.00000000 0.09440000 0.90560000)
        (0.00000000 0.00000000 0.06260000 0.93740000)
        (0.00000000 0.00000000 0.03090000 0.96910000))
        ((0.00000000 0.00000000 0.13810000 0.86190000)
        (0.00000000 0.00000000 0.10640000 0.89360000)
        (0.00000000 0.00000000 0.07460000 0.92540000)
        (0.00000000 0.00000000 0.04290000 0.95710000))))
        ((((0.85210000 0.14790000 0.00000000 0.00000000)
        (0.82030000 0.17970000 0.00000000 0.00000000)
        (0.78860000 0.21140000 0.00000000 0.00000000)
        (0.75680000 0.24320000 0.00000000 0.00000000))
        ((0.86810000 0.13190000 0.00000000 0.00000000)
        (0.83640000 0.16360000 0.00000000 0.00000000)
        (0.80460000 0.19540000 0.00000000 0.00000000)
        (0.77290000 0.22710000 0.00000000 0.00000000))
        ((0.88100000 0.11900000 0.00000000 0.00000000)
        (0.84930000 0.15070000 0.00000000 0.00000000)
        (0.81750000 0.18250000 0.00000000 0.00000000)
        (0.78580000 0.21420000 0.00000000 0.00000000))
        ((0.88960000 0.11040000 0.00000000 0.00000000)
        (0.85780000 0.14220000 0.00000000 0.00000000)
        (0.82610000 0.17390000 0.00000000 0.00000000)
        (0.79430000 0.20570000 0.00000000 0.00000000)))
        (((0.00000000 0.89980000 0.10020000 0.00000000)
        (0.00000000 0.86800000 0.13200000 0.00000000)
        (0.00000000 0.83630000 0.16370000 0.00000000)
        (0.00000000 0.80450000 0.19550000 0.00000000))
        ((0.00000000 0.91850000 0.08150000 0.00000000)
        (0.00000000 0.88680000 0.11320000 0.00000000)
        (0.00000000 0.85500000 0.14500000 0.00000000)
        (0.00000000 0.82330000 0.17670000 0.00000000))
        ((0.00000000 0.93350000 0.06650000 0.00000000)
        (0.00000000 0.90180000 0.09820000 0.00000000)
        (0.00000000 0.87000000 0.13000000 0.00000000)
        (0.00000000 0.83830000 0.16170000 0.00000000))
        ((0.00000000 0.94350000 0.05650000 0.00000000)
        (0.00000000 0.91180000 0.08820000 0.00000000)
        (0.00000000 0.88000000 0.12000000 0.00000000)
        (0.00000000 0.84830000 0.15170000 0.00000000)))
        (((0.00000000 0.00000000 0.94570000 0.05430000)
        (0.00000000 0.00000000 0.91400000 0.08600000)
        (0.00000000 0.00000000 0.88220000 0.11780000)
        (0.00000000 0.00000000 0.85050000 0.14950000))
        ((0.00000000 0.00000000 0.96660000 0.03340000)
        (0.00000000 0.00000000 0.93480000 0.06520000)
        (0.00000000 0.00000000 0.90310000 0.09690000)
        (0.00000000 0.00000000 0.87130000 0.12870000))
        ((0.00000000 0.00000000 0.98320000 0.01680000)
        (0.00000000 0.00000000 0.95150000 0.04850000)
        (0.00000000 0.00000000 0.91970000 0.08030000)
        (0.00000000 0.00000000 0.88800000 0.11200000))
        ((0.00000000 0.00000000 0.99430000 0.00570000)
        (0.00000000 0.00000000 0.96260000 0.03740000)
        (0.00000000 0.00000000 0.93080000 0.06920000)
        (0.00000000 0.00000000 0.89910000 0.10090000)))
        (((0.00000000 0.00000000 0.00000000 1.00000000)
        (0.00000000 0.00000000 0.00000000 1.00000000)
        (0.00000000 0.00000000 0.00000000 1.00000000)
        (0.00000000 0.00000000 0.00000000 1.00000000))
        ((0.00000000 0.00000000 0.01290000 0.98710000)
        (0.00000000 0.00000000 0.00000000 1.00000000)
        (0.00000000 0.00000000 0.00000000 1.00000000)
        (0.00000000 0.00000000 0.00000000 1.00000000))
        ((0.00000000 0.00000000 0.03090000 0.96910000)
        (0.00000000 0.00000000 0.00000000 1.00000000)
        (0.00000000 0.00000000 0.00000000 1.00000000)
        (0.00000000 0.00000000 0.00000000 1.00000000))
        ((0.00000000 0.00000000 0.04290000 0.95710000)
        (0.00000000 0.00000000 0.01120000 0.98880000)
        (0.00000000 0.00000000 0.00000000 1.00000000)
        (0.00000000 0.00000000 0.00000000 1.00000000))))
        ((((0.75680000 0.24320000 0.00000000 0.00000000)
        (0.72510000 0.27490000 0.00000000 0.00000000)
        (0.69330000 0.30670000 0.00000000 0.00000000)
        (0.66160000 0.33840000 0.00000000 0.00000000))
        ((0.77290000 0.22710000 0.00000000 0.00000000)
        (0.74120000 0.25880000 0.00000000 0.00000000)
        (0.70940000 0.29060000 0.00000000 0.00000000)
        (0.67770000 0.32230000 0.00000000 0.00000000))
        ((0.78580000 0.21420000 0.00000000 0.00000000)
        (0.75400000 0.24600000 0.00000000 0.00000000)
        (0.72230000 0.27770000 0.00000000 0.00000000)
        (0.69050000 0.30950000 0.00000000 0.00000000))
        ((0.79430000 0.20570000 0.00000000 0.00000000)
        (0.76260000 0.23740000 0.00000000 0.00000000)
        (0.73080000 0.26920000 0.00000000 0.00000000)
        (0.69910000 0.30090000 0.00000000 0.00000000)))
        (((0.00000000 0.80450000 0.19550000 0.00000000)
        (0.00000000 0.77280000 0.22720000 0.00000000)
        (0.00000000 0.74110000 0.25890000 0.00000000)
        (0.00000000 0.70930000 0.29070000 0.00000000))
        ((0.00000000 0.82330000 0.17670000 0.00000000)
        (0.00000000 0.79160000 0.20840000 0.00000000)
        (0.00000000 0.75980000 0.24020000 0.00000000)
        (0.00000000 0.72810000 0.27190000 0.00000000))
        ((0.00000000 0.83830000 0.16170000 0.00000000)
        (0.00000000 0.80660000 0.19340000 0.00000000)
        (0.00000000 0.77480000 0.22520000 0.00000000)
        (0.00000000 0.74310000 0.25690000 0.00000000))
        ((0.00000000 0.84830000 0.15170000 0.00000000)
        (0.00000000 0.81660000 0.18340000 0.00000000)
        (0.00000000 0.78480000 0.21520000 0.00000000)
        (0.00000000 0.75310000 0.24690000 0.00000000)))
        (((0.00000000 0.00000000 0.85050000 0.14950000)
        (0.00000000 0.00000000 0.81870000 0.18130000)
        (0.00000000 0.00000000 0.78700000 0.21300000)
        (0.00000000 0.00000000 0.75520000 0.24480000))
        ((0.00000000 0.00000000 0.87130000 0.12870000)
        (0.00000000 0.00000000 0.83960000 0.16040000)
        (0.00000000 0.00000000 0.80780000 0.19220000)
        (0.00000000 0.00000000 0.77610000 0.22390000))
        ((0.00000000 0.00000000 0.88800000 0.11200000)
        (0.00000000 0.00000000 0.85620000 0.14380000)
        (0.00000000 0.00000000 0.82450000 0.17550000)
        (0.00000000 0.00000000 0.79270000 0.20730000))
        ((0.00000000 0.00000000 0.89910000 0.10090000)
        (0.00000000 0.00000000 0.86730000 0.13270000)
        (0.00000000 0.00000000 0.83560000 0.16440000)
        (0.00000000 0.00000000 0.80390000 0.19610000)))
        (((0.00000000 0.00000000 0.00000000 1.00000000)
        (0.00000000 0.00000000 0.00000000 1.00000000)
        (0.00000000 0.00000000 0.00000000 1.00000000)
        (0.00000000 0.00000000 0.00000000 1.00000000))
        ((0.00000000 0.00000000 0.00000000 1.00000000)
        (0.00000000 0.00000000 0.00000000 1.00000000)
        (0.00000000 0.00000000 0.00000000 1.00000000)
        (0.00000000 0.00000000 0.00000000 1.00000000))
        ((0.00000000 0.00000000 0.00000000 1.00000000)
        (0.00000000 0.00000000 0.00000000 1.00000000)
        (0.00000000 0.00000000 0.00000000 1.00000000)
        (0.00000000 0.00000000 0.00000000 1.00000000))
        ((0.00000000 0.00000000 0.00000000 1.00000000)
        (0.00000000 0.00000000 0.00000000 1.00000000)
        (0.00000000 0.00000000 0.00000000 1.00000000)
        (0.00000000 0.00000000 0.00000000 1.00000000))))));
}

potential (CKND_12_15 | CKNI_12_00 CKND_12_00 CKNN_12_00)
{
    data = ((((0.95240000 0.04760000 0.00000000)
        (0.94440000 0.05560000 0.00000000)
        (0.92860000 0.07140000 0.00000000))
        ((0.00000000 0.99210000 0.00790000)
        (0.00000000 0.98410000 0.01590000)
        (0.00000000 0.96830000 0.03170000))
        ((0.00000000 0.03170000 0.96830000)
        (0.00000000 0.02380000 0.97620000)
        (0.00000000 0.00790000 0.99210000)))
        (((0.91270000 0.08730000 0.00000000)
        (0.90480000 0.09520000 0.00000000)
        (0.88890000 0.11110000 0.00000000))
        ((0.00000000 0.95240000 0.04760000)
        (0.00000000 0.94440000 0.05560000)
        (0.00000000 0.92860000 0.07140000))
        ((0.00000000 0.00000000 1.00000000)
        (0.00000000 0.00000000 1.00000000)
        (0.00000000 0.00000000 1.00000000)))
        (((0.87300000 0.12700000 0.00000000)
        (0.86510000 0.13490000 0.00000000)
        (0.84920000 0.15080000 0.00000000))
        ((0.00000000 0.91270000 0.08730000)
        (0.00000000 0.90480000 0.09520000)
        (0.00000000 0.88890000 0.11110000))
        ((0.00000000 0.00000000 1.00000000)
        (0.00000000 0.00000000 1.00000000)
        (0.00000000 0.00000000 1.00000000))));
}

potential (CNOD_12_15 | CBODD_12_00 CNOD_12_00 CNON_12_00)
{
    data = ((((1.00000000 0.00000000 0.00000000 0.00000000)
        (1.00000000 0.00000000 0.00000000 0.00000000)
        (0.88930000 0.11070000 0.00000000 0.00000000)
        (0.63540000 0.36460000 0.00000000 0.00000000))
        ((0.36750000 0.63250000 0.00000000 0.00000000)
        (0.24050000 0.75950000 0.00000000 0.00000000)
        (0.11350000 0.88650000 0.00000000 0.00000000)
        (0.00000000 0.92980000 0.07020000 0.00000000))
        ((0.00000000 0.29720000 0.70280000 0.00000000)
        (0.00000000 0.23380000 0.76620000 0.00000000)
        (0.00000000 0.17030000 0.82970000 0.00000000)
        (0.00000000 0.04330000 0.95670000 0.00000000))
        ((0.00000000 0.00000000 0.21290000 0.78710000)
        (0.00000000 0.00000000 0.18120000 0.81880000)
        (0.00000000 0.00000000 0.14940000 0.85060000)
        (0.00000000 0.00000000 0.08590000 0.91410000)))
        (((1.00000000 0.00000000 0.00000000 0.00000000)
        (1.00000000 0.00000000 0.00000000 0.00000000)
        (0.98160000 0.01840000 0.00000000 0.00000000)
        (0.72760000 0.27240000 0.00000000 0.00000000))
        ((0.49050000 0.50950000 0.00000000 0.00000000)
        (0.36350000 0.63650000 0.00000000 0.00000000)
        (0.23660000 0.76340000 0.00000000 0.00000000)
        (0.00000000 0.99130000 0.00870000 0.00000000))
        ((0.00000000 0.37110000 0.62890000 0.00000000)
        (0.00000000 0.30760000 0.69240000 0.00000000)
        (0.00000000 0.24410000 0.75590000 0.00000000)
        (0.00000000 0.11710000 0.88290000 0.00000000))
        ((0.00000000 0.00000000 0.25390000 0.74610000)
        (0.00000000 0.00000000 0.22220000 0.77780000)
        (0.00000000 0.00000000 0.19040000 0.80960000)
        (0.00000000 0.00000000 0.12690000 0.87310000)))
        (((1.00000000 0.00000000 0.00000000 0.00000000)
        (1.00000000 0.00000000 0.00000000 0.00000000)
        (1.00000000 0.00000000 0.00000000 0.00000000)
        (0.79940000 0.20060000 0.00000000 0.00000000))
        ((0.58620000 0.41380000 0.00000000 0.00000000)
        (0.45920000 0.54080000 0.00000000 0.00000000)
        (0.33220000 0.66780000 0.00000000 0.00000000)
        (0.07830000 0.92170000 0.00000000 0.00000000))
        ((0.00000000 0.42850000 0.57150000 0.00000000)
        (0.00000000 0.36500000 0.63500000 0.00000000)
        (0.00000000 0.30150000 0.69850000 0.00000000)
        (0.00000000 0.17450000 0.82550000 0.00000000))
        ((0.00000000 0.00000000 0.28580000 0.71420000)
        (0.00000000 0.00000000 0.25410000 0.74590000)
        (0.00000000 0.00000000 0.22230000 0.77770000)
        (0.00000000 0.00000000 0.15880000 0.84120000)))
        (((1.00000000 0.00000000 0.00000000 0.00000000)
        (1.00000000 0.00000000 0.00000000 0.00000000)
        (1.00000000 0.00000000 0.00000000 0.00000000)
        (0.85680000 0.14320000 0.00000000 0.00000000))
        ((0.66270000 0.33730000 0.00000000 0.00000000)
        (0.53580000 0.46420000 0.00000000 0.00000000)
        (0.40880000 0.59120000 0.00000000 0.00000000)
        (0.15480000 0.84520000 0.00000000 0.00000000))
        ((0.00000000 0.47440000 0.52560000 0.00000000)
        (0.00000000 0.41090000 0.58910000 0.00000000)
        (0.00000000 0.34740000 0.65260000 0.00000000)
        (0.00000000 0.22040000 0.77960000 0.00000000))
        ((0.00000000 0.00000000 0.31130000 0.68870000)
        (0.00000000 0.00000000 0.27960000 0.72040000)
        (0.00000000 0.00000000 0.24780000 0.75220000)
        (0.00000000 0.00000000 0.18430000 0.81570000))));
}

potential (CBODN_12_15 | CBODD_12_00 CBODN_12_00 CNON_12_00)
{
    data = ((((0.95570000 0.04430000 0.00000000 0.00000000)
        (0.95610000 0.04390000 0.00000000 0.00000000)
        (0.95620000 0.04380000 0.00000000 0.00000000)
        (0.95640000 0.04360000 0.00000000 0.00000000))
        ((0.04060000 0.95940000 0.00000000 0.00000000)
        (0.04120000 0.95880000 0.00000000 0.00000000)
        (0.04140000 0.95860000 0.00000000 0.00000000)
        (0.04160000 0.95840000 0.00000000 0.00000000))
        ((0.00000000 0.11520000 0.88480000 0.00000000)
        (0.00000000 0.11600000 0.88400000 0.00000000)
        (0.00000000 0.11630000 0.88370000 0.00000000)
        (0.00000000 0.11660000 0.88340000 0.00000000))
        ((0.00000000 0.00000000 0.18350000 0.81650000)
        (0.00000000 0.00000000 0.18440000 0.81560000)
        (0.00000000 0.00000000 0.18470000 0.81530000)
        (0.00000000 0.00000000 0.18500000 0.81500000)))
        (((0.90670000 0.09330000 0.00000000 0.00000000)
        (0.90710000 0.09290000 0.00000000 0.00000000)
        (0.90720000 0.09280000 0.00000000 0.00000000)
        (0.90730000 0.09270000 0.00000000 0.00000000))
        ((0.00000000 0.99160000 0.00840000 0.00000000)
        (0.00000000 0.99220000 0.00780000 0.00000000)
        (0.00000000 0.99240000 0.00760000 0.00000000)
        (0.00000000 0.99260000 0.00740000 0.00000000))
        ((0.00000000 0.06620000 0.93380000 0.00000000)
        (0.00000000 0.06700000 0.93300000 0.00000000)
        (0.00000000 0.06730000 0.93270000 0.00000000)
        (0.00000000 0.06760000 0.93240000 0.00000000))
        ((0.00000000 0.00000000 0.13440000 0.86560000)
        (0.00000000 0.00000000 0.13540000 0.86460000)
        (0.00000000 0.00000000 0.13570000 0.86430000)
        (0.00000000 0.00000000 0.13600000 0.86400000)))
        (((0.85770000 0.14230000 0.00000000 0.00000000)
        (0.85810000 0.14190000 0.00000000 0.00000000)
        (0.85820000 0.14180000 0.00000000 0.00000000)
        (0.85830000 0.14170000 0.00000000 0.00000000))
        ((0.00000000 0.94260000 0.05740000 0.00000000)
        (0.00000000 0.94320000 0.05680000 0.00000000)
        (0.00000000 0.94340000 0.05660000 0.00000000)
        (0.00000000 0.94360000 0.05640000 0.00000000))
        ((0.00000000 0.01720000 0.98280000 0.00000000)
        (0.00000000 0.01800000 0.98200000 0.00000000)
        (0.00000000 0.01830000 0.98170000 0.00000000)
        (0.00000000 0.01850000 0.98150000 0.00000000))
        ((0.00000000 0.00000000 0.08540000 0.91460000)
        (0.00000000 0.00000000 0.08630000 0.91370000)
        (0.00000000 0.00000000 0.08670000 0.91330000)
        (0.00000000 0.00000000 0.08700000 0.91300000)))
        (((0.80870000 0.19130000 0.00000000 0.00000000)
        (0.80900000 0.19100000 0.00000000 0.00000000)
        (0.80920000 0.19080000 0.00000000 0.00000000)
        (0.80930000 0.19070000 0.00000000 0.00000000))
        ((0.00000000 0.89360000 0.10640000 0.00000000)
        (0.00000000 0.89420000 0.10580000 0.00000000)
        (0.00000000 0.89440000 0.10560000 0.00000000)
        (0.00000000 0.89460000 0.10540000 0.00000000))
        ((0.00000000 0.00000000 0.96820000 0.03180000)
        (0.00000000 0.00000000 0.96900000 0.03100000)
        (0.00000000 0.00000000 0.96930000 0.03070000)
        (0.00000000 0.00000000 0.96950000 0.03050000))
        ((0.00000000 0.00000000 0.03640000 0.96360000)
        (0.00000000 0.00000000 0.03730000 0.96270000)
        (0.00000000 0.00000000 0.03770000 0.96230000)
        (0.00000000 0.00000000 0.03800000 0.96200000))));
}

potential (CKNN_12_15 | CKND_12_00 CKNN_12_00)
{
    data = (((1.00000000 0.00000000 0.00000000)
        (0.44590000 0.55410000 0.00000000)
        (0.00000000 0.36270000 0.63730000))
        ((1.00000000 0.00000000 0.00000000)
        (0.24990000 0.75010000 0.00000000)
        (0.00000000 0.26460000 0.73540000))
        ((0.82340000 0.17660000 0.00000000)
        (0.05380000 0.94620000 0.00000000)
        (0.00000000 0.16660000 0.83340000)));
}

potential (CNON_12_15 | CNOD_12_00 CBODN_12_00 CKNN_12_00 CNON_12_00)
{
    data = (((((0.95550000 0.04450000 0.00000000 0.00000000)
        (0.00560000 0.99440000 0.00000000 0.00000000)
        (0.00000000 0.05500000 0.94500000 0.00000000)
        (0.00000000 0.00000000 0.07670000 0.92330000))
        ((0.91020000 0.08980000 0.00000000 0.00000000)
        (0.00000000 0.96020000 0.03980000 0.00000000)
        (0.00000000 0.00960000 0.99040000 0.00000000)
        (0.00000000 0.00000000 0.05400000 0.94600000))
        ((0.86480000 0.13520000 0.00000000 0.00000000)
        (0.00000000 0.91490000 0.08510000 0.00000000)
        (0.00000000 0.00000000 0.98220000 0.01780000)
        (0.00000000 0.00000000 0.03130000 0.96870000)))
        (((0.96180000 0.03820000 0.00000000 0.00000000)
        (0.01250000 0.98750000 0.00000000 0.00000000)
        (0.00000000 0.06220000 0.93780000 0.00000000)
        (0.00000000 0.00000000 0.08040000 0.91960000))
        ((0.91640000 0.08360000 0.00000000 0.00000000)
        (0.00000000 0.96720000 0.03280000 0.00000000)
        (0.00000000 0.01690000 0.98310000 0.00000000)
        (0.00000000 0.00000000 0.05770000 0.94230000))
        ((0.87110000 0.12890000 0.00000000 0.00000000)
        (0.00000000 0.92190000 0.07810000 0.00000000)
        (0.00000000 0.00000000 0.98580000 0.01420000)
        (0.00000000 0.00000000 0.03510000 0.96490000)))
        (((0.96620000 0.03380000 0.00000000 0.00000000)
        (0.01750000 0.98250000 0.00000000 0.00000000)
        (0.00000000 0.06740000 0.93260000 0.00000000)
        (0.00000000 0.00000000 0.08310000 0.91690000))
        ((0.92090000 0.07910000 0.00000000 0.00000000)
        (0.00000000 0.97220000 0.02780000 0.00000000)
        (0.00000000 0.02200000 0.97800000 0.00000000)
        (0.00000000 0.00000000 0.06040000 0.93960000))
        ((0.87560000 0.12440000 0.00000000 0.00000000)
        (0.00000000 0.92680000 0.07320000 0.00000000)
        (0.00000000 0.00000000 0.98840000 0.01160000)
        (0.00000000 0.00000000 0.03770000 0.96230000)))
        (((0.96960000 0.03040000 0.00000000 0.00000000)
        (0.02120000 0.97880000 0.00000000 0.00000000)
        (0.00000000 0.07120000 0.92880000 0.00000000)
        (0.00000000 0.00000000 0.08510000 0.91490000))
        ((0.92430000 0.07570000 0.00000000 0.00000000)
        (0.00000000 0.97590000 0.02410000 0.00000000)
        (0.00000000 0.02590000 0.97410000 0.00000000)
        (0.00000000 0.00000000 0.06240000 0.93760000))
        ((0.87890000 0.12110000 0.00000000 0.00000000)
        (0.00000000 0.93060000 0.06940000 0.00000000)
        (0.00000000 0.00000000 0.99030000 0.00970000)
        (0.00000000 0.00000000 0.03970000 0.96030000))))
        ((((0.94320000 0.05680000 0.00000000 0.00000000)
        (0.00000000 0.99330000 0.00670000 0.00000000)
        (0.00000000 0.04270000 0.95730000 0.00000000)
        (0.00000000 0.00000000 0.07060000 0.92940000))
        ((0.89790000 0.10210000 0.00000000 0.00000000)
        (0.00000000 0.94800000 0.05200000 0.00000000)
        (0.00000000 0.00000000 0.99870000 0.00130000)
        (0.00000000 0.00000000 0.04790000 0.95210000))
        ((0.85260000 0.14740000 0.00000000 0.00000000)
        (0.00000000 0.90260000 0.09740000 0.00000000)
        (0.00000000 0.00000000 0.97600000 0.02400000)
        (0.00000000 0.00000000 0.02520000 0.97480000)))
        (((0.94950000 0.05050000 0.00000000 0.00000000)
        (0.00030000 0.99970000 0.00000000 0.00000000)
        (0.00000000 0.05000000 0.95000000 0.00000000)
        (0.00000000 0.00000000 0.07430000 0.92570000))
        ((0.90420000 0.09580000 0.00000000 0.00000000)
        (0.00000000 0.95490000 0.04510000 0.00000000)
        (0.00000000 0.00460000 0.99540000 0.00000000)
        (0.00000000 0.00000000 0.05160000 0.94840000))
        ((0.85880000 0.14120000 0.00000000 0.00000000)
        (0.00000000 0.90960000 0.09040000 0.00000000)
        (0.00000000 0.00000000 0.97960000 0.02040000)
        (0.00000000 0.00000000 0.02890000 0.97110000)))
        (((0.95400000 0.04600000 0.00000000 0.00000000)
        (0.00520000 0.99480000 0.00000000 0.00000000)
        (0.00000000 0.05510000 0.94490000 0.00000000)
        (0.00000000 0.00000000 0.07690000 0.92310000))
        ((0.90860000 0.09140000 0.00000000 0.00000000)
        (0.00000000 0.95990000 0.04010000 0.00000000)
        (0.00000000 0.00980000 0.99020000 0.00000000)
        (0.00000000 0.00000000 0.05430000 0.94570000))
        ((0.86330000 0.13670000 0.00000000 0.00000000)
        (0.00000000 0.91460000 0.08540000 0.00000000)
        (0.00000000 0.00000000 0.98220000 0.01780000)
        (0.00000000 0.00000000 0.03160000 0.96840000)))
        (((0.95730000 0.04270000 0.00000000 0.00000000)
        (0.00900000 0.99100000 0.00000000 0.00000000)
        (0.00000000 0.05900000 0.94100000 0.00000000)
        (0.00000000 0.00000000 0.07890000 0.92110000))
        ((0.91200000 0.08800000 0.00000000 0.00000000)
        (0.00000000 0.96360000 0.03640000 0.00000000)
        (0.00000000 0.01370000 0.98630000 0.00000000)
        (0.00000000 0.00000000 0.05630000 0.94370000))
        ((0.86670000 0.13330000 0.00000000 0.00000000)
        (0.00000000 0.91830000 0.08170000 0.00000000)
        (0.00000000 0.00000000 0.98420000 0.01580000)
        (0.00000000 0.00000000 0.03360000 0.96640000))))
        ((((0.91870000 0.08130000 0.00000000 0.00000000)
        (0.00000000 0.96880000 0.03120000 0.00000000)
        (0.00000000 0.01820000 0.98180000 0.00000000)
        (0.00000000 0.00000000 0.05830000 0.94170000))
        ((0.87340000 0.12660000 0.00000000 0.00000000)
        (0.00000000 0.92350000 0.07650000 0.00000000)
        (0.00000000 0.00000000 0.98640000 0.01360000)
        (0.00000000 0.00000000 0.03560000 0.96440000))
        ((0.82810000 0.17190000 0.00000000 0.00000000)
        (0.00000000 0.87810000 0.12190000 0.00000000)
        (0.00000000 0.00000000 0.96380000 0.03620000)
        (0.00000000 0.00000000 0.01300000 0.98700000)))
        (((0.92500000 0.07500000 0.00000000 0.00000000)
        (0.00000000 0.97580000 0.02420000 0.00000000)
        (0.00000000 0.02540000 0.97460000 0.00000000)
        (0.00000000 0.00000000 0.06200000 0.93800000))
        ((0.87970000 0.12030000 0.00000000 0.00000000)
        (0.00000000 0.93040000 0.06960000 0.00000000)
        (0.00000000 0.00000000 0.99010000 0.00990000)
        (0.00000000 0.00000000 0.03940000 0.96060000))
        ((0.83430000 0.16570000 0.00000000 0.00000000)
        (0.00000000 0.88510000 0.11490000 0.00000000)
        (0.00000000 0.00000000 0.96740000 0.03260000)
        (0.00000000 0.00000000 0.01670000 0.98330000)))
        (((0.92950000 0.07050000 0.00000000 0.00000000)
        (0.00000000 0.98070000 0.01930000 0.00000000)
        (0.00000000 0.03060000 0.96940000 0.00000000)
        (0.00000000 0.00000000 0.06470000 0.93530000))
        ((0.88410000 0.11590000 0.00000000 0.00000000)
        (0.00000000 0.93540000 0.06460000 0.00000000)
        (0.00000000 0.00000000 0.99260000 0.00740000)
        (0.00000000 0.00000000 0.04200000 0.95800000))
        ((0.83880000 0.16120000 0.00000000 0.00000000)
        (0.00000000 0.89010000 0.10990000 0.00000000)
        (0.00000000 0.00000000 0.97000000 0.03000000)
        (0.00000000 0.00000000 0.01940000 0.98060000)))
        (((0.93280000 0.06720000 0.00000000 0.00000000)
        (0.00000000 0.98450000 0.01550000 0.00000000)
        (0.00000000 0.03450000 0.96550000 0.00000000)
        (0.00000000 0.00000000 0.06670000 0.93330000))
        ((0.88750000 0.11250000 0.00000000 0.00000000)
        (0.00000000 0.93910000 0.06090000 0.00000000)
        (0.00000000 0.00000000 0.99460000 0.00540000)
        (0.00000000 0.00000000 0.04400000 0.95600000))
        ((0.84220000 0.15780000 0.00000000 0.00000000)
        (0.00000000 0.89380000 0.10620000 0.00000000)
        (0.00000000 0.00000000 0.97190000 0.02810000)
        (0.00000000 0.00000000 0.02140000 0.97860000))))
        ((((0.86970000 0.13030000 0.00000000 0.00000000)
        (0.00000000 0.91980000 0.08020000 0.00000000)
        (0.00000000 0.00000000 0.98460000 0.01540000)
        (0.00000000 0.00000000 0.03380000 0.96620000))
        ((0.82440000 0.17560000 0.00000000 0.00000000)
        (0.00000000 0.87440000 0.12560000 0.00000000)
        (0.00000000 0.00000000 0.96190000 0.03810000)
        (0.00000000 0.00000000 0.01110000 0.98890000))
        ((0.77900000 0.22100000 0.00000000 0.00000000)
        (0.00000000 0.82910000 0.17090000 0.00000000)
        (0.00000000 0.00000000 0.93930000 0.06070000)
        (0.00000000 0.00000000 0.00000000 1.00000000)))
        (((0.87600000 0.12400000 0.00000000 0.00000000)
        (0.00000000 0.92670000 0.07330000 0.00000000)
        (0.00000000 0.00000000 0.98820000 0.01180000)
        (0.00000000 0.00000000 0.03750000 0.96250000))
        ((0.83060000 0.16940000 0.00000000 0.00000000)
        (0.00000000 0.88140000 0.11860000 0.00000000)
        (0.00000000 0.00000000 0.96550000 0.03450000)
        (0.00000000 0.00000000 0.01490000 0.98510000))
        ((0.78530000 0.21470000 0.00000000 0.00000000)
        (0.00000000 0.83610000 0.16390000 0.00000000)
        (0.00000000 0.00000000 0.94290000 0.05710000)
        (0.00000000 0.00000000 0.00000000 1.00000000)))
        (((0.88040000 0.11960000 0.00000000 0.00000000)
        (0.00000000 0.93170000 0.06830000 0.00000000)
        (0.00000000 0.00000000 0.99080000 0.00920000)
        (0.00000000 0.00000000 0.04020000 0.95980000))
        ((0.83510000 0.16490000 0.00000000 0.00000000)
        (0.00000000 0.88640000 0.11360000 0.00000000)
        (0.00000000 0.00000000 0.96810000 0.03190000)
        (0.00000000 0.00000000 0.01750000 0.98250000))
        ((0.78980000 0.21020000 0.00000000 0.00000000)
        (0.00000000 0.84100000 0.15900000 0.00000000)
        (0.00000000 0.00000000 0.94550000 0.05450000)
        (0.00000000 0.00000000 0.00000000 1.00000000)))
        (((0.88380000 0.11620000 0.00000000 0.00000000)
        (0.00000000 0.93540000 0.06460000 0.00000000)
        (0.00000000 0.00000000 0.99270000 0.00730000)
        (0.00000000 0.00000000 0.04220000 0.95780000))
        ((0.83850000 0.16150000 0.00000000 0.00000000)
        (0.00000000 0.89010000 0.10990000 0.00000000)
        (0.00000000 0.00000000 0.97010000 0.02990000)
        (0.00000000 0.00000000 0.01950000 0.98050000))
        ((0.79310000 0.20690000 0.00000000 0.00000000)
        (0.00000000 0.84480000 0.15520000 0.00000000)
        (0.00000000 0.00000000 0.94740000 0.05260000)
        (0.00000000 0.00000000 0.00000000 1.00000000)))));
}

potential (C_NI_12_30 | C_NI_12_15)
{
    data = ((0.50000000 0.40000000 0.10000000 0.00000000)
        (0.20000000 0.55000000 0.20000000 0.05000000)
        (0.10000000 0.30000000 0.50000000 0.10000000)
        (0.00000000 0.15000000 0.25000000 0.60000000));
}

potential (CKNI_12_30 | CKNI_12_15)
{
    data = ((0.48000000 0.48000000 0.04000000)
        (0.20000000 0.60000000 0.20000000)
        (0.04000000 0.48000000 0.48000000));
}

potential (CBODD_12_30 | C_NI_12_15 CKNI_12_15 CBODD_12_15 CNOD_12_15 CBODN_12_15)
{
    data = ((((((1.00000000 0.00000000 0.00000000 0.00000000)
        (1.00000000 0.00000000 0.00000000 0.00000000)
        (0.97910000 0.02090000 0.00000000 0.00000000)
        (0.94730000 0.05270000 0.00000000 0.00000000))
        ((1.00000000 0.00000000 0.00000000 0.00000000)
        (1.00000000 0.00000000 0.00000000 0.00000000)
        (0.99510000 0.00490000 0.00000000 0.00000000)
        (0.96340000 0.03660000 0.00000000 0.00000000))
        ((1.00000000 0.00000000 0.00000000 0.00000000)
        (1.00000000 0.00000000 0.00000000 0.00000000)
        (1.00000000 0.00000000 0.00000000 0.00000000)
        (0.97620000 0.02380000 0.00000000 0.00000000))
        ((1.00000000 0.00000000 0.00000000 0.00000000)
        (1.00000000 0.00000000 0.00000000 0.00000000)
        (1.00000000 0.00000000 0.00000000 0.00000000)
        (0.98480000 0.01520000 0.00000000 0.00000000)))
        (((0.09030000 0.90970000 0.00000000 0.00000000)
        (0.05850000 0.94150000 0.00000000 0.00000000)
        (0.02680000 0.97320000 0.00000000 0.00000000)
        (0.00000000 0.99500000 0.00500000 0.00000000))
        ((0.10900000 0.89100000 0.00000000 0.00000000)
        (0.07730000 0.92270000 0.00000000 0.00000000)
        (0.04550000 0.95450000 0.00000000 0.00000000)
        (0.01380000 0.98620000 0.00000000 0.00000000))
        ((0.12400000 0.87600000 0.00000000 0.00000000)
        (0.09230000 0.90770000 0.00000000 0.00000000)
        (0.06050000 0.93950000 0.00000000 0.00000000)
        (0.02880000 0.97120000 0.00000000 0.00000000))
        ((0.13400000 0.86600000 0.00000000 0.00000000)
        (0.10230000 0.89770000 0.00000000 0.00000000)
        (0.07050000 0.92950000 0.00000000 0.00000000)
        (0.03880000 0.96120000 0.00000000 0.00000000)))
        (((0.00000000 0.13620000 0.86380000 0.00000000)
        (0.00000000 0.10450000 0.89550000 0.00000000)
        (0.00000000 0.07270000 0.92730000 0.00000000)
        (0.00000000 0.04100000 0.95900000 0.00000000))
        ((0.00000000 0.15700000 0.84300000 0.00000000)
        (0.00000000 0.12530000 0.87470000 0.00000000)
        (0.00000000 0.09350000 0.90650000 0.00000000)
        (0.00000000 0.06180000 0.93820000 0.00000000))
        ((0.00000000 0.17370000 0.82630000 0.00000000)
        (0.00000000 0.14200000 0.85800000 0.00000000)
        (0.00000000 0.11020000 0.88980000 0.00000000)
        (0.00000000 0.07850000 0.92150000 0.00000000))
        ((0.00000000 0.18480000 0.81520000 0.00000000)
        (0.00000000 0.15310000 0.84690000 0.00000000)
        (0.00000000 0.12130000 0.87870000 0.00000000)
        (0.00000000 0.08960000 0.91040000 0.00000000)))
        (((0.00000000 0.00000000 0.18090000 0.81910000)
        (0.00000000 0.00000000 0.14910000 0.85090000)
        (0.00000000 0.00000000 0.11740000 0.88260000)
        (0.00000000 0.00000000 0.08560000 0.91440000))
        ((0.00000000 0.00000000 0.20340000 0.79660000)
        (0.00000000 0.00000000 0.17160000 0.82840000)
        (0.00000000 0.00000000 0.13990000 0.86010000)
        (0.00000000 0.00000000 0.10810000 0.89190000))
        ((0.00000000 0.00000000 0.22140000 0.77860000)
        (0.00000000 0.00000000 0.18960000 0.81040000)
        (0.00000000 0.00000000 0.15790000 0.84210000)
        (0.00000000 0.00000000 0.12610000 0.87390000))
        ((0.00000000 0.00000000 0.23340000 0.76660000)
        (0.00000000 0.00000000 0.20160000 0.79840000)
        (0.00000000 0.00000000 0.16990000 0.83010000)
        (0.00000000 0.00000000 0.13810000 0.86190000))))
        ((((0.99490000 0.00510000 0.00000000 0.00000000)
        (0.96320000 0.03680000 0.00000000 0.00000000)
        (0.93140000 0.06860000 0.00000000 0.00000000)
        (0.89970000 0.10030000 0.00000000 0.00000000))
        ((1.00000000 0.00000000 0.00000000 0.00000000)
        (0.97930000 0.02070000 0.00000000 0.00000000)
        (0.94750000 0.05250000 0.00000000 0.00000000)
        (0.91580000 0.08420000 0.00000000 0.00000000))
        ((1.00000000 0.00000000 0.00000000 0.00000000)
        (0.99210000 0.00790000 0.00000000 0.00000000)
        (0.96040000 0.03960000 0.00000000 0.00000000)
        (0.92860000 0.07140000 0.00000000 0.00000000))
        ((1.00000000 0.00000000 0.00000000 0.00000000)
        (1.00000000 0.00000000 0.00000000 0.00000000)
        (0.96890000 0.03110000 0.00000000 0.00000000)
        (0.93720000 0.06280000 0.00000000 0.00000000)))
        (((0.04260000 0.95740000 0.00000000 0.00000000)
        (0.01090000 0.98910000 0.00000000 0.00000000)
        (0.00000000 0.97920000 0.02080000 0.00000000)
        (0.00000000 0.94740000 0.05260000 0.00000000))
        ((0.06140000 0.93860000 0.00000000 0.00000000)
        (0.02960000 0.97040000 0.00000000 0.00000000)
        (0.00000000 0.99790000 0.00210000 0.00000000)
        (0.00000000 0.96620000 0.03380000 0.00000000))
        ((0.07640000 0.92360000 0.00000000 0.00000000)
        (0.04460000 0.95540000 0.00000000 0.00000000)
        (0.01290000 0.98710000 0.00000000 0.00000000)
        (0.00000000 0.98120000 0.01880000 0.00000000))
        ((0.08640000 0.91360000 0.00000000 0.00000000)
        (0.05460000 0.94540000 0.00000000 0.00000000)
        (0.02290000 0.97710000 0.00000000 0.00000000)
        (0.00000000 0.99120000 0.00880000 0.00000000)))
        (((0.00000000 0.08860000 0.91140000 0.00000000)
        (0.00000000 0.05680000 0.94320000 0.00000000)
        (0.00000000 0.02510000 0.97490000 0.00000000)
        (0.00000000 0.00000000 0.99330000 0.00670000))
        ((0.00000000 0.10940000 0.89060000 0.00000000)
        (0.00000000 0.07770000 0.92230000 0.00000000)
        (0.00000000 0.04590000 0.95410000 0.00000000)
        (0.00000000 0.01420000 0.98580000 0.00000000))
        ((0.00000000 0.12610000 0.87390000 0.00000000)
        (0.00000000 0.09430000 0.90570000 0.00000000)
        (0.00000000 0.06260000 0.93740000 0.00000000)
        (0.00000000 0.03080000 0.96920000 0.00000000))
        ((0.00000000 0.13720000 0.86280000 0.00000000)
        (0.00000000 0.10540000 0.89460000 0.00000000)
        (0.00000000 0.07370000 0.92630000 0.00000000)
        (0.00000000 0.04200000 0.95800000 0.00000000)))
        (((0.00000000 0.00000000 0.13330000 0.86670000)
        (0.00000000 0.00000000 0.10150000 0.89850000)
        (0.00000000 0.00000000 0.06980000 0.93020000)
        (0.00000000 0.00000000 0.03800000 0.96200000))
        ((0.00000000 0.00000000 0.15580000 0.84420000)
        (0.00000000 0.00000000 0.12400000 0.87600000)
        (0.00000000 0.00000000 0.09230000 0.90770000)
        (0.00000000 0.00000000 0.06050000 0.93950000))
        ((0.00000000 0.00000000 0.17380000 0.82620000)
        (0.00000000 0.00000000 0.14200000 0.85800000)
        (0.00000000 0.00000000 0.11030000 0.88970000)
        (0.00000000 0.00000000 0.07850000 0.92150000))
        ((0.00000000 0.00000000 0.18580000 0.81420000)
        (0.00000000 0.00000000 0.15400000 0.84600000)
        (0.00000000 0.00000000 0.12230000 0.87770000)
        (0.00000000 0.00000000 0.09050000 0.90950000))))
        ((((0.94730000 0.05270000 0.00000000 0.00000000)
        (0.91560000 0.08440000 0.00000000 0.00000000)
        (0.88380000 0.11620000 0.00000000 0.00000000)
        (0.85210000 0.14790000 0.00000000 0.00000000))
        ((0.96340000 0.03660000 0.00000000 0.00000000)
        (0.93160000 0.06840000 0.00000000 0.00000000)
        (0.89990000 0.10010000 0.00000000 0.00000000)
        (0.86810000 0.13190000 0.00000000 0.00000000))
        ((0.97620000 0.02380000 0.00000000 0.00000000)
        (0.94450000 0.05550000 0.00000000 0.00000000)
        (0.91270000 0.08730000 0.00000000 0.00000000)
        (0.88100000 0.11900000 0.00000000 0.00000000))
        ((0.98480000 0.01520000 0.00000000 0.00000000)
        (0.95310000 0.04690000 0.00000000 0.00000000)
        (0.92130000 0.07870000 0.00000000 0.00000000)
        (0.88960000 0.11040000 0.00000000 0.00000000)))
        (((0.00000000 0.99500000 0.00500000 0.00000000)
        (0.00000000 0.96330000 0.03670000 0.00000000)
        (0.00000000 0.93150000 0.06850000 0.00000000)
        (0.00000000 0.89980000 0.10020000 0.00000000))
        ((0.01380000 0.98620000 0.00000000 0.00000000)
        (0.00000000 0.98200000 0.01800000 0.00000000)
        (0.00000000 0.95030000 0.04970000 0.00000000)
        (0.00000000 0.91850000 0.08150000 0.00000000))
        ((0.02880000 0.97120000 0.00000000 0.00000000)
        (0.00000000 0.99700000 0.00300000 0.00000000)
        (0.00000000 0.96530000 0.03470000 0.00000000)
        (0.00000000 0.93350000 0.06650000 0.00000000))
        ((0.03880000 0.96120000 0.00000000 0.00000000)
        (0.00700000 0.99300000 0.00000000 0.00000000)
        (0.00000000 0.97530000 0.02470000 0.00000000)
        (0.00000000 0.94350000 0.05650000 0.00000000)))
        (((0.00000000 0.04100000 0.95900000 0.00000000)
        (0.00000000 0.00920000 0.99080000 0.00000000)
        (0.00000000 0.00000000 0.97750000 0.02250000)
        (0.00000000 0.00000000 0.94570000 0.05430000))
        ((0.00000000 0.06180000 0.93820000 0.00000000)
        (0.00000000 0.03000000 0.97000000 0.00000000)
        (0.00000000 0.00000000 0.99830000 0.00170000)
        (0.00000000 0.00000000 0.96660000 0.03340000))
        ((0.00000000 0.07850000 0.92150000 0.00000000)
        (0.00000000 0.04670000 0.95330000 0.00000000)
        (0.00000000 0.01500000 0.98500000 0.00000000)
        (0.00000000 0.00000000 0.98320000 0.01680000))
        ((0.00000000 0.08960000 0.91040000 0.00000000)
        (0.00000000 0.05780000 0.94220000 0.00000000)
        (0.00000000 0.02610000 0.97390000 0.00000000)
        (0.00000000 0.00000000 0.99430000 0.00570000)))
        (((0.00000000 0.00000000 0.08560000 0.91440000)
        (0.00000000 0.00000000 0.05390000 0.94610000)
        (0.00000000 0.00000000 0.02210000 0.97790000)
        (0.00000000 0.00000000 0.00000000 1.00000000))
        ((0.00000000 0.00000000 0.10810000 0.89190000)
        (0.00000000 0.00000000 0.07640000 0.92360000)
        (0.00000000 0.00000000 0.04460000 0.95540000)
        (0.00000000 0.00000000 0.01290000 0.98710000))
        ((0.00000000 0.00000000 0.12610000 0.87390000)
        (0.00000000 0.00000000 0.09440000 0.90560000)
        (0.00000000 0.00000000 0.06260000 0.93740000)
        (0.00000000 0.00000000 0.03090000 0.96910000))
        ((0.00000000 0.00000000 0.13810000 0.86190000)
        (0.00000000 0.00000000 0.10640000 0.89360000)
        (0.00000000 0.00000000 0.07460000 0.92540000)
        (0.00000000 0.00000000 0.04290000 0.95710000)))))
        (((((1.00000000 0.00000000 0.00000000 0.00000000)
        (0.97910000 0.02090000 0.00000000 0.00000000)
        (0.94730000 0.05270000 0.00000000 0.00000000)
        (0.91560000 0.08440000 0.00000000 0.00000000))
        ((1.00000000 0.00000000 0.00000000 0.00000000)
        (0.99510000 0.00490000 0.00000000 0.00000000)
        (0.96340000 0.03660000 0.00000000 0.00000000)
        (0.93160000 0.06840000 0.00000000 0.00000000))
        ((1.00000000 0.00000000 0.00000000 0.00000000)
        (1.00000000 0.00000000 0.00000000 0.00000000)
        (0.97620000 0.02380000 0.00000000 0.00000000)
        (0.94450000 0.05550000 0.00000000 0.00000000))
        ((1.00000000 0.00000000 0.00000000 0.00000000)
        (1.00000000 0.00000000 0.00000000 0.00000000)
        (0.98480000 0.01520000 0.00000000 0.00000000)
        (0.95310000 0.04690000 0.00000000 0.00000000)))
        (((0.05850000 0.94150000 0.00000000 0.00000000)
        (0.02680000 0.97320000 0.00000000 0.00000000)
        (0.00000000 0.99500000 0.00500000 0.00000000)
        (0.00000000 0.96330000 0.03670000 0.00000000))
        ((0.07730000 0.92270000 0.00000000 0.00000000)
        (0.04550000 0.95450000 0.00000000 0.00000000)
        (0.01380000 0.98620000 0.00000000 0.00000000)
        (0.00000000 0.98200000 0.01800000 0.00000000))
        ((0.09230000 0.90770000 0.00000000 0.00000000)
        (0.06050000 0.93950000 0.00000000 0.00000000)
        (0.02880000 0.97120000 0.00000000 0.00000000)
        (0.00000000 0.99700000 0.00300000 0.00000000))
        ((0.10230000 0.89770000 0.00000000 0.00000000)
        (0.07050000 0.92950000 0.00000000 0.00000000)
        (0.03880000 0.96120000 0.00000000 0.00000000)
        (0.00700000 0.99300000 0.00000000 0.00000000)))
        (((0.00000000 0.10450000 0.89550000 0.00000000)
        (0.00000000 0.07270000 0.92730000 0.00000000)
        (0.00000000 0.04100000 0.95900000 0.00000000)
        (0.00000000 0.00920000 0.99080000 0.00000000))
        ((0.00000000 0.12530000 0.87470000 0.00000000)
        (0.00000000 0.09350000 0.90650000 0.00000000)
        (0.00000000 0.06180000 0.93820000 0.00000000)
        (0.00000000 0.03000000 0.97000000 0.00000000))
        ((0.00000000 0.14200000 0.85800000 0.00000000)
        (0.00000000 0.11020000 0.88980000 0.00000000)
        (0.00000000 0.07850000 0.92150000 0.00000000)
        (0.00000000 0.04670000 0.95330000 0.00000000))
        ((0.00000000 0.15310000 0.84690000 0.00000000)
        (0.00000000 0.12130000 0.87870000 0.00000000)
        (0.00000000 0.08960000 0.91040000 0.00000000)
        (0.00000000 0.05780000 0.94220000 0.00000000)))
        (((0.00000000 0.00000000 0.14910000 0.85090000)
        (0.00000000 0.00000000 0.11740000 0.88260000)
        (0.00000000 0.00000000 0.08560000 0.91440000)
        (0.00000000 0.00000000 0.05390000 0.94610000))
        ((0.00000000 0.00000000 0.17160000 0.82840000)
        (0.00000000 0.00000000 0.13990000 0.86010000)
        (0.00000000 0.00000000 0.10810000 0.89190000)
        (0.00000000 0.00000000 0.07640000 0.92360000))
        ((0.00000000 0.00000000 0.18960000 0.81040000)
        (0.00000000 0.00000000 0.15790000 0.84210000)
        (0.00000000 0.00000000 0.12610000 0.87390000)
        (0.00000000 0.00000000 0.09440000 0.90560000))
        ((0.00000000 0.00000000 0.20160000 0.79840000)
        (0.00000000 0.00000000 0.16990000 0.83010000)
        (0.00000000 0.00000000 0.13810000 0.86190000)
        (0.00000000 0.00000000 0.10640000 0.89360000))))
        ((((0.94730000 0.05270000 0.00000000 0.00000000)
        (0.91560000 0.08440000 0.00000000 0.00000000)
        (0.88380000 0.11620000 0.00000000 0.00000000)
        (0.85210000 0.14790000 0.00000000 0.00000000))
        ((0.96340000 0.03660000 0.00000000 0.00000000)
        (0.93160000 0.06840000 0.00000000 0.00000000)
        (0.89990000 0.10010000 0.00000000 0.00000000)
        (0.86810000 0.13190000 0.00000000 0.00000000))
        ((0.97620000 0.02380000 0.00000000 0.00000000)
        (0.94450000 0.05550000 0.00000000 0.00000000)
        (0.91270000 0.08730000 0.00000000 0.00000000)
        (0.88100000 0.11900000 0.00000000 0.00000000))
        ((0.98480000 0.01520000 0.00000000 0.00000000)
        (0.95310000 0.04690000 0.00000000 0.00000000)
        (0.92130000 0.07870000 0.00000000 0.00000000)
        (0.88960000 0.11040000 0.00000000 0.00000000)))
        (((0.00000000 0.99500000 0.00500000 0.00000000)
        (0.00000000 0.96330000 0.03670000 0.00000000)
        (0.00000000 0.93150000 0.06850000 0.00000000)
        (0.00000000 0.89980000 0.10020000 0.00000000))
        ((0.01380000 0.98620000 0.00000000 0.00000000)
        (0.00000000 0.98200000 0.01800000 0.00000000)
        (0.00000000 0.95030000 0.04970000 0.00000000)
        (0.00000000 0.91850000 0.08150000 0.00000000))
        ((0.02880000 0.97120000 0.00000000 0.00000000)
        (0.00000000 0.99700000 0.00300000 0.00000000)
        (0.00000000 0.96530000 0.03470000 0.00000000)
        (0.00000000 0.93350000 0.06650000 0.00000000))
        ((0.03880000 0.96120000 0.00000000 0.00000000)
        (0.00700000 0.99300000 0.00000000 0.00000000)
        (0.00000000 0.97530000 0.02470000 0.00000000)
        (0.00000000 0.94350000 0.05650000 0.00000000)))
        (((0.00000000 0.04100000 0.95900000 0.00000000)
        (0.00000000 0.00920000 0.99080000 0.00000000)
        (0.00000000 0.00000000 0.97750000 0.02250000)
        (0.00000000 0.00000000 0.94570000 0.05430000))
        ((0.00000000 0.06180000 0.93820000 0.00000000)
        (0.00000000 0.03000000 0.97000000 0.00000000)
        (0.00000000 0.00000000 0.99830000 0.00170000)
        (0.00000000 0.00000000 0.96660000 0.03340000))
        ((0.00000000 0.07850000 0.92150000 0.00000000)
        (0.00000000 0.04670000 0.95330000 0.00000000)
        (0.00000000 0.01500000 0.98500000 0.00000000)
        (0.00000000 0.00000000 0.98320000 0.01680000))
        ((0.00000000 0.08960000 0.91040000 0.00000000)
        (0.00000000 0.05780000 0.94220000 0.00000000)
        (0.00000000 0.02610000 0.97390000 0.00000000)
        (0.00000000 0.00000000 0.99430000 0.00570000)))
        (((0.00000000 0.00000000 0.08560000 0.91440000)
        (0.00000000 0.00000000 0.05390000 0.94610000)
        (0.00000000 0.00000000 0.02210000 0.97790000)
        (0.00000000 0.00000000 0.00000000 1.00000000))
        ((0.00000000 0.00000000 0.10810000 0.89190000)
        (0.00000000 0.00000000 0.07640000 0.92360000)
        (0.00000000 0.00000000 0.04460000 0.95540000)
        (0.00000000 0.00000000 0.01290000 0.98710000))
        ((0.00000000 0.00000000 0.12610000 0.87390000)
        (0.00000000 0.00000000 0.09440000 0.90560000)
        (0.00000000 0.00000000 0.06260000 0.93740000)
        (0.00000000 0.00000000 0.03090000 0.96910000))
        ((0.00000000 0.00000000 0.13810000 0.86190000)
        (0.00000000 0.00000000 0.10640000 0.89360000)
        (0.00000000 0.00000000 0.07460000 0.92540000)
        (0.00000000 0.00000000 0.04290000 0.95710000))))
        ((((0.88380000 0.11620000 0.00000000 0.00000000)
        (0.85210000 0.14790000 0.00000000 0.00000000)
        (0.82030000 0.17970000 0.00000000 0.00000000)
        (0.78860000 0.21140000 0.00000000 0.00000000))
        ((0.89990000 0.10010000 0.00000000 0.00000000)
        (0.86810000 0.13190000 0.00000000 0.00000000)
        (0.83640000 0.16360000 0.00000000 0.00000000)
        (0.80460000 0.19540000 0.00000000 0.00000000))
        ((0.91270000 0.08730000 0.00000000 0.00000000)
        (0.88100000 0.11900000 0.00000000 0.00000000)
        (0.84930000 0.15070000 0.00000000 0.00000000)
        (0.81750000 0.18250000 0.00000000 0.00000000))
        ((0.92130000 0.07870000 0.00000000 0.00000000)
        (0.88960000 0.11040000 0.00000000 0.00000000)
        (0.85780000 0.14220000 0.00000000 0.00000000)
        (0.82610000 0.17390000 0.00000000 0.00000000)))
        (((0.00000000 0.93150000 0.06850000 0.00000000)
        (0.00000000 0.89980000 0.10020000 0.00000000)
        (0.00000000 0.86800000 0.13200000 0.00000000)
        (0.00000000 0.83630000 0.16370000 0.00000000))
        ((0.00000000 0.95030000 0.04970000 0.00000000)
        (0.00000000 0.91850000 0.08150000 0.00000000)
        (0.00000000 0.88680000 0.11320000 0.00000000)
        (0.00000000 0.85500000 0.14500000 0.00000000))
        ((0.00000000 0.96530000 0.03470000 0.00000000)
        (0.00000000 0.93350000 0.06650000 0.00000000)
        (0.00000000 0.90180000 0.09820000 0.00000000)
        (0.00000000 0.87000000 0.13000000 0.00000000))
        ((0.00000000 0.97530000 0.02470000 0.00000000)
        (0.00000000 0.94350000 0.05650000 0.00000000)
        (0.00000000 0.91180000 0.08820000 0.00000000)
        (0.00000000 0.88000000 0.12000000 0.00000000)))
        (((0.00000000 0.00000000 0.97750000 0.02250000)
        (0.00000000 0.00000000 0.94570000 0.05430000)
        (0.00000000 0.00000000 0.91400000 0.08600000)
        (0.00000000 0.00000000 0.88220000 0.11780000))
        ((0.00000000 0.00000000 0.99830000 0.00170000)
        (0.00000000 0.00000000 0.96660000 0.03340000)
        (0.00000000 0.00000000 0.93480000 0.06520000)
        (0.00000000 0.00000000 0.90310000 0.09690000))
        ((0.00000000 0.01500000 0.98500000 0.00000000)
        (0.00000000 0.00000000 0.98320000 0.01680000)
        (0.00000000 0.00000000 0.95150000 0.04850000)
        (0.00000000 0.00000000 0.91970000 0.08030000))
        ((0.00000000 0.02610000 0.97390000 0.00000000)
        (0.00000000 0.00000000 0.99430000 0.00570000)
        (0.00000000 0.00000000 0.96260000 0.03740000)
        (0.00000000 0.00000000 0.93080000 0.06920000)))
        (((0.00000000 0.00000000 0.02210000 0.97790000)
        (0.00000000 0.00000000 0.00000000 1.00000000)
        (0.00000000 0.00000000 0.00000000 1.00000000)
        (0.00000000 0.00000000 0.00000000 1.00000000))
        ((0.00000000 0.00000000 0.04460000 0.95540000)
        (0.00000000 0.00000000 0.01290000 0.98710000)
        (0.00000000 0.00000000 0.00000000 1.00000000)
        (0.00000000 0.00000000 0.00000000 1.00000000))
        ((0.00000000 0.00000000 0.06260000 0.93740000)
        (0.00000000 0.00000000 0.03090000 0.96910000)
        (0.00000000 0.00000000 0.00000000 1.00000000)
        (0.00000000 0.00000000 0.00000000 1.00000000))
        ((0.00000000 0.00000000 0.07460000 0.92540000)
        (0.00000000 0.00000000 0.04290000 0.95710000)
        (0.00000000 0.00000000 0.01120000 0.98880000)
        (0.00000000 0.00000000 0.00000000 1.00000000)))))
        (((((0.97910000 0.02090000 0.00000000 0.00000000)
        (0.94730000 0.05270000 0.00000000 0.00000000)
        (0.91560000 0.08440000 0.00000000 0.00000000)
        (0.88380000 0.11620000 0.00000000 0.00000000))
        ((0.99510000 0.00490000 0.00000000 0.00000000)
        (0.96340000 0.03660000 0.00000000 0.00000000)
        (0.93160000 0.06840000 0.00000000 0.00000000)
        (0.89990000 0.10010000 0.00000000 0.00000000))
        ((1.00000000 0.00000000 0.00000000 0.00000000)
        (0.97620000 0.02380000 0.00000000 0.00000000)
        (0.94450000 0.05550000 0.00000000 0.00000000)
        (0.91270000 0.08730000 0.00000000 0.00000000))
        ((1.00000000 0.00000000 0.00000000 0.00000000)
        (0.98480000 0.01520000 0.00000000 0.00000000)
        (0.95310000 0.04690000 0.00000000 0.00000000)
        (0.92130000 0.07870000 0.00000000 0.00000000)))
        (((0.02680000 0.97320000 0.00000000 0.00000000)
        (0.00000000 0.99500000 0.00500000 0.00000000)
        (0.00000000 0.96330000 0.03670000 0.00000000)
        (0.00000000 0.93150000 0.06850000 0.00000000))
        ((0.04550000 0.95450000 0.00000000 0.00000000)
        (0.01380000 0.98620000 0.00000000 0.00000000)
        (0.00000000 0.98200000 0.01800000 0.00000000)
        (0.00000000 0.95030000 0.04970000 0.00000000))
        ((0.06050000 0.93950000 0.00000000 0.00000000)
        (0.02880000 0.97120000 0.00000000 0.00000000)
        (0.00000000 0.99700000 0.00300000 0.00000000)
        (0.00000000 0.96530000 0.03470000 0.00000000))
        ((0.07050000 0.92950000 0.00000000 0.00000000)
        (0.03880000 0.96120000 0.00000000 0.00000000)
        (0.00700000 0.99300000 0.00000000 0.00000000)
        (0.00000000 0.97530000 0.02470000 0.00000000)))
        (((0.00000000 0.07270000 0.92730000 0.00000000)
        (0.00000000 0.04100000 0.95900000 0.00000000)
        (0.00000000 0.00920000 0.99080000 0.00000000)
        (0.00000000 0.00000000 0.97750000 0.02250000))
        ((0.00000000 0.09350000 0.90650000 0.00000000)
        (0.00000000 0.06180000 0.93820000 0.00000000)
        (0.00000000 0.03000000 0.97000000 0.00000000)
        (0.00000000 0.00000000 0.99830000 0.00170000))
        ((0.00000000 0.11020000 0.88980000 0.00000000)
        (0.00000000 0.07850000 0.92150000 0.00000000)
        (0.00000000 0.04670000 0.95330000 0.00000000)
        (0.00000000 0.01500000 0.98500000 0.00000000))
        ((0.00000000 0.12130000 0.87870000 0.00000000)
        (0.00000000 0.08960000 0.91040000 0.00000000)
        (0.00000000 0.05780000 0.94220000 0.00000000)
        (0.00000000 0.02610000 0.97390000 0.00000000)))
        (((0.00000000 0.00000000 0.11740000 0.88260000)
        (0.00000000 0.00000000 0.08560000 0.91440000)
        (0.00000000 0.00000000 0.05390000 0.94610000)
        (0.00000000 0.00000000 0.02210000 0.97790000))
        ((0.00000000 0.00000000 0.13990000 0.86010000)
        (0.00000000 0.00000000 0.10810000 0.89190000)
        (0.00000000 0.00000000 0.07640000 0.92360000)
        (0.00000000 0.00000000 0.04460000 0.95540000))
        ((0.00000000 0.00000000 0.15790000 0.84210000)
        (0.00000000 0.00000000 0.12610000 0.87390000)
        (0.00000000 0.00000000 0.09440000 0.90560000)
        (0.00000000 0.00000000 0.06260000 0.93740000))
        ((0.00000000 0.00000000 0.16990000 0.83010000)
        (0.00000000 0.00000000 0.13810000 0.86190000)
        (0.00000000 0.00000000 0.10640000 0.89360000)
        (0.00000000 0.00000000 0.07460000 0.92540000))))
        ((((0.89970000 0.10030000 0.00000000 0.00000000)
        (0.86790000 0.13210000 0.00000000 0.00000000)
        (0.83620000 0.16380000 0.00000000 0.00000000)
        (0.80450000 0.19550000 0.00000000 0.00000000))
        ((0.91580000 0.08420000 0.00000000 0.00000000)
        (0.88400000 0.11600000 0.00000000 0.00000000)
        (0.85230000 0.14770000 0.00000000 0.00000000)
        (0.82050000 0.17950000 0.00000000 0.00000000))
        ((0.92860000 0.07140000 0.00000000 0.00000000)
        (0.89690000 0.10310000 0.00000000 0.00000000)
        (0.86510000 0.13490000 0.00000000 0.00000000)
        (0.83340000 0.16660000 0.00000000 0.00000000))
        ((0.93720000 0.06280000 0.00000000 0.00000000)
        (0.90540000 0.09460000 0.00000000 0.00000000)
        (0.87370000 0.12630000 0.00000000 0.00000000)
        (0.84200000 0.15800000 0.00000000 0.00000000)))
        (((0.00000000 0.94740000 0.05260000 0.00000000)
        (0.00000000 0.91570000 0.08430000 0.00000000)
        (0.00000000 0.88390000 0.11610000 0.00000000)
        (0.00000000 0.85220000 0.14780000 0.00000000))
        ((0.00000000 0.96620000 0.03380000 0.00000000)
        (0.00000000 0.93440000 0.06560000 0.00000000)
        (0.00000000 0.90270000 0.09730000 0.00000000)
        (0.00000000 0.87090000 0.12910000 0.00000000))
        ((0.00000000 0.98120000 0.01880000 0.00000000)
        (0.00000000 0.94940000 0.05060000 0.00000000)
        (0.00000000 0.91770000 0.08230000 0.00000000)
        (0.00000000 0.88590000 0.11410000 0.00000000))
        ((0.00000000 0.99120000 0.00880000 0.00000000)
        (0.00000000 0.95940000 0.04060000 0.00000000)
        (0.00000000 0.92770000 0.07230000 0.00000000)
        (0.00000000 0.89590000 0.10410000 0.00000000)))
        (((0.00000000 0.00000000 0.99330000 0.00670000)
        (0.00000000 0.00000000 0.96160000 0.03840000)
        (0.00000000 0.00000000 0.92980000 0.07020000)
        (0.00000000 0.00000000 0.89810000 0.10190000))
        ((0.00000000 0.01420000 0.98580000 0.00000000)
        (0.00000000 0.00000000 0.98240000 0.01760000)
        (0.00000000 0.00000000 0.95070000 0.04930000)
        (0.00000000 0.00000000 0.91890000 0.08110000))
        ((0.00000000 0.03080000 0.96920000 0.00000000)
        (0.00000000 0.00000000 0.99910000 0.00090000)
        (0.00000000 0.00000000 0.96730000 0.03270000)
        (0.00000000 0.00000000 0.93560000 0.06440000))
        ((0.00000000 0.04200000 0.95800000 0.00000000)
        (0.00000000 0.01020000 0.98980000 0.00000000)
        (0.00000000 0.00000000 0.97850000 0.02150000)
        (0.00000000 0.00000000 0.94670000 0.05330000)))
        (((0.00000000 0.00000000 0.03800000 0.96200000)
        (0.00000000 0.00000000 0.00630000 0.99370000)
        (0.00000000 0.00000000 0.00000000 1.00000000)
        (0.00000000 0.00000000 0.00000000 1.00000000))
        ((0.00000000 0.00000000 0.06050000 0.93950000)
        (0.00000000 0.00000000 0.02880000 0.97120000)
        (0.00000000 0.00000000 0.00000000 1.00000000)
        (0.00000000 0.00000000 0.00000000 1.00000000))
        ((0.00000000 0.00000000 0.07850000 0.92150000)
        (0.00000000 0.00000000 0.04680000 0.95320000)
        (0.00000000 0.00000000 0.01500000 0.98500000)
        (0.00000000 0.00000000 0.00000000 1.00000000))
        ((0.00000000 0.00000000 0.09050000 0.90950000)
        (0.00000000 0.00000000 0.05880000 0.94120000)
        (0.00000000 0.00000000 0.02700000 0.97300000)
        (0.00000000 0.00000000 0.00000000 1.00000000))))
        ((((0.82030000 0.17970000 0.00000000 0.00000000)
        (0.78860000 0.21140000 0.00000000 0.00000000)
        (0.75680000 0.24320000 0.00000000 0.00000000)
        (0.72510000 0.27490000 0.00000000 0.00000000))
        ((0.83640000 0.16360000 0.00000000 0.00000000)
        (0.80460000 0.19540000 0.00000000 0.00000000)
        (0.77290000 0.22710000 0.00000000 0.00000000)
        (0.74120000 0.25880000 0.00000000 0.00000000))
        ((0.84930000 0.15070000 0.00000000 0.00000000)
        (0.81750000 0.18250000 0.00000000 0.00000000)
        (0.78580000 0.21420000 0.00000000 0.00000000)
        (0.75400000 0.24600000 0.00000000 0.00000000))
        ((0.85780000 0.14220000 0.00000000 0.00000000)
        (0.82610000 0.17390000 0.00000000 0.00000000)
        (0.79430000 0.20570000 0.00000000 0.00000000)
        (0.76260000 0.23740000 0.00000000 0.00000000)))
        (((0.00000000 0.86800000 0.13200000 0.00000000)
        (0.00000000 0.83630000 0.16370000 0.00000000)
        (0.00000000 0.80450000 0.19550000 0.00000000)
        (0.00000000 0.77280000 0.22720000 0.00000000))
        ((0.00000000 0.88680000 0.11320000 0.00000000)
        (0.00000000 0.85500000 0.14500000 0.00000000)
        (0.00000000 0.82330000 0.17670000 0.00000000)
        (0.00000000 0.79160000 0.20840000 0.00000000))
        ((0.00000000 0.90180000 0.09820000 0.00000000)
        (0.00000000 0.87000000 0.13000000 0.00000000)
        (0.00000000 0.83830000 0.16170000 0.00000000)
        (0.00000000 0.80660000 0.19340000 0.00000000))
        ((0.00000000 0.91180000 0.08820000 0.00000000)
        (0.00000000 0.88000000 0.12000000 0.00000000)
        (0.00000000 0.84830000 0.15170000 0.00000000)
        (0.00000000 0.81660000 0.18340000 0.00000000)))
        (((0.00000000 0.00000000 0.91400000 0.08600000)
        (0.00000000 0.00000000 0.88220000 0.11780000)
        (0.00000000 0.00000000 0.85050000 0.14950000)
        (0.00000000 0.00000000 0.81870000 0.18130000))
        ((0.00000000 0.00000000 0.93480000 0.06520000)
        (0.00000000 0.00000000 0.90310000 0.09690000)
        (0.00000000 0.00000000 0.87130000 0.12870000)
        (0.00000000 0.00000000 0.83960000 0.16040000))
        ((0.00000000 0.00000000 0.95150000 0.04850000)
        (0.00000000 0.00000000 0.91970000 0.08030000)
        (0.00000000 0.00000000 0.88800000 0.11200000)
        (0.00000000 0.00000000 0.85620000 0.14380000))
        ((0.00000000 0.00000000 0.96260000 0.03740000)
        (0.00000000 0.00000000 0.93080000 0.06920000)
        (0.00000000 0.00000000 0.89910000 0.10090000)
        (0.00000000 0.00000000 0.86730000 0.13270000)))
        (((0.00000000 0.00000000 0.00000000 1.00000000)
        (0.00000000 0.00000000 0.00000000 1.00000000)
